{"learner":{"attributes":{"scikit_learn":"{\"_estimator_type\": \"classifier\"}"},"feature_names":["cdmMissDistance","cdmPc","SAT1_CDM_TYPE","SAT2_CDM_TYPE","rso1_objectType","rso2_objectType","org1_displayName","org2_displayName","condition_24H_tca_72H","condition_Radial_100m","condition_InTrack_500m","condition_CrossTrack_500m","condition_sat2posUnc_1km","condition_sat2Obs_25","hours_to_tca"],"feature_types":["int","float","c","c","c","c","c","c","i","i","i","i","i","i","float"],"gradient_booster":{"model":{"cats":{"enc":[{"offsets":[],"values":[]},{"offsets":[],"values":[]},{"offsets":[0,5,8],"values":[69,80,72,69,77,72,65,67]},{"offsets":[0,3],"values":[72,65,67]},{"offsets":[0,6,13,24,31],"values":[68,69,66,82,73,83,80,65,89,76,79,65,68,82,79,67,75,69,84,32,66,79,68,89,85,78,75,78,79,87,78]},{"offsets":[0,6,17],"values":[68,69,66,82,73,83,82,79,67,75,69,84,32,66,79,68,89]},{"offsets":[0,10,23,29,39,50,72,76,85,110,116,125,131,137,149,154],"values":[65,115,116,114,111,115,99,97,108,101,67,97,112,101,108,108,97,32,83,112,97,99,101,71,72,71,83,97,116,71,108,111,98,97,108,115,116,97,114,72,97,119,107,69,121,101,32,51,54,48,76,111,102,116,32,79,114,98,105,116,97,108,32,83,111,108,117,116,105,111,110,115,76,121,110,107,78,65,83,65,32,67,65,82,65,78,65,83,65,32,71,111,100,100,97,114,100,44,68,105,103,105,116,97,108,71,108,111,98,101,79,110,101,87,101,98,79,114,98,105,116,32,70,97,98,80,108,97,110,101,116,83,112,97,99,101,88,83,112,105,114,101,32,71,108,111,98,97,108,85,109,98,114,97]},{"offsets":[0,28,32,35,42,48],"values":[45,32,87,104,105,116,101,108,105,115,116,45,83,104,111,119,32,112,117,98,108,105,99,32,67,68,77,115,78,79,78,69,80,82,67,85,78,75,78,79,87,78,86,65,67,65,78,84]},{"offsets":[],"values":[]},{"offsets":[],"values":[]},{"offsets":[],"values":[]},{"offsets":[],"values":[]},{"offsets":[],"values":[]},{"offsets":[],"values":[]},{"offsets":[],"values":[]}],"feature_segments":[0,0,0,2,3,7,9,24,29,29,29,29,29,29,29,29],"sorted_idx":[0,1,0,0,1,2,3,0,1,0,1,2,3,4,5,6,7,8,9,10,11,12,13,14,0,1,2,3,4]},"gbtree_model_param":{"num_parallel_tree":"1","num_trees":"100"},"iteration_indptr":[0,1,2,3,4,5,6,7,8,9,10,11,12,13,14,15,16,17,18,19,20,21,22,23,24,25,26,27,28,29,30,31,32,33,34,35,36,37,38,39,40,41,42,43,44,45,46,47,48,49,50,51,52,53,54,55,56,57,58,59,60,61,62,63,64,65,66,67,68,69,70,71,72,73,74,75,76,77,78,79,80,81,82,83,84,85,86,87,88,89,90,91,92,93,94,95,96,97,98,99,100],"tree_info":[0,0,0,0,0,0,0,0,0,0,0,0,0,0,0,0,0,0,0,0,0,0,0,0,0,0,0,0,0,0,0,0,0,0,0,0,0,0,0,0,0,0,0,0,0,0,0,0,0,0,0,0,0,0,0,0,0,0,0,0,0,0,0,0,0,0,0,0,0,0,0,0,0,0,0,0,0,0,0,0,0,0,0,0,0,0,0,0,0,0,0,0,0,0,0,0,0,0,0,0],"trees":[{"base_weights":[-4.012998E-8,-5.999946E-1,1.8962078E0,5.998186E-1,-5.998015E-1],"categories":[],"categories_nodes":[],"categories_segments":[],"categories_sizes":[],"default_left":[0,0,0,0,0],"id":0,"left_children":[1,-1,3,-1,-1],"loss_changes":[8.651996E5,0E0,4.7078438E4,0E0,0E0],"parents":[2147483647,0,0,2,2],"right_children":[2,-1,4,-1,-1],"split_conditions":[9.574765E-7,-5.999946E-1,2.039E3,5.998186E-1,-5.998015E-1],"split_indices":[1,0,0,0,0],"split_type":[0,0,0,0,0],"sum_hessian":[2.281395E5,1.110315E5,1.1710799E5,1.1408649E5,3.0215E3],"tree_param":{"num_deleted":"0","num_feature":"15","num_nodes":"5","size_leaf_vector":"1"}},{"base_weights":[-8.0947775E-6,-4.6463984E-1,1.4683448E0,4.644764E-1,-4.6450824E-1],"categories":[],"categories_nodes":[],"categories_segments":[],"categories_sizes":[],"default_left":[0,0,0,0,0],"id":1,"left_children":[1,-1,3,-1,-1],"loss_changes":[4.74817E5,0E0,2.5838812E4,0E0,0E0],"parents":[2147483647,0,0,2,2],"right_children":[2,-1,4,-1,-1],"split_conditions":[9.574765E-7,-4.6463984E-1,2.039E3,4.644764E-1,-4.6450824E-1],"split_indices":[1,0,0,0,0],"split_type":[0,0,0,0,0],"sum_hessian":[2.0878472E5,1.0160919E5,1.0717553E5,1.0441029E5,2.7652463E3],"tree_param":{"num_deleted":"0","num_feature":"15","num_nodes":"5","size_leaf_vector":"1"}},{"base_weights":[-2.2171347E-5,-4.034514E-1,1.2748041E0,4.0325567E-1,-4.033148E-1],"categories":[],"categories_nodes":[],"categories_segments":[],"categories_sizes":[],"default_left":[0,0,0,0,0],"id":2,"left_children":[1,-1,3,-1,-1],"loss_changes":[2.983328E5,0E0,1.6235516E4,0E0,0E0],"parents":[2147483647,0,0,2,2],"right_children":[2,-1,4,-1,-1],"split_conditions":[9.574765E-7,-4.034514E-1,2.039E3,4.0325567E-1,-4.033148E-1],"split_indices":[1,0,0,0,0],"split_type":[0,0,0,0,0],"sum_hessian":[1.740132E5,8.4682E4,8.93312E4,8.702639E4,2.3048157E3],"tree_param":{"num_deleted":"0","num_feature":"15","num_nodes":"5","size_leaf_vector":"1"}},{"base_weights":[-4.0514362E-5,-3.691044E-1,1.1660409E0,1.2295071E0,-3.689412E-1,3.447978E-1,3.689635E-1],"categories":[],"categories_nodes":[],"categories_segments":[],"categories_sizes":[],"default_left":[0,0,0,0,0,0,0],"id":3,"left_children":[1,-1,3,5,-1,-1,-1],"loss_changes":[1.9926603E5,0E0,1.0844469E4,6.5625E-1,0E0,0E0,0E0],"parents":[2147483647,0,0,2,2,3,3],"right_children":[2,-1,4,6,-1,-1,-1],"split_conditions":[9.574765E-7,-3.691044E-1,2.039E3,1.017685E-6,-3.689412E-1,3.447978E-1,3.689635E-1],"split_indices":[1,0,0,1,0,0,0],"split_type":[0,0,0,0,0,0,0],"sum_hessian":[1.3889433E5,6.7585875E4,7.130845E4,6.946871E4,1.8397451E3,3.3450287E2,6.91342E4],"tree_param":{"num_deleted":"0","num_feature":"15","num_nodes":"7","size_leaf_vector":"1"}},{"base_weights":[-6.081615E-5,-3.477727E-1,1.0983461E0,1.1581315E0,-3.475666E-1,1.0612006E0,3.475767E-1,3.2337368E-1,2.3699546E-1],"categories":[],"categories_nodes":[],"categories_segments":[],"categories_sizes":[],"default_left":[0,0,0,0,0,0,0,0,0],"id":4,"left_children":[1,-1,3,5,-1,7,-1,-1,-1],"loss_changes":[1.3774128E5,0E0,7.496211E3,1.1640625E0,0E0,3.5464478E-1,0E0,0E0,0E0],"parents":[2147483647,0,0,2,2,3,3,5,5],"right_children":[2,-1,4,6,-1,8,-1,-1,-1],"split_conditions":[9.574765E-7,-3.477727E-1,2.039E3,1.017685E-6,-3.475666E-1,1.571E3,3.475767E-1,3.2337368E-1,2.3699546E-1],"split_indices":[1,0,0,1,0,0,0,0,0],"split_type":[0,0,0,0,0,0,0,0,0],"sum_hessian":[1.0817862E5,5.263319E4,5.5545426E4,5.4112473E4,1.4329557E3,2.6512497E2,5.3847348E4,2.4693518E2,1.8189793E1],"tree_param":{"num_deleted":"0","num_feature":"15","num_nodes":"9","size_leaf_vector":"1"}},{"base_weights":[-8.4776904E-5,-3.337363E-1,1.0536168E0,1.1109713E0,-3.3346927E-1,9.895901E-1,3.3346814E-1,1.9555981E-1,3.0327067E-1],"categories":[],"categories_nodes":[],"categories_segments":[],"categories_sizes":[],"default_left":[0,0,0,0,0,0,0,0,0],"id":5,"left_children":[1,-1,3,5,-1,7,-1,-1,-1],"loss_changes":[9.7260266E4,0E0,5.293086E3,1.8632812E0,0E0,8.500824E-1,0E0,0E0,0E0],"parents":[2147483647,0,0,2,2,3,3,5,5],"right_children":[2,-1,4,6,-1,8,-1,-1,-1],"split_conditions":[9.574765E-7,-3.337363E-1,2.039E3,1.017685E-6,-3.3346927E-1,1.7545689E1,3.3346814E-1,1.9555981E-1,3.0327067E-1],"split_indices":[1,0,0,1,0,14,0,0,0],"split_type":[0,0,0,0,0,0,0,0,0],"sum_hessian":[8.297711E4,4.0364812E4,4.26123E4,4.1513125E4,1.0991757E3,2.0865926E2,4.130447E4,1.4260795E1,1.9439845E2],"tree_param":{"num_deleted":"0","num_feature":"15","num_nodes":"9","size_leaf_vector":"1"}},{"base_weights":[-1.17624986E-4,-3.2415873E-1,1.0228539E0,1.0785383E0,-3.2380795E-1,9.2444384E-1,1.0793147E0,2.850834E-1,1.6449048E-1,3.241862E-1,3.1232765E-1],"categories":[],"categories_nodes":[],"categories_segments":[],"categories_sizes":[],"default_left":[0,0,0,0,0,0,0,0,0,0,0],"id":6,"left_children":[1,-1,3,5,-1,7,9,-1,-1,-1,-1],"loss_changes":[6.964172E4,0E0,3.7899297E3,2.7773438E0,0E0,1.0828705E0,4.375E-1,0E0,0E0,0E0,0E0],"parents":[2147483647,0,0,2,2,3,3,5,5,6,6],"right_children":[2,-1,4,6,-1,8,10,-1,-1,-1,-1],"split_conditions":[9.574765E-7,-3.2415873E-1,2.039E3,1.017685E-6,-3.2380795E-1,1.571E3,1.896E3,2.850834E-1,1.6449048E-1,3.241862E-1,3.1232765E-1],"split_indices":[1,0,0,1,0,0,0,0,0,0,0],"split_type":[0,0,0,0,0,0,0,0,0,0,0],"sum_hessian":[6.3009062E4,3.0644168E4,3.2364895E4,3.1530195E4,8.346987E2,1.6405643E2,3.1366139E4,1.5208458E2,1.1971846E1,3.0303533E4,1.0626056E3],"tree_param":{"num_deleted":"0","num_feature":"15","num_nodes":"11","size_leaf_vector":"1"}},{"base_weights":[-1.5611031E-4,-3.1746393E-1,1.0010346E0,1.0555357E0,-3.169995E-1,8.5999787E-1,1.0565698E0,1.2163984E-1,8.926935E-1,3.1748325E-1,3.0214095E-1,2.7341405E-1,1.8906027E-1],"categories":[],"categories_nodes":[],"categories_segments":[],"categories_sizes":[],"default_left":[0,0,0,0,0,0,0,0,0,0,0,0,0],"id":7,"left_children":[1,-1,3,5,-1,7,9,-1,11,-1,-1,-1,-1],"loss_changes":[5.0340938E4,0E0,2.7394277E3,3.9003906E0,0E0,1.5777588E0,9.316406E-1,0E0,1.8829346E-2,0E0,0E0,0E0,0E0],"parents":[2147483647,0,0,2,2,3,3,5,5,6,6,8,8],"right_children":[2,-1,4,6,-1,8,10,-1,12,-1,-1,-1,-1],"split_conditions":[9.574765E-7,-3.1746393E-1,2.039E3,1.017685E-6,-3.169995E-1,1.7545689E1,1.896E3,1.2163984E-1,1.571E3,3.1748325E-1,3.0214095E-1,2.7341405E-1,1.8906027E-1],"split_indices":[1,0,0,1,0,14,0,0,0,0,0,0,0],"split_type":[0,0,0,0,0,0,0,0,0,0,0,0,0],"sum_hessian":[4.752008E4,2.3103875E4,2.4416203E4,2.3786666E4,6.2953656E2,1.2952184E2,2.3657145E4,9.590932E0,1.199309E2,2.2847494E4,8.096497E2,1.096528E2,1.0278098E1],"tree_param":{"num_deleted":"0","num_feature":"15","num_nodes":"13","size_leaf_vector":"1"}},{"base_weights":[-2.0098388E-4,-3.127056E-1,9.851096E-1,1.0387485E0,-3.120876E-1,7.932002E-1,1.0401319E0,9.93191E-2,8.3141446E-1,3.1271935E-1,9.7552073E-1,2.7238548E-1,7.0707536E-1,2.934411E-1,1.8034929E-1,4.5731686E-2,2.4420542E-1],"categories":[0,2,3,4],"categories_nodes":[10],"categories_segments":[0],"categories_sizes":[4],"default_left":[0,0,0,0,0,0,0,0,0,0,1,0,0,0,0,0,0],"id":8,"left_children":[1,-1,3,5,-1,7,9,-1,11,-1,13,-1,15,-1,-1,-1,-1],"loss_changes":[3.662903E4,0E0,1.993084E3,5.2441406E0,0E0,1.5665665E0,1.5820312E0,0E0,2.6840973E-1,0E0,1.6601562E-2,0E0,2.3060074E0,0E0,0E0,0E0,0E0],"parents":[2147483647,0,0,2,2,3,3,5,5,6,6,8,8,10,10,12,12],"right_children":[2,-1,4,6,-1,8,10,-1,12,-1,14,-1,16,-1,-1,-1,-1],"split_conditions":[9.574765E-7,-3.127056E-1,2.039E3,1.017685E-6,-3.120876E-1,1.7545689E1,1.896E3,9.93191E-2,5.542104E1,3.1271935E-1,1E-45,2.7238548E-1,6.1885963E1,2.934411E-1,1.8034929E-1,4.5731686E-2,2.4420542E-1],"split_indices":[1,0,0,1,0,14,0,0,14,0,7,0,14,0,0,0,0],"split_type":[0,0,0,0,0,0,0,0,0,0,1,0,0,0,0,0,0],"sum_hessian":[3.5669516E4,1.7334729E4,1.833479E4,1.7862229E4,4.7255948E2,1.032917E2,1.7758938E4,8.626941E0,9.4664764E1,1.7142635E4,6.1630316E2,5.469499E1,3.9969776E1,6.104243E2,5.878802E0,6.8530817E0,3.311669E1],"tree_param":{"num_deleted":"0","num_feature":"15","num_nodes":"17","size_leaf_vector":"1"}},{"base_weights":[-2.474284E-4,-3.0928302E-1,9.731024E-1,1.0260918E0,-3.0845806E-1,7.2258514E-1,1.0279473E0,7.7022064E-1,5.1025804E-2,3.0929282E-1,9.4333446E-1,6.4081943E-1,8.5594285E-1,9.4663185E-1,1.5852594E-1,1.0281675E-1,2.4187507E-1,2.7577597E-1,1.7850932E-1,2.5620368E-1,2.898519E-1],"categories":[0,2,3,4],"categories_nodes":[10],"categories_segments":[0],"categories_sizes":[4],"default_left":[0,0,0,0,0,0,0,0,0,0,1,0,0,0,0,0,0,0,0,0,0],"id":9,"left_children":[1,-1,3,5,-1,7,9,11,-1,-1,13,15,17,19,-1,-1,-1,-1,-1,-1,-1],"loss_changes":[2.6774703E4,0E0,1.4566768E3,6.7890625E0,0E0,2.09618E0,2.4335938E0,3.1253815E-1,0E0,0E0,1.4416504E-1,1.4452581E0,1.7509079E-1,1.8341064E-2,0E0,0E0,0E0,0E0,0E0,0E0,0E0],"parents":[2147483647,0,0,2,2,3,3,5,5,6,6,7,7,10,10,11,11,12,12,13,13],"right_children":[2,-1,4,6,-1,8,10,12,-1,-1,14,16,18,20,-1,-1,-1,-1,-1,-1,-1],"split_conditions":[9.574765E-7,-3.0928302E-1,2.039E3,1.017685E-6,-3.0845806E-1,1.571E3,1.896E3,7.73E2,5.1025804E-2,3.0929282E-1,1E-45,1E0,1.189E3,3.3193367E1,1.5852594E-1,1.0281675E-1,2.4187507E-1,2.7577597E-1,1.7850932E-1,2.5620368E-1,2.898519E-1],"split_indices":[1,0,0,1,0,0,0,0,0,0,7,8,0,14,0,0,0,0,0,0,0],"split_type":[0,0,0,0,0,0,0,0,0,0,1,0,0,0,0,0,0,0,0,0,0],"sum_hessian":[2.668656E4,1.2961431E4,1.3725129E4,1.337157E4,3.535593E2,8.362407E1,1.3287946E4,7.662365E1,7.0004196E0,1.2817944E4,4.7000137E2,3.3910263E1,4.271339E1,4.6502426E2,4.9771085E0,1.3198683E1,2.071158E1,3.234229E1,1.0371101E1,8.8807106E1,3.7621716E2],"tree_param":{"num_deleted":"0","num_feature":"15","num_nodes":"21","size_leaf_vector":"1"}},{"base_weights":[-2.8905532E-4,-3.067993E-1,9.636569E-1,1.0161352E0,-3.056957E-1,6.489771E-1,1.0186241E0,7.014971E-1,3.9494306E-2,3.0680624E-1,9.082055E-1,7.291613E-1,7.421173E-2,9.1233295E-1,1.3748252E-1,1.3859846E-1,2.343648E-1,2.3957872E-1,2.811528E-1],"categories":[0,2,3,4],"categories_nodes":[10],"categories_segments":[0],"categories_sizes":[4],"default_left":[0,0,0,0,0,0,0,0,0,0,1,0,0,0,0,0,0,0,0],"id":10,"left_children":[1,-1,3,5,-1,7,9,11,-1,-1,13,15,-1,17,-1,-1,-1,-1,-1],"loss_changes":[1.9634436E4,0E0,1.0679766E3,8.46875E0,0E0,1.8101883E0,3.5234375E0,6.153507E-1,0E0,0E0,2.524414E-1,4.6222878E-1,0E0,2.5976562E-1,0E0,0E0,0E0,0E0,0E0],"parents":[2147483647,0,0,2,2,3,3,5,5,6,6,7,7,10,10,11,11,13,13],"right_children":[2,-1,4,6,-1,8,10,12,-1,-1,14,16,-1,18,-1,-1,-1,-1,-1],"split_conditions":[9.574765E-7,-3.067993E-1,2.039E3,1.017685E-6,-3.056957E-1,1.571E3,1.896E3,9.69651E1,3.9494306E-2,3.0680624E-1,1E-45,2.8755306E1,7.421173E-2,3.3193367E1,1.3748252E-1,1.3859846E-1,2.343648E-1,2.3957872E-1,2.811528E-1],"split_indices":[1,0,0,1,0,0,0,14,0,0,7,14,0,14,0,0,0,0,0],"split_type":[0,0,0,0,0,0,0,0,0,0,1,0,0,0,0,0,0,0,0],"sum_hessian":[1.9921033E4,9.66749E3,1.0253543E4,9.989616E3,2.639262E2,6.902327E1,9.920593E3,6.2338577E1,6.6846943E0,9.560507E3,3.6008633E2,5.8188236E1,4.15034E0,3.5579477E2,4.291577E0,1.1098943E1,4.7089294E1,6.972477E1,2.8606998E2],"tree_param":{"num_deleted":"0","num_feature":"15","num_nodes":"19","size_leaf_vector":"1"}},{"base_weights":[-3.6344316E-4,-3.0498388E-1,9.557697E-1,1.0078241E0,-3.0350587E-1,5.7026124E-1,1.0111672E0,2.7174978E-2,6.26817E-1,3.0498874E-1,8.680265E-1,7.6679015E-1,4.112315E-1,7.3602563E-1,8.975131E-1,1.0643434E-1,2.4211736E-1,1.832557E-1,-1.613467E-1,2.4961974E-1,5.02087E-2,2.7131987E-1,1.17724106E-1],"categories":[0,2,3,4],"categories_nodes":[14],"categories_segments":[0],"categories_sizes":[4],"default_left":[0,0,0,0,0,0,0,0,0,0,0,0,0,0,1,0,0,0,0,0,0,0,0],"id":11,"left_children":[1,-1,3,5,-1,7,9,-1,11,-1,13,15,17,19,21,-1,-1,-1,-1,-1,-1,-1,-1],"loss_changes":[1.4429406E4,0E0,7.8463184E2,1.0328613E1,0E0,1.5388432E0,4.8999023E0,0E0,1.2672577E0,0E0,4.242401E-1,2.2204399E-1,4.648501E0,2.943697E0,4.2167664E-1,0E0,0E0,0E0,0E0,0E0,0E0,0E0,0E0],"parents":[2147483647,0,0,2,2,3,3,5,5,6,6,8,8,10,10,11,11,12,12,13,13,14,14],"right_children":[2,-1,4,6,-1,8,10,-1,12,-1,14,16,18,20,22,-1,-1,-1,-1,-1,-1,-1,-1],"split_conditions":[9.574765E-7,-3.0498388E-1,2.039E3,1.017685E-6,-3.0350587E-1,1.7545689E1,1.896E3,2.7174978E-2,5.542104E1,3.0498874E-1,3.3193367E1,2.8755306E1,9.88E2,2.5126863E1,1E-45,1.0643434E-1,2.4211736E-1,1.832557E-1,-1.613467E-1,2.4961974E-1,5.02087E-2,2.7131987E-1,1.17724106E-1],"split_indices":[1,0,0,1,0,14,0,0,14,0,14,14,0,14,7,0,0,0,0,0,0,0,0],"split_type":[0,0,0,0,0,0,0,0,0,0,0,0,0,0,1,0,0,0,0,0,0,0,0],"sum_hessian":[1.4848112E4,7.1977476E3,7.650365E3,7.4536465E3,1.9671877E2,5.7817097E1,7.395829E3,6.372277E0,5.144482E1,7.1181143E3,2.7771515E2,2.9642233E1,2.1802588E1,5.5449413E1,2.2226573E2,3.5126119E0,2.6129622E1,1.8308083E1,3.4945042E0,4.7041496E1,8.407917E0,2.1849626E2,3.769469E0],"tree_param":{"num_deleted":"0","num_feature":"15","num_nodes":"23","size_leaf_vector":"1"}},{"base_weights":[-4.2509663E-4,-3.036483E-1,9.4866824E-1,1.000339E0,-3.0166778E-1,4.9192476E-1,1.0048263E0,5.610066E-1,-2.6459118E-2,3.036516E-1,8.2129896E-1,3.6248755E-1,7.045601E-1,6.677039E-1,8.5750127E-1,1.540066E-1,-1.4895456E-2,2.4544163E-1,7.795058E-2,2.3339443E-1,3.8697682E-2,1.6450179E-1,2.6311144E-1],"categories":[0],"categories_nodes":[11],"categories_segments":[0],"categories_sizes":[1],"default_left":[0,0,0,0,0,0,0,0,0,0,0,1,0,0,0,0,0,0,0,0,0,0,0],"id":12,"left_children":[1,-1,3,5,-1,7,9,11,-1,-1,13,15,17,19,21,-1,-1,-1,-1,-1,-1,-1,-1],"loss_changes":[1.0619455E4,0E0,5.7720654E2,1.2189941E1,0E0,2.0773306E0,6.597168E0,1.0370436E0,0E0,0E0,6.360779E-1,1.336952E0,1.063324E0,2.631092E0,5.6031036E-1,0E0,0E0,0E0,0E0,0E0,0E0,0E0,0E0],"parents":[2147483647,0,0,2,2,3,3,5,5,6,6,7,7,10,10,11,11,12,12,13,13,14,14],"right_children":[2,-1,4,6,-1,8,10,12,-1,-1,14,16,18,20,22,-1,-1,-1,-1,-1,-1,-1,-1],"split_conditions":[9.574765E-7,-3.036483E-1,2.039E3,1.017685E-6,-3.0166778E-1,1.571E3,1.896E3,7.73E2,-2.6459118E-2,3.036516E-1,3.3193367E1,1E-45,1.189E3,2.5126863E1,1.579112E-6,1.540066E-1,-1.4895456E-2,2.4544163E-1,7.795058E-2,2.3339443E-1,3.8697682E-2,1.6450179E-1,2.6311144E-1],"split_indices":[1,0,0,1,0,0,0,0,0,0,14,2,0,14,1,0,0,0,0,0,0,0,0],"split_type":[0,0,0,0,0,0,0,0,0,0,0,1,0,0,0,0,0,0,0,0,0,0,0],"sum_hessian":[1.1057263E4,5.3519766E3,5.7052866E3,5.5587974E3,1.4648938E2,4.9600258E1,5.509197E3,4.435173E1,5.2485256E0,5.292835E3,2.1636192E2,2.00919E1,2.425983E1,4.4977966E1,1.7138396E2,1.4528138E1,5.5637627E0,1.865569E1,5.6041417E0,3.6966545E1,8.011421E0,1.1914161E1,1.5946979E2],"tree_param":{"num_deleted":"0","num_feature":"15","num_nodes":"23","size_leaf_vector":"1"}},{"base_weights":[-5.000938E-4,-3.0265865E-1,9.416806E-1,9.929739E-1,-3.0000514E-1,4.1626906E-1,9.989887E-1,5.1993406E-1,7.640432E-2,3.026607E-1,7.668624E-1,2.9403296E-1,7.6254815E-1,1.1234725E-1,-6.854743E-2,5.939856E-1,8.10221E-1,-1.7801771E-2,1.6869481E-1,2.700715E-1,1.5686372E-1,2.3465215E-1,5.410937E-2,2.463733E-1,5.5473723E-2],"categories":[0,2,3,4],"categories_nodes":[16],"categories_segments":[0],"categories_sizes":[4],"default_left":[0,0,0,0,0,0,0,0,0,0,0,0,0,0,0,0,1,0,0,0,0,0,0,0,0],"id":13,"left_children":[1,-1,3,5,-1,7,9,11,13,-1,15,17,19,-1,-1,21,23,-1,-1,-1,-1,-1,-1,-1,-1],"loss_changes":[7.821714E3,0E0,4.2488428E2,1.3969238E1,0E0,1.5288024E0,8.637695E0,1.6360435E0,1.1378173E0,0E0,8.057709E-1,1.8539817E0,4.864216E-2,0E0,0E0,2.8304787E0,7.754135E-1,0E0,0E0,0E0,0E0,0E0,0E0,0E0,0E0],"parents":[2147483647,0,0,2,2,3,3,5,5,6,6,7,7,8,8,10,10,11,11,12,12,15,15,16,16],"right_children":[2,-1,4,6,-1,8,10,12,14,-1,16,18,20,-1,-1,22,24,-1,-1,-1,-1,-1,-1,-1,-1],"split_conditions":[9.574765E-7,-3.0265865E-1,2.039E3,1.017685E-6,-3.0000514E-1,1.189E3,1.896E3,7.73E2,5.065519E1,3.026607E-1,3.3193367E1,1E0,1E0,1.1234725E-1,-6.854743E-2,1.045708E-5,1E-45,-1.7801771E-2,1.6869481E-1,2.700715E-1,1.5686372E-1,2.3465215E-1,5.410937E-2,2.463733E-1,5.5473723E-2],"split_indices":[1,0,0,1,0,0,0,0,14,0,14,8,10,0,0,1,7,0,0,0,0,0,0,0,0],"split_type":[0,0,0,0,0,0,0,0,0,0,0,0,0,0,0,0,1,0,0,0,0,0,0,0,0],"sum_hessian":[8.230869E3,3.9757651E3,4.2551045E3,4.1460674E3,1.09036934E2,4.3519875E1,4.1025474E3,3.29421E1,1.0577773E1,3.931846E3,1.7070163E2,1.820403E1,1.4738071E1,5.2331934E0,5.344579E0,3.717585E1,1.3352577E2,8.192284E0,1.0011745E1,7.6099634E0,7.128108E0,2.4938402E1,1.2237446E1,1.3090477E2,2.6210053E0],"tree_param":{"num_deleted":"0","num_feature":"15","num_nodes":"25","size_leaf_vector":"1"}},{"base_weights":[-5.589152E-4,-3.019183E-1,9.342029E-1,9.8508906E-1,-2.9836574E-1,3.505798E-1,9.931133E-1,4.895363E-1,8.54583E-2,3.0191925E-1,7.042861E-1,-3.6972005E-2,7.008099E-1,-3.015305E-1,3.7942085E-1,5.177994E-1,7.5458664E-1,1.6743802E-1,-3.6845535E-1,1.413373E-1,2.740918E-1,2.518581E-1,-1.6480251E-3,2.0030953E-1,-3.134794E-2,1.0197651E-1,2.3543307E-1],"categories":[],"categories_nodes":[],"categories_segments":[],"categories_sizes":[],"default_left":[0,0,0,0,0,0,0,0,0,0,0,0,0,0,0,0,0,0,0,0,0,0,0,0,0,0,0],"id":14,"left_children":[1,-1,3,5,-1,7,9,11,13,-1,15,17,19,-1,21,23,25,-1,-1,-1,-1,-1,-1,-1,-1,-1,-1],"loss_changes":[5.762869E3,0E0,3.1278198E2,1.5413818E1,0E0,1.4393854E0,1.1018799E1,2.936832E0,5.202266E0,0E0,9.012375E-1,6.6710615E0,4.8491096E-1,0E0,2.2309546E0,3.0962582E0,1.0638123E0,0E0,0E0,0E0,0E0,0E0,0E0,0E0,0E0,0E0,0E0],"parents":[2147483647,0,0,2,2,3,3,5,5,6,6,7,7,8,8,10,10,11,11,12,12,14,14,15,15,16,16],"right_children":[2,-1,4,6,-1,8,10,12,14,-1,16,18,20,-1,22,24,26,-1,-1,-1,-1,-1,-1,-1,-1,-1,-1],"split_conditions":[9.574765E-7,-3.019183E-1,2.039E3,1.017685E-6,-2.9836574E-1,5.542104E1,1.896E3,2.8755306E1,6.1885963E1,3.0191925E-1,3.3193367E1,4.99764E0,1.383E3,-3.015305E-1,6.447067E1,2.5126863E1,1.579112E-6,1.6743802E-1,-3.6845535E-1,1.413373E-1,2.740918E-1,2.518581E-1,-1.6480251E-3,2.0030953E-1,-3.134794E-2,1.0197651E-1,2.3543307E-1],"split_indices":[1,0,0,1,0,14,0,14,14,0,14,14,0,0,14,14,1,0,0,0,0,0,0,0,0,0,0],"split_type":[0,0,0,0,0,0,0,0,0,0,0,0,0,0,0,0,0,0,0,0,0,0,0,0,0,0,0],"sum_hessian":[6.1273E3,2.9514082E3,3.1758918E3,3.0947332E3,8.115873E1,3.9206482E1,3.0555266E3,2.5168575E1,1.4037908E1,2.9187957E3,1.367309E2,7.4436064E0,1.772497E1,2.4669008E0,1.1571007E1,3.144484E1,1.05286064E2,5.318224E0,2.1253827E0,1.0070501E1,7.6544676E0,4.732706E0,6.8383E0,2.5281918E1,6.1629214E0,7.9772577E0,9.730881E1],"tree_param":{"num_deleted":"0","num_feature":"15","num_nodes":"27","size_leaf_vector":"1"}},{"base_weights":[-6.223516E-4,-3.0135643E-1,9.2556006E-1,9.759736E-1,-2.9660723E-1,2.923133E-1,9.8668164E-1,4.2505562E-1,-1.4143954E-1,3.0135646E-1,6.343722E-1,1.348721E-1,7.2609967E-1,1.9730528E-1,-1.24744184E-1,6.9926363E-1,4.5280662E-1,1.0307893E-1,-1.1490724E-1,1.4567243E-1,2.6298767E-1,1.0339302E-1,-7.13993E-3,2.2172765E-1,-8.46851E-2,-9.97566E-3,1.9712505E-1],"categories":[0,0],"categories_nodes":[11,12],"categories_segments":[0,1],"categories_sizes":[1,1],"default_left":[0,0,0,0,0,0,0,0,0,0,0,1,1,0,0,0,0,0,0,0,0,0,0,0,0,0,0],"id":15,"left_children":[1,-1,3,5,-1,7,9,11,13,-1,15,17,19,21,-1,23,25,-1,-1,-1,-1,-1,-1,-1,-1,-1,-1],"loss_changes":[4.2450947E3,0E0,2.3013684E2,1.6653809E1,0E0,2.1968358E0,1.36813965E1,2.4061217E0,9.5999014E-1,0E0,1.0090141E0,1.8420889E0,7.543898E-2,1.6800594E-1,0E0,3.3772545E0,3.2450156E0,0E0,0E0,0E0,0E0,0E0,0E0,0E0,0E0,0E0,0E0],"parents":[2147483647,0,0,2,2,3,3,5,5,6,6,7,7,8,8,10,10,11,11,12,12,13,13,15,15,16,16],"right_children":[2,-1,4,6,-1,8,10,12,14,-1,16,18,20,22,-1,24,26,-1,-1,-1,-1,-1,-1,-1,-1,-1,-1],"split_conditions":[9.574765E-7,-3.0135643E-1,2.039E3,1.017685E-6,-2.9660723E-1,1.189E3,1.896E3,7.73E2,5.065519E1,3.0135646E-1,1.045708E-5,1E-45,1E-45,1.383E3,-1.24744184E-1,6.65098E1,3.2919357E1,1.0307893E-1,-1.1490724E-1,1.4567243E-1,2.6298767E-1,1.0339302E-1,-7.13993E-3,2.2172765E-1,-8.46851E-2,-9.97566E-3,1.9712505E-1],"split_indices":[1,0,0,1,0,0,0,0,14,0,1,2,2,0,0,14,14,0,0,0,0,0,0,0,0,0,0],"split_type":[0,0,0,0,0,0,0,0,0,0,0,1,1,0,0,0,0,0,0,0,0,0,0,0,0,0,0],"sum_hessian":[4.5636313E3,2.1898955E3,2.3737358E3,2.313303E3,6.043283E1,3.6110348E1,2.2771926E3,2.7664248E1,8.446099E0,2.1656785E3,1.1151418E2,1.4823519E1,1.2840729E1,3.9053783E0,4.540721E0,8.005222E1,3.1461964E1,1.0805288E1,4.018231E0,6.5693836E0,6.2713456E0,2.0083437E0,1.8970345E0,7.716797E1,2.8842535E0,9.557633E0,2.1904331E1],"tree_param":{"num_deleted":"0","num_feature":"15","num_nodes":"27","size_leaf_vector":"1"}},{"base_weights":[-7.047468E-4,-3.0092004E-1,9.150949E-1,9.649373E-1,-2.9458553E-1,2.4068837E-1,9.791375E-1,-8.1277765E-2,3.239089E-1,3.0091915E-1,5.588183E-1,5.739997E-1,-4.0594827E-2,4.6793184E-1,7.385505E-1,9.642896E-2,2.6706174E-1,9.452093E-2,-4.430864E-1,1.5463874E-1,-2.2511028E-1,1.2253744E-1,2.585525E-1],"categories":[],"categories_nodes":[],"categories_segments":[],"categories_sizes":[],"default_left":[0,0,0,0,0,0,0,0,0,0,0,0,0,0,0,0,0,0,0,0,0,0,0],"id":16,"left_children":[1,-1,3,5,-1,7,9,-1,11,-1,13,15,17,19,21,-1,-1,-1,-1,-1,-1,-1,-1],"loss_changes":[3.1249556E3,0E0,1.69151E2,1.7596436E1,0E0,1.5638139E0,1.6538086E1,0E0,2.78299E0,0E0,1.1871281E0,1.1530576E0,7.235688E0,4.1533794E0,8.600693E-1,0E0,0E0,0E0,0E0,0E0,0E0,0E0,0E0],"parents":[2147483647,0,0,2,2,3,3,5,5,6,6,8,8,10,10,11,11,12,12,13,13,14,14],"right_children":[2,-1,4,6,-1,8,10,-1,12,-1,14,16,18,20,22,-1,-1,-1,-1,-1,-1,-1,-1],"split_conditions":[9.574765E-7,-3.0092004E-1,2.039E3,1.017685E-6,-2.9458553E-1,1.7545689E1,1.896E3,-8.1277765E-2,5.542104E1,3.0091915E-1,1E0,1.383E3,9.88E2,6.710144E1,3.042545E1,9.642896E-2,2.6706174E-1,9.452093E-2,-4.430864E-1,1.5463874E-1,-2.2511028E-1,1.2253744E-1,2.585525E-1],"split_indices":[1,0,0,1,0,14,0,0,14,0,9,0,0,14,14,0,0,0,0,0,0,0,0],"split_type":[0,0,0,0,0,0,0,0,0,0,0,0,0,0,0,0,0,0,0,0,0,0,0],"sum_hessian":[3.402229E3,1.6243015E3,1.7779275E3,1.7328895E3,4.5038017E1,3.3668137E1,1.6992213E3,4.3947906E0,2.9273344E1,1.6063922E3,9.2829185E1,1.7020565E1,1.2252778E1,6.404607E1,2.8783121E1,1.0583503E1,6.4370627E0,1.0446671E1,1.8061078E0,6.2196438E1,1.8496262E0,9E0,1.9783121E1],"tree_param":{"num_deleted":"0","num_feature":"15","num_nodes":"23","size_leaf_vector":"1"}},{"base_weights":[-9.1943186E-4,-3.0056852E-1,9.0198934E-1,9.5112896E-1,-2.921468E-1,9.8272E-1,4.573096E-1,2.474466E-1,3.005666E-1,-2.8052124E-1,4.8755074E-1,3.0108628E-1,-1.3038968E-1,5.746348E-1,2.6895833E-1,-3.222163E-2,1.2759258E-1,1.8772255E-1,-7.159086E-2,-1.2979022E-2,2.1291915E-1],"categories":[],"categories_nodes":[],"categories_segments":[],"categories_sizes":[],"default_left":[0,0,0,0,0,0,0,0,0,0,0,0,0,0,0,0,0,0,0,0,0],"id":17,"left_children":[1,-1,3,5,-1,7,9,11,-1,-1,13,15,-1,17,19,-1,-1,-1,-1,-1,-1],"loss_changes":[2.2973772E3,0E0,1.2411426E2,1.9875122E1,0E0,1.6997803E1,3.8330803E0,1.3169006E0,0E0,0E0,1.352272E0,1.6007063E0,0E0,2.4655113E0,3.3928485E0,0E0,0E0,0E0,0E0,0E0,0E0],"parents":[2147483647,0,0,2,2,3,3,5,5,6,6,7,7,10,10,11,11,13,13,14,14],"right_children":[2,-1,4,6,-1,8,10,12,-1,-1,14,16,-1,18,20,-1,-1,-1,-1,-1,-1],"split_conditions":[9.574765E-7,-3.0056852E-1,2.039E3,1.896E3,-2.921468E-1,1.017685E-6,1.083207E-6,9.69651E1,3.005666E-1,-2.8052124E-1,1.045708E-5,2.8755306E1,-1.3038968E-1,6.65098E1,5.036458E1,-3.222163E-2,1.2759258E-1,1.8772255E-1,-7.159086E-2,-1.2979022E-2,2.1291915E-1],"split_indices":[1,0,0,0,0,1,1,14,0,0,1,14,0,14,14,0,0,0,0,0,0],"split_type":[0,0,0,0,0,0,0,0,0,0,0,0,0,0,0,0,0,0,0,0,0],"sum_hessian":[2.539938E3,1.2045024E3,1.3354357E3,1.3018254E3,3.3610245E1,1.2226208E3,7.920457E1,3.1417395E1,1.1912035E3,1.0476477E0,7.815692E1,2.964467E1,1.7727247E0,5.4726048E1,2.343087E1,6.944337E0,2.2700335E1,5.1707283E1,3.018765E0,1.4243387E1,9.187484E0],"tree_param":{"num_deleted":"0","num_feature":"15","num_nodes":"21","size_leaf_vector":"1"}},{"base_weights":[-1.3091791E-3,-3.0026948E-1,8.853281E-1,9.3358874E-1,-2.8912175E-1,9.751766E-1,3.8072428E-1,1.9089134E-1,3.0026639E-1,-2.0069653E-1,4.110921E-1,3.0345437E-1,-1.9863847E-1,3.0017224E-1,6.380388E-1,1.819881E-3,1.946363E-1,-1.6998833E-1,-1.3798543E-3,1.05875984E-1,-1.6428287E-1,9.077974E-2,2.380998E-1],"categories":[],"categories_nodes":[],"categories_segments":[],"categories_sizes":[],"default_left":[0,0,0,0,0,0,0,0,0,0,0,0,0,0,0,0,0,0,0,0,0,0,0],"id":18,"left_children":[1,-1,3,5,-1,7,9,11,-1,-1,13,15,17,19,21,-1,-1,-1,-1,-1,-1,-1,-1],"loss_changes":[1.6857277E3,0E0,9.0848206E1,2.2226562E1,0E0,1.8228455E1,2.519186E0,1.3857828E0,0E0,0E0,1.5464134E0,2.4452877E0,5.244769E-1,2.351509E0,8.966732E-1,0E0,0E0,0E0,0E0,0E0,0E0,0E0,0E0],"parents":[2147483647,0,0,2,2,3,3,5,5,6,6,7,7,10,10,11,11,12,12,13,13,14,14],"right_children":[2,-1,4,6,-1,8,10,12,-1,-1,14,16,18,20,22,-1,-1,-1,-1,-1,-1,-1,-1],"split_conditions":[9.574765E-7,-3.0026948E-1,2.039E3,1.896E3,-2.8912175E-1,1.017685E-6,1.083207E-6,1.189E3,3.0026639E-1,-2.0069653E-1,1E0,7.73E2,1.383E3,6.710144E1,3.042545E1,1.819881E-3,1.946363E-1,-1.6998833E-1,-1.3798543E-3,1.05875984E-1,-1.6428287E-1,9.077974E-2,2.380998E-1],"split_indices":[1,0,0,0,0,1,1,0,0,0,9,0,0,14,14,0,0,0,0,0,0,0,0],"split_type":[0,0,0,0,0,0,0,0,0,0,0,0,0,0,0,0,0,0,0,0,0,0,0],"sum_hessian":[1.9000415E3,8.930707E2,1.0069709E3,9.8183997E2,2.5130892E1,9.1244006E2,6.939991E1,2.9230469E1,8.832096E2,1.3599927E0,6.803992E1,2.2848791E1,6.3816776E0,4.72629E1,2.0777014E1,1.2823359E1,1.0025432E1,1.5403237E0,4.841354E0,4.5044044E1,2.218859E0,7.5176997E0,1.3259315E1],"tree_param":{"num_deleted":"0","num_feature":"15","num_nodes":"23","size_leaf_vector":"1"}},{"base_weights":[-1.6920394E-3,-2.999955E-1,8.6415577E-1,9.6560276E-1,7.748985E-3,1.4820829E-1,2.9999095E-1,3.089165E-1,-2.853251E-1,2.054949E-1,-1.4596185E-1,1.9817087E-1,5.685678E-1,3.301455E-1,-1.5328336E-1,2.7071992E-1,-5.107298E-1,7.9476035E-1,2.8931338E-1,1.8821124E-2,2.0152578E-1,-1.22964635E-1,-1.0362607E-3,1.13102384E-1,-3.6076196E-2,-4.4085816E-1,5.106511E-2,3.121902E-2,2.651695E-1,2.1129961E-1,-1.3338573E-1],"categories":[],"categories_nodes":[],"categories_segments":[],"categories_sizes":[],"default_left":[0,0,0,0,0,0,0,0,0,0,0,0,0,0,0,0,0,0,0,0,0,0,0,0,0,0,0,0,0,0,0],"id":19,"left_children":[1,-1,3,5,7,9,-1,11,-1,13,-1,15,17,19,21,23,25,27,29,-1,-1,-1,-1,-1,-1,-1,-1,-1,-1,-1,-1],"loss_changes":[1.234034E3,0E0,6.641675E1,1.9054321E1,2.3967813E1,1.1455815E0,0E0,1.702981E0,0E0,1.2615682E0,0E0,2.4936519E0,9.2875767E-1,1.822536E0,2.9326478E-1,1.7989757E0,3.2522984E0,4.9674892E-1,3.2925417E0,0E0,0E0,0E0,0E0,0E0,0E0,0E0,0E0,0E0,0E0,0E0,0E0],"parents":[2147483647,0,0,2,2,3,3,4,4,5,5,7,7,9,9,11,11,12,12,13,13,14,14,15,15,16,16,17,17,18,18],"right_children":[2,-1,4,6,8,10,-1,12,-1,14,-1,16,18,20,22,24,26,28,30,-1,-1,-1,-1,-1,-1,-1,-1,-1,-1,-1,-1],"split_conditions":[9.574765E-7,-2.999955E-1,1.896E3,1.017685E-6,2.039E3,9.69651E1,2.9999095E-1,1E0,-2.853251E-1,1.189E3,-1.4596185E-1,6.65098E1,1.348158E-5,5.6830364E1,1.383E3,1.045708E-5,6.77031E1,2.9599182E1,1E0,1.8821124E-2,2.0152578E-1,-1.22964635E-1,-1.0362607E-3,1.13102384E-1,-3.6076196E-2,-4.4085816E-1,5.106511E-2,3.121902E-2,2.651695E-1,2.1129961E-1,-1.3338573E-1],"split_indices":[1,0,0,1,0,14,0,9,0,0,0,14,1,14,0,1,14,14,8,0,0,0,0,0,0,0,0,0,0,0,0],"split_type":[0,0,0,0,0,0,0,0,0,0,0,0,0,0,0,0,0,0,0,0,0,0,0,0,0,0,0,0,0,0,0],"sum_hessian":[1.4256694E3,6.6211664E2,7.635528E2,6.825704E2,8.098244E1,2.7754864E1,6.548155E2,6.2141674E1,1.8840763E1,2.6077593E1,1.6772709E0,4.4797855E1,1.734382E1,1.9412796E1,6.6647964E0,4.1199593E1,3.5982625E0,8.5623865E0,8.781433E0,1.1552896E1,7.859901E0,1.8171192E0,4.847677E0,3.242141E1,8.778184E0,1.0133563E0,2.584906E0,1.2264575E0,7.3359294E0,5.6352086E0,3.1462243E0],"tree_param":{"num_deleted":"0","num_feature":"15","num_nodes":"31","size_leaf_vector":"1"}},{"base_weights":[-1.9647717E-3,-2.9972175E-1,8.374087E-1,9.5326495E-1,3.02729E-3,1.12699226E-1,2.9971528E-1,2.481469E-1,-2.8055996E-1,2.767064E-1,-2.1575063E-1,-1.63399E-1,2.7916917E-1,5.1006336E-2,2.4914046E-1,-3.959056E-1,1.563498E-1,-1.448667E-4,3.7922007E-1,8.950562E-2,-2.9769248E-1,2.2084747E-1,-7.8344256E-2,9.896166E-2,-3.6807218E-1,-9.666433E-2,1.3127217E-1],"categories":[],"categories_nodes":[],"categories_segments":[],"categories_sizes":[],"default_left":[0,0,0,0,0,0,0,0,0,0,0,0,0,0,0,0,0,0,0,0,0,0,0,0,0,0,0],"id":20,"left_children":[1,-1,3,5,7,9,-1,11,-1,13,15,-1,17,19,-1,-1,21,23,25,-1,-1,-1,-1,-1,-1,-1,-1],"loss_changes":[9.007359E2,0E0,5.6483124E1,1.9633942E1,1.6847155E1,1.5481418E0,0E0,1.5803103E0,0E0,2.3157237E0,4.217197E0,0E0,1.5802665E0,4.030017E0,0E0,0E0,2.1764169E0,6.8469887E0,1.8451009E0,0E0,0E0,0E0,0E0,0E0,0E0,0E0,0E0],"parents":[2147483647,0,0,2,2,3,3,4,4,5,5,7,7,9,9,10,10,12,12,13,13,16,16,17,17,18,18],"right_children":[2,-1,4,6,8,10,-1,12,-1,14,16,-1,18,20,-1,-1,22,24,26,-1,-1,-1,-1,-1,-1,-1,-1],"split_conditions":[9.574765E-7,-2.9972175E-1,1.896E3,1.017685E-6,2.039E3,5.542104E1,2.9971528E-1,1.083207E-6,-2.8055996E-1,5.259371E1,6.1325745E1,-1.63399E-1,3.3193367E1,3.7671246E1,2.4914046E-1,-3.959056E-1,6.447067E1,2.5126863E1,1.579112E-6,8.950562E-2,-2.9769248E-1,2.2084747E-1,-7.8344256E-2,9.896166E-2,-3.6807218E-1,-9.666433E-2,1.3127217E-1],"split_indices":[1,0,0,1,0,14,0,1,0,14,14,0,14,14,0,0,14,14,1,0,0,0,0,0,0,0,0],"split_type":[0,0,0,0,0,0,0,0,0,0,0,0,0,0,0,0,0,0,0,0,0,0,0,0,0,0,0],"sum_hessian":[1.0742181E3,4.9089017E2,5.83328E2,5.1208154E2,7.124646E1,2.663122E1,4.8545032E2,5.707156E1,1.4174902E1,1.786707E1,8.764151E0,1.5256115E0,5.5545948E1,1.346938E1,4.3976884E0,1.5674146E0,7.196736E0,1.4912625E1,4.063332E1,1.1465266E1,2.0041149E0,2.6932132E0,4.5035224E0,1.2327461E1,2.5851643E0,2.7734673E0,3.7859856E1],"tree_param":{"num_deleted":"0","num_feature":"15","num_nodes":"27","size_leaf_vector":"1"}},{"base_weights":[-2.4842846E-3,8.0445826E-1,-2.994245E-1,-2.5544074E-1,8.997022E-1,-2.7434027E-1,3.3382364E-2,2.994147E-1,2.2037388E-1,1.4150359E-1,-1.7398359E-1,1.1575757E-1,4.7724634E-1,-1.5118887E-1,3.994626E-1,1.7070575E-1,-1.6831781E-1,2.5219074E-1,2.0928118E-1,1.32563E-1,-1.5655693E-1,1.7558339E-1,-1.9524306E-2,-1.5002924E-3,1.4472748E-1,-1.1003104E-1,1.6629414E-1],"categories":[],"categories_nodes":[],"categories_segments":[],"categories_sizes":[],"default_left":[0,0,0,0,0,0,0,0,0,0,0,0,0,0,0,0,0,0,0,0,0,0,0,0,0,0,0],"id":21,"left_children":[1,3,-1,5,7,-1,9,-1,11,13,-1,15,17,19,21,23,-1,-1,25,-1,-1,-1,-1,-1,-1,-1,-1],"loss_changes":[6.552004E2,4.5702454E1,0E0,7.2482185E0,2.740805E1,0E0,1.8944001E0,0E0,1.3846054E0,1.8753091E0,0E0,1.560824E0,1.3028147E0,2.8655248E0,1.1646926E0,2.040031E0,0E0,0E0,2.2051973E0,0E0,0E0,0E0,0E0,0E0,0E0,0E0,0E0],"parents":[2147483647,0,0,1,1,3,3,4,4,6,6,8,8,9,9,11,11,12,12,13,13,14,14,15,15,18,18],"right_children":[2,4,-1,6,8,-1,10,-1,12,14,-1,16,18,20,22,24,-1,-1,26,-1,-1,-1,-1,-1,-1,-1,-1],"split_conditions":[2.039E3,1.017685E-6,-2.994245E-1,9.574765E-7,1.896E3,-2.7434027E-1,1.571E3,2.994147E-1,1E0,7.73E2,-1.7398359E-1,6.710144E1,6.02388E-6,4.99764E0,1.189E3,5.8541664E1,-1.6831781E-1,2.5219074E-1,3.042545E1,1.32563E-1,-1.5655693E-1,1.7558339E-1,-1.9524306E-2,-1.5002924E-3,1.4472748E-1,-1.1003104E-1,1.6629414E-1],"split_indices":[0,1,0,1,0,0,0,0,9,0,0,14,1,14,0,14,0,0,14,0,0,0,0,0,0,0,0],"split_type":[0,0,0,0,0,0,0,0,0,0,0,0,0,0,0,0,0,0,0,0,0,0,0,0,0,0,0],"sum_hessian":[8.1354535E2,4.4945178E2,3.640936E2,3.691955E1,4.1253223E2,1.0589836E1,2.6329718E1,3.5995248E2,5.257972E1,2.3037762E1,3.2919552E0,3.8393753E1,1.4185964E1,1.0986202E1,1.2051559E1,3.62024E1,2.1913528E0,5.113883E0,9.072081E0,4.151585E0,6.834617E0,8.422642E0,3.6289182E0,2.3781464E1,1.24209385E1,3.3747485E0,5.6973324E0],"tree_param":{"num_deleted":"0","num_feature":"15","num_nodes":"27","size_leaf_vector":"1"}},{"base_weights":[-2.0399687E-3,-2.9907542E-1,7.644438E-1,9.171046E-1,-7.757139E-3,8.7080084E-2,2.990625E-1,1.4652194E-1,-2.6663652E-1,-3.8228416E-1,2.2330175E-1,4.8408613E-2,4.1444233E-1,1.1317994E-1,-4.59653E-1,2.5193667E-1,-9.060801E-3,1.1379628E-1,-4.3495464E-1,2.4072894E-1,1.696414E-1,-2.0301501E-1,4.844338E-2,8.312362E-3,2.2726347E-1,-3.5469094E-1,4.8531186E-2,1.8969336E-1,-1.0176281E-1],"categories":[],"categories_nodes":[],"categories_segments":[],"categories_sizes":[],"default_left":[0,0,0,0,0,0,0,0,0,0,0,0,0,0,0,0,0,0,0,0,0,0,0,0,0,0,0,0,0],"id":22,"left_children":[1,-1,3,5,7,9,-1,11,-1,13,15,17,19,-1,-1,-1,21,23,25,-1,27,-1,-1,-1,-1,-1,-1,-1,-1],"loss_changes":[4.7506924E2,0E0,4.1489594E1,1.9367035E1,8.160085E0,1.8025498E0,0E0,1.3239944E0,0E0,6.1765857E0,3.079883E0,1.2681549E0,1.1530452E0,0E0,0E0,0E0,1.9954513E0,1.9051636E0,2.33269E0,0E0,2.4723287E0,0E0,0E0,0E0,0E0,0E0,0E0,0E0,0E0],"parents":[2147483647,0,0,2,2,3,3,4,4,5,5,7,7,9,9,10,10,11,11,12,12,16,16,17,17,18,18,20,20],"right_children":[2,-1,4,6,8,10,-1,12,-1,14,16,18,20,-1,-1,-1,22,24,26,-1,28,-1,-1,-1,-1,-1,-1,-1,-1],"split_conditions":[9.574765E-7,-2.9907542E-1,1.896E3,1.017685E-6,2.039E3,2.8755306E1,2.990625E-1,1E0,-2.6663652E-1,4.99764E0,3.7671246E1,6.65098E1,6.02388E-6,1.1317994E-1,-4.59653E-1,2.5193667E-1,5.259371E1,6.419733E1,6.77031E1,2.4072894E-1,1E0,-2.0301501E-1,4.844338E-2,8.312362E-3,2.2726347E-1,-3.5469094E-1,4.8531186E-2,1.8969336E-1,-1.0176281E-1],"split_indices":[1,0,0,1,0,14,0,9,0,14,14,14,1,0,0,0,14,14,14,0,8,0,0,0,0,0,0,0,0],"split_type":[0,0,0,0,0,0,0,0,0,0,0,0,0,0,0,0,0,0,0,0,0,0,0,0,0,0,0,0,0],"sum_hessian":[6.209949E2,2.7010468E2,3.508902E2,2.9281442E2,5.8075787E1,2.5857212E1,2.669572E2,5.013095E1,7.9448357E0,5.41005E0,2.0447163E1,3.7557835E1,1.2573118E1,3.6626394E0,1.7474104E0,4.8815813E0,1.556558E1,3.3756012E1,3.80182E0,3.98282E0,8.590299E0,2.563076E0,1.3002504E1,3.069431E1,3.0617042E0,1.2522111E0,2.549609E0,4.372238E0,4.21806E0],"tree_param":{"num_deleted":"0","num_feature":"15","num_nodes":"29","size_leaf_vector":"1"}},{"base_weights":[-1.547916E-3,7.1671706E-1,-2.9864606E-1,-1.6907442E-1,8.311683E-1,-2.5709382E-1,1.6501624E-2,2.986274E-1,1.4763547E-1,2.3181835E-1,-3.706921E-1,-1.1032065E-1,2.4714841E-1,-1.3611104E-1,4.449265E-1,3.7583195E-2,-4.407153E-1,2.1959716E-1,-1.0579462E0,-3.0707133E-1,3.1844953E-1,4.283002E-2,2.533253E-1,-1.7441043E-1,1.05257206E-1,-7.752176E-3,1.7349994E-1,-6.59491E-1,1.7551944E-1,-2.6271993E-1,1.7512411E-1,2.3333414E-1,7.077958E-2],"categories":[],"categories_nodes":[],"categories_segments":[],"categories_sizes":[],"default_left":[0,0,0,0,0,0,0,0,0,0,0,0,0,0,0,0,0,0,0,0,0,0,0,0,0,0,0,0,0,0,0,0,0],"id":23,"left_children":[1,3,-1,5,7,-1,9,-1,11,13,15,17,19,-1,21,23,-1,25,27,29,31,-1,-1,-1,-1,-1,-1,-1,-1,-1,-1,-1,-1],"loss_changes":[3.4285284E2,2.8403732E1,0E0,4.192475E0,2.7591019E1,0E0,2.3167145E0,0E0,1.2861253E0,2.8038409E0,4.515814E0,4.7165847E0,1.5084021E0,0E0,1.5804746E0,1.7991334E0,0E0,1.0246122E0,8.548216E0,2.8303385E0,1.0338926E0,0E0,0E0,0E0,0E0,0E0,0E0,0E0,0E0,0E0,0E0,0E0,0E0],"parents":[2147483647,0,0,1,1,3,3,4,4,6,6,8,8,9,9,10,10,11,11,12,12,14,14,15,15,17,17,18,18,19,19,20,20],"right_children":[2,4,-1,6,8,-1,10,-1,12,14,16,18,20,-1,22,24,-1,26,28,30,32,-1,-1,-1,-1,-1,-1,-1,-1,-1,-1,-1,-1],"split_conditions":[2.039E3,1.017685E-6,-2.9864606E-1,9.574765E-7,1.896E3,-2.5709382E-1,5.542104E1,2.986274E-1,3.3193367E1,1.7545689E1,9.88E2,2.5126863E1,1.579112E-6,-1.3611104E-1,1.383E3,4.93E2,-4.407153E-1,1E0,1E0,6.419733E1,3.9712322E1,4.283002E-2,2.533253E-1,-1.7441043E-1,1.05257206E-1,-7.752176E-3,1.7349994E-1,-6.59491E-1,1.7551944E-1,-2.6271993E-1,1.7512411E-1,2.3333414E-1,7.077958E-2],"split_indices":[0,1,0,1,0,0,14,0,14,14,0,14,1,0,0,0,0,9,10,14,14,0,0,0,0,0,0,0,0,0,0,0,0],"split_type":[0,0,0,0,0,0,0,0,0,0,0,0,0,0,0,0,0,0,0,0,0,0,0,0,0,0,0,0,0,0,0,0,0],"sum_hessian":[4.782462E2,2.777851E2,2.004611E2,3.1730509E1,2.4605458E2,5.9726763E0,2.5757832E1,1.9801442E2,4.8040173E1,1.681074E1,8.947092E0,1.3343283E1,3.4696888E1,3.718895E0,1.3091845E1,7.226634E0,1.7204583E0,1.0467327E1,2.875956E0,3.5780687E0,3.1118818E1,8.226789E0,4.865055E0,2.140924E0,5.0857105E0,6.7661037E0,3.7012231E0,1.4981614E0,1.3777945E0,2.1942708E0,1.383798E0,3.4559247E0,2.7662895E1],"tree_param":{"num_deleted":"0","num_feature":"15","num_nodes":"33","size_leaf_vector":"1"}},{"base_weights":[-1.0754737E-3,-2.9809788E-1,6.618765E-1,8.5903025E-1,-5.4086337E-5,5.8575254E-2,2.9807183E-1,9.4135225E-2,-2.4571268E-1,1.20704666E-1,-1.6701013E-1,-5.2962373E-3,3.721812E-1,2.2690639E-2,2.154765E-1,4.9875665E-1,-6.489809E-2,2.4351908E-1,6.023008E-2,5.7295065E-2,-1.3514769E-1,1.9919573E-1,2.5226062E-3,-1.892039E-1,1.7957253E-2,-1.7900711E-1,1.436093E-1],"categories":[],"categories_nodes":[],"categories_segments":[],"categories_sizes":[],"default_left":[0,0,0,0,0,0,0,0,0,0,0,0,0,0,0,0,0,0,0,0,0,0,0,0,0,0,0],"id":24,"left_children":[1,-1,3,5,7,9,-1,11,-1,13,-1,15,17,19,-1,21,23,-1,25,-1,-1,-1,-1,-1,-1,-1,-1],"loss_changes":[2.4623306E2,0E0,2.927829E1,1.8558434E1,4.1259327E0,1.0586861E0,0E0,1.3281753E0,0E0,1.4116001E0,0E0,1.1235172E0,1.6856271E0,1.836154E0,0E0,3.1490654E-1,2.3927643E0,0E0,2.6165032E0,0E0,0E0,0E0,0E0,0E0,0E0,0E0,0E0],"parents":[2147483647,0,0,2,2,3,3,4,4,5,5,7,7,9,9,11,11,12,12,13,13,15,15,16,16,18,18],"right_children":[2,-1,4,6,8,10,-1,12,-1,14,-1,16,18,20,-1,22,24,-1,26,-1,-1,-1,-1,-1,-1,-1,-1],"split_conditions":[9.574765E-7,-2.9809788E-1,1.896E3,1.017685E-6,2.039E3,9.69651E1,2.9807183E-1,1E0,-2.4571268E-1,1E0,-1.6701013E-1,8.631007E0,6.02388E-6,5.542104E1,2.154765E-1,2.115828E-5,3.3193367E1,2.4351908E-1,3.042545E1,5.7295065E-2,-1.3514769E-1,1.9919573E-1,2.5226062E-3,-1.892039E-1,1.7957253E-2,-1.7900711E-1,1.436093E-1],"split_indices":[1,0,0,1,0,14,0,9,0,9,0,14,1,14,0,1,14,0,14,0,0,0,0,0,0,0,0],"split_type":[0,0,0,0,0,0,0,0,0,0,0,0,0,0,0,0,0,0,0,0,0,0,0,0,0,0,0],"sum_hessian":[3.721947E2,1.4884395E2,2.2335075E2,1.7186392E2,5.1486843E1,2.4937092E1,1.4692682E2,4.6970024E1,4.516819E0,2.338004E1,1.5570533E0,3.5320194E1,1.1649831E1,2.0977198E1,2.4028413E0,2.9556997E0,3.2364494E1,4.1708555E0,7.4789753E0,1.5913695E1,5.0635023E0,1.9458942E0,1.0098054E0,5.1144643E0,2.725003E1,2.7445774E0,4.734398E0],"tree_param":{"num_deleted":"0","num_feature":"15","num_nodes":"27","size_leaf_vector":"1"}},{"base_weights":[-1.9509584E-4,6.000442E-1,-2.9738608E-1,-1.1675136E-1,7.3189086E-1,8.1340425E-2,-5.453251E-1,2.9734802E-1,1.0553867E-1,-2.4980022E-1,4.6684775E-1,-4.0721674E-2,-5.4527736E-1,2.633424E-1,-8.26872E-2,1.0380764E-1,-5.4654515E-1,2.2354753E-1,1.2576029E-1,-3.5417086E-1,4.0106598E-1,-2.9087213E-1,3.5425714E-1,4.1301227E-1,-2.8293595E-1,-4.0602627E-1,1.4870516E-2,-1.5061012E-1,1.772323E-1,-9.196239E-2,1.9881736E-1,4.4487298E-2,1.859757E-1,1.1852172E-3,2.2151706E-1,-4.0442118E-1,2.5315544E-2],"categories":[0],"categories_nodes":[13],"categories_segments":[0],"categories_sizes":[1],"default_left":[0,0,0,0,0,0,0,0,0,0,0,0,0,1,0,0,0,0,0,0,0,0,0,0,0,0,0,0,0,0,0,0,0,0,0,0,0],"id":25,"left_children":[1,3,-1,5,7,9,11,-1,13,15,17,19,-1,21,23,-1,25,-1,27,-1,29,-1,31,33,35,-1,-1,-1,-1,-1,-1,-1,-1,-1,-1,-1,-1],"loss_changes":[1.7600957E2,1.750016E1,0E0,2.5480337E0,2.5192787E1,2.8023734E0,5.994051E0,0E0,1.4096004E0,2.305313E0,8.622112E-1,4.396641E0,0E0,3.2191296E0,2.3074973E0,0E0,4.096508E0,0E0,1.9686959E0,0E0,1.3808969E0,0E0,1.2555044E0,8.963809E-1,6.49594E0,0E0,0E0,0E0,0E0,0E0,0E0,0E0,0E0,0E0,0E0,0E0,0E0],"parents":[2147483647,0,0,1,1,3,3,4,4,5,5,6,6,8,8,9,9,10,10,11,11,13,13,14,14,16,16,18,18,20,20,22,22,23,23,24,24],"right_children":[2,4,-1,6,8,10,12,-1,14,16,18,20,-1,22,24,-1,26,-1,28,-1,30,-1,32,34,36,-1,-1,-1,-1,-1,-1,-1,-1,-1,-1,-1,-1],"split_conditions":[2.039E3,1.017685E-6,-2.9738608E-1,1.189E3,1.896E3,7.73E2,5.31466E1,2.9734802E-1,5.228053E-6,4.99764E0,1E0,3.738754E1,-5.4527736E-1,1E-45,1.6147177E1,1.0380764E-1,1E0,2.2354753E-1,1E0,-3.5417086E-1,1.383E3,-2.9087213E-1,2.815151E-6,1.3087207E1,3.2919357E1,-4.0602627E-1,1.4870516E-2,-1.5061012E-1,1.772323E-1,-9.196239E-2,1.9881736E-1,4.4487298E-2,1.859757E-1,1.1852172E-3,2.2151706E-1,-4.0442118E-1,2.5315544E-2],"split_indices":[0,1,0,0,0,0,14,0,1,14,10,14,0,5,14,0,8,0,11,0,0,0,1,14,14,0,0,0,0,0,0,0,0,0,0,0,0],"split_type":[0,0,0,0,0,0,0,0,0,0,0,0,0,1,0,0,0,0,0,0,0,0,0,0,0,0,0,0,0,0,0,0,0,0,0,0,0],"sum_hessian":[2.9386813E2,1.832688E2,1.1059933E2,2.849078E1,1.5477803E2,2.0038813E1,8.451966E0,1.0905422E2,4.5723804E1,1.0968866E1,9.069946E0,6.7906723E0,1.6612945E0,2.4654789E1,2.1069017E1,3.5915089E0,7.377358E0,4.3422375E0,4.7277083E0,1.4296931E0,5.360979E0,1.029455E0,2.3625334E1,5.756579E0,1.5312439E1,2.594771E0,4.782587E0,1.9778688E0,2.7498395E0,1.4009192E0,3.96006E0,1.4185551E1,9.439783E0,2.9987388E0,2.75784E0,3.2418683E0,1.2070571E1],"tree_param":{"num_deleted":"0","num_feature":"15","num_nodes":"37","size_leaf_vector":"1"}},{"base_weights":[-8.941638E-4,-2.9646087E-1,5.3489304E-1,7.728472E-1,5.3935763E-3,3.8166817E-2,2.9639763E-1,6.269041E-2,-2.1728507E-1,-3.5157582E-1,1.6531183E-1,-2.5413802E-2,3.2324448E-1,9.152898E-2,-3.2649058E-1,2.3601882E-1,-2.1095378E-2,7.4504234E-2,-3.2539442E-1,1.9176139E-1,3.9912164E-2,-2.80391E-1,5.488896E-2,1.0701593E-1,-6.066849E-2,-2.1668723E-1,1.3654426E-1,-3.5775054E-1,1.5002456E-1],"categories":[],"categories_nodes":[],"categories_segments":[],"categories_sizes":[],"default_left":[0,0,0,0,0,0,0,0,0,0,0,0,0,0,0,0,0,0,0,0,0,0,0,0,0,0,0,0,0],"id":26,"left_children":[1,-1,3,5,7,9,-1,11,-1,13,15,17,19,-1,-1,-1,21,23,25,-1,27,-1,-1,-1,-1,-1,-1,-1,-1],"loss_changes":[1.2550709E2,0E0,1.9373909E1,1.6733543E1,2.0811825E0,1.3006346E0,0E0,1.0657572E0,0E0,3.4706502E0,2.2854278E0,1.0839335E0,1.0231586E0,0E0,0E0,0E0,3.1612523E0,2.2069063E0,3.1230514E0,0E0,4.7037425E0,0E0,0E0,0E0,0E0,0E0,0E0,0E0,0E0],"parents":[2147483647,0,0,2,2,3,3,4,4,5,5,7,7,9,9,10,10,11,11,12,12,16,16,17,17,18,18,20,20],"right_children":[2,-1,4,6,8,10,-1,12,-1,14,16,18,20,-1,-1,-1,22,24,26,-1,28,-1,-1,-1,-1,-1,-1,-1,-1],"split_conditions":[9.574765E-7,-2.9646087E-1,1.896E3,1.017685E-6,2.039E3,2.8755306E1,2.9639763E-1,1E0,-2.1728507E-1,4.99764E0,3.7671246E1,1.045708E-5,1E0,9.152898E-2,-3.2649058E-1,2.3601882E-1,5.259371E1,5.259371E1,5.036458E1,1.9176139E-1,3.042545E1,-2.80391E-1,5.488896E-2,1.0701593E-1,-6.066849E-2,-2.1668723E-1,1.3654426E-1,-3.5775054E-1,1.5002456E-1],"split_indices":[1,0,0,1,0,14,0,9,0,14,14,1,8,0,0,0,14,14,14,0,14,0,0,0,0,0,0,0,0],"split_type":[0,0,0,0,0,0,0,0,0,0,0,0,0,0,0,0,0,0,0,0,0,0,0,0,0,0,0,0,0],"sum_hessian":[2.3525993E2,8.246154E1,1.5279839E2,1.05105125E2,4.7693256E1,2.4074045E1,8.103108E1,4.5068413E1,2.6248465E0,5.487583E0,1.8586462E1,3.4354263E1,1.0714148E1,3.2111955E0,2.2763875E0,3.5457299E0,1.5040733E1,2.6334396E1,8.019867E0,4.4715934E0,6.2425547E0,2.0925312E0,1.2948202E1,1.2894931E1,1.34394655E1,5.3659663E0,2.6539009E0,1.2645178E0,4.9780364E0],"tree_param":{"num_deleted":"0","num_feature":"15","num_nodes":"29","size_leaf_vector":"1"}},{"base_weights":[1.7042656E-4,-2.9522645E-1,4.6568108E-1,7.1726584E-1,6.8408363E-3,3.1077392E-2,2.9514232E-1,5.353763E-2,-2.0364678E-1,-2.2762564E-1,2.2680709E-1,5.109534E-1,8.700379E-3,-5.2792597E-1,1.4751863E-1,5.646249E-1,-2.6347277E-1,1.9395648E-1,3.4229226E-2,-3.9778253E-1,7.779795E-2,7.636559E-2,-2.9938188E-1,2.4062352E-1,6.989495E-2,2.0804942E-2,-1.7317002E-1,1.8430509E-1,5.4135756E-4],"categories":[],"categories_nodes":[],"categories_segments":[],"categories_sizes":[],"default_left":[0,0,0,0,0,0,0,0,0,0,0,0,0,0,0,0,0,0,0,0,0,0,0,0,0,0,0,0,0],"id":27,"left_children":[1,-1,3,5,7,9,-1,11,-1,13,15,17,19,21,-1,23,25,-1,-1,-1,27,-1,-1,-1,-1,-1,-1,-1,-1],"loss_changes":[8.891511E1,0E0,1.5203789E1,1.5530853E1,1.5625306E0,1.3092119E0,0E0,9.2982864E-1,0E0,2.6782262E0,2.5734591E0,1.4409328E-1,4.0229325E0,3.3363655E0,0E0,5.2074456E-1,7.3488533E-1,0E0,0E0,0E0,1.6851895E0,0E0,0E0,0E0,0E0,0E0,0E0,0E0,0E0],"parents":[2147483647,0,0,2,2,3,3,4,4,5,5,7,7,9,9,10,10,11,11,12,12,13,13,15,15,16,16,20,20],"right_children":[2,-1,4,6,8,10,-1,12,-1,14,16,18,20,22,-1,24,26,-1,-1,-1,28,-1,-1,-1,-1,-1,-1,-1,-1],"split_conditions":[9.574765E-7,-2.9522645E-1,1.896E3,1.017685E-6,2.039E3,7.73E2,2.9514232E-1,8.631007E0,-2.0364678E-1,1E0,1.189E3,2.115828E-5,1.3087207E1,4.99764E0,1.4751863E-1,1E0,5.065519E1,1.9395648E-1,3.4229226E-2,-3.9778253E-1,1.7545689E1,7.636559E-2,-2.9938188E-1,2.4062352E-1,6.989495E-2,2.0804942E-2,-1.7317002E-1,1.8430509E-1,5.4135756E-4],"split_indices":[1,0,0,1,0,0,0,14,0,9,0,1,14,14,0,10,14,0,0,0,14,0,0,0,0,0,0,0,0],"split_type":[0,0,0,0,0,0,0,0,0,0,0,0,0,0,0,0,0,0,0,0,0,0,0,0,0,0,0,0,0],"sum_hessian":[1.9206012E2,6.131145E1,1.3074867E2,8.408253E1,4.6666145E1,2.3835848E1,6.0246677E1,4.4553753E1,2.1123943E0,1.01962E1,1.36396475E1,3.0493624E0,4.150439E1,7.381038E0,2.815163E0,7.985651E0,5.6539965E0,1.8039982E0,1.2453641E0,1.1476547E0,4.0356735E1,2.941856E0,4.4391823E0,3.8270202E0,4.1586313E0,3.1216588E0,2.5323374E0,4.1278377E0,3.6228897E1],"tree_param":{"num_deleted":"0","num_feature":"15","num_nodes":"29","size_leaf_vector":"1"}},{"base_weights":[2.7209541E-3,4.0001148E-1,-2.9361254E-1,6.239786E-1,3.8413487E-2,-1.6205184E-2,2.934902E-1,1.6265926E-1,-1.05528705E-1,-5.248704E-1,9.504024E-2,-2.0336185E-1,2.4212979E-1,3.5829353E-1,-2.742501E-1,5.1747818E-2,-4.7741467E-1,4.5139349E-1,-5.0356008E-2,-1.4972968E-1,3.1556678E-1,2.2352628E-2,1.970199E-1,-3.8242343E-1,-4.1678596E-2,-2.67025E-2,2.1699905E-1,-1.9648762E-1,3.85622E-2,-1.2874693E-1,1.1272696E-1,-9.316589E-2,1.08163364E-1],"categories":[0],"categories_nodes":[7],"categories_segments":[0],"categories_sizes":[1],"default_left":[0,0,0,0,0,0,0,1,0,0,0,0,0,0,0,0,0,0,0,0,0,0,0,0,0,0,0,0,0,0,0,0,0],"id":28,"left_children":[1,3,-1,5,7,9,-1,11,13,15,17,-1,19,21,23,-1,-1,25,27,-1,29,-1,-1,-1,31,-1,-1,-1,-1,-1,-1,-1,-1],"loss_changes":[6.324921E1,9.327131E0,0E0,1.6174555E1,8.2604855E-1,1.5417277E0,0E0,1.8119485E0,1.7854853E0,3.9072652E0,1.1874456E0,0E0,1.4244257E0,4.7484004E-1,3.7572765E0,0E0,0E0,1.0364058E0,1.9083345E0,0E0,1.1379559E0,0E0,0E0,0E0,1.6607318E0,0E0,0E0,0E0,0E0,0E0,0E0,0E0,0E0],"parents":[2147483647,0,0,1,1,3,3,4,4,5,5,7,7,8,8,9,9,10,10,12,12,13,13,14,14,17,17,18,18,20,20,24,24],"right_children":[2,4,-1,6,8,10,-1,12,14,16,18,-1,20,22,24,-1,-1,26,28,-1,30,-1,-1,-1,32,-1,-1,-1,-1,-1,-1,-1,-1],"split_conditions":[2.039E3,1.896E3,-2.9361254E-1,1.017685E-6,5.228053E-6,1.926244E1,2.934902E-1,1E-45,1.6147177E1,4.99764E0,3.7671246E1,-2.0336185E-1,1.083207E-6,1.3087207E1,2.7093975E1,5.1747818E-2,-4.7741467E-1,3.0686333E1,5.2873646E1,-1.4972968E-1,1.19826145E1,2.2352628E-2,1.970199E-1,-3.8242343E-1,1E0,-2.67025E-2,2.1699905E-1,-1.9648762E-1,3.85622E-2,-1.2874693E-1,1.1272696E-1,-9.316589E-2,1.08163364E-1],"split_indices":[0,0,0,1,1,14,0,5,14,14,14,0,1,14,14,0,0,14,14,0,14,0,0,0,10,0,0,0,0,0,0,0,0],"split_type":[0,0,0,0,0,0,0,1,0,0,0,0,0,0,0,0,0,0,0,0,0,0,0,0,0,0,0,0,0,0,0,0,0],"sum_hessian":[1.6020975E2,1.1446558E2,4.574417E1,7.023667E1,4.4228912E1,2.536387E1,4.48728E1,2.3668808E1,2.0560102E1,3.8844142E0,2.1479456E1,1.3940946E0,2.2274714E1,5.1843967E0,1.5375706E1,2.8555272E0,1.0288869E0,5.614425E0,1.5865031E1,1.4854264E0,2.0789288E1,3.298002E0,1.8863947E0,2.0548596E0,1.3320847E1,2.1046603E0,3.5097651E0,3.0148575E0,1.2850173E1,1.0961864E0,1.9693102E1,8.120463E0,5.2003827E0],"tree_param":{"num_deleted":"0","num_feature":"15","num_nodes":"33","size_leaf_vector":"1"}},{"base_weights":[-4.2625968E-4,-2.915253E-1,3.3406582E-1,5.909974E-1,2.309413E-5,3.1568747E-2,2.913196E-1,-9.4421715E-2,2.8095558E-1,-1.2695515E-1,1.2810108E-1,-3.7144244E-2,-2.0609136E-1,6.185589E-1,-1.0166876E-2,-1.868738E-1,3.1117678E-1,-1.1666533E-1,4.451387E-1,5.8896158E-2,2.1988888E-1,5.042144E-1,-7.294256E-1,-1.4826076E-1,1.2489434E-1,1.6530058E-1,-2.7993754E-2,-1.2443242E-1,1.997113E-2,2.0425616E-1,-1.972997E-2,1.8651746E-1,3.353692E-2,-4.210463E-1,4.7528025E-2],"categories":[],"categories_nodes":[],"categories_segments":[],"categories_sizes":[],"default_left":[0,0,0,0,0,0,0,0,0,0,0,0,0,0,0,0,0,0,0,0,0,0,0,0,0,0,0,0,0,0,0,0,0,0,0],"id":29,"left_children":[1,-1,3,5,7,9,-1,11,13,-1,15,17,-1,19,21,23,25,27,29,-1,-1,31,33,-1,-1,-1,-1,-1,-1,-1,-1,-1,-1,-1,-1],"loss_changes":[4.47792E1,0E0,8.798955E0,1.2290499E1,1.2356713E0,1.128688E0,0E0,1.1574361E0,1.157923E0,0E0,1.2666892E0,1.3113822E0,0E0,1.1897254E-1,3.0595896E0,1.7496936E0,1.3735679E0,1.6108181E0,6.2957186E-1,0E0,0E0,1.5337896E-1,2.2825146E0,0E0,0E0,0E0,0E0,0E0,0E0,0E0,0E0,0E0,0E0,0E0,0E0],"parents":[2147483647,0,0,2,2,3,3,4,4,5,5,7,7,8,8,10,10,11,11,13,13,14,14,15,15,16,16,17,17,18,18,21,21,22,22],"right_children":[2,-1,4,6,8,10,-1,12,14,-1,16,18,-1,20,22,24,26,28,30,-1,-1,32,34,-1,-1,-1,-1,-1,-1,-1,-1,-1,-1,-1,-1],"split_conditions":[9.574765E-7,-2.915253E-1,1.896E3,1.017685E-6,1E0,1.7545689E1,2.913196E-1,6.710144E1,1E0,-1.2695515E-1,7.73E2,6.419733E1,-2.0609136E-1,1.6977652E1,1.348158E-5,1E0,5.31466E1,2.815151E-6,6.65098E1,5.8896158E-2,2.1988888E-1,6.02388E-6,4.3894413E1,-1.4826076E-1,1.2489434E-1,1.6530058E-1,-2.7993754E-2,-1.2443242E-1,1.997113E-2,2.0425616E-1,-1.972997E-2,1.8651746E-1,3.353692E-2,-4.210463E-1,4.7528025E-2],"split_indices":[1,0,0,1,9,14,0,14,8,0,0,14,0,14,1,9,14,1,14,0,0,1,14,0,0,0,0,0,0,0,0,0,0,0,0],"split_type":[0,0,0,0,0,0,0,0,0,0,0,0,0,0,0,0,0,0,0,0,0,0,0,0,0,0,0,0,0,0,0,0,0,0,0],"sum_hessian":[1.3582523E2,3.4304356E1,1.01520874E2,5.694893E1,4.457195E1,2.3476505E1,3.3472424E1,3.3854523E1,1.0717425E1,3.5183084E0,1.9958197E1,3.1839512E1,2.0150099E0,4.4417567E0,6.2756686E0,7.3286986E0,1.26294985E1,2.7983551E1,3.855962E0,1.5259309E0,2.9158256E0,3.8332691E0,2.4423997E0,4.974724E0,2.3539748E0,7.7011843E0,4.928314E0,1.0171596E1,1.7811954E1,2.4109745E0,1.4449877E0,2.5002577E0,1.3330114E0,1.058224E0,1.3841758E0],"tree_param":{"num_deleted":"0","num_feature":"15","num_nodes":"35","size_leaf_vector":"1"}},{"base_weights":[3.7125698E-3,2.7932873E-1,-2.888191E-1,4.917181E-1,3.3627845E-2,-1.0500855E-2,2.8847808E-1,-4.1259773E-2,2.737725E-1,1.0160727E-1,-3.2507968E-1,1.6160874E-1,-2.0263337E-1,5.824007E-1,2.5406435E-2,-1.1703411E-1,4.2964306E-1,-2.7006918E-1,-5.21239E-2,-4.3943956E-2,5.4608184E-1,-6.280092E-2,-3.991082E-1,5.295658E-2,2.109391E-1,-2.5288138E-1,4.434886E-1,-1.2520818E-1,6.448607E-2,2.0933956E-1,4.2087365E-2,8.041479E-2,-8.588649E-2,7.281885E-2,-2.9194957E-1,1.175257E-2,2.2621755E-1,1.8188518E-1,-8.643553E-2,2.035649E-1,2.5464673E-2],"categories":[0],"categories_nodes":[21],"categories_segments":[0],"categories_sizes":[1],"default_left":[0,0,0,0,0,0,0,0,0,0,0,0,0,0,0,0,0,0,0,0,0,1,0,0,0,0,0,0,0,0,0,0,0,0,0,0,0,0,0,0,0],"id":30,"left_children":[1,3,-1,5,7,9,-1,11,13,15,17,19,21,23,25,27,29,-1,31,33,35,37,-1,-1,-1,-1,39,-1,-1,-1,-1,-1,-1,-1,-1,-1,-1,-1,-1,-1,-1],"loss_changes":[3.2157654E1,4.8849607E0,0E0,1.18811035E1,8.137658E-1,9.254525E-1,0E0,1.1747503E0,8.08314E-1,1.4429914E0,1.0342324E0,1.2893445E0,3.0501919E0,1.0827625E-1,2.9135075E0,1.3298224E0,5.213045E-1,0E0,5.0646806E-1,3.2619753E0,5.66363E-1,2.9983084E0,0E0,0E0,0E0,0E0,3.956803E-1,0E0,0E0,0E0,0E0,0E0,0E0,0E0,0E0,0E0,0E0,0E0,0E0,0E0,0E0],"parents":[2147483647,0,0,1,1,3,3,4,4,5,5,7,7,8,8,9,9,10,10,11,11,12,12,13,13,14,14,15,15,16,16,18,18,19,19,20,20,21,21,26,26],"right_children":[2,4,-1,6,8,10,-1,12,14,16,18,20,22,24,26,28,30,-1,32,34,36,38,-1,-1,-1,-1,40,-1,-1,-1,-1,-1,-1,-1,-1,-1,-1,-1,-1,-1,-1],"split_conditions":[2.039E3,1.896E3,-2.888191E-1,1.017685E-6,1E0,1.189E3,2.8847808E-1,2.586483E-6,1E0,7.73E2,1.383E3,6.476094E1,6.3316032E1,1.6418215E1,3.042545E1,1E0,1E0,-2.7006918E-1,1.571E3,6.1325745E1,1.926763E-6,1E-45,-3.991082E-1,5.295658E-2,2.109391E-1,-2.5288138E-1,1.348158E-5,-1.2520818E-1,6.448607E-2,2.0933956E-1,4.2087365E-2,8.041479E-2,-8.588649E-2,7.281885E-2,-2.9194957E-1,1.175257E-2,2.2621755E-1,1.8188518E-1,-8.643553E-2,2.035649E-1,2.5464673E-2],"split_indices":[0,0,0,1,9,0,0,1,8,0,0,14,14,14,14,8,10,0,0,14,1,5,0,0,0,0,1,0,0,0,0,0,0,0,0,0,0,0,0,0,0],"split_type":[0,0,0,0,0,0,0,0,0,0,0,0,0,0,0,0,0,0,0,0,0,1,0,0,0,0,0,0,0,0,0,0,0,0,0,0,0,0,0,0,0],"sum_hessian":[1.1871716E2,9.292672E1,2.5790443E1,4.9305042E1,4.362168E1,2.4304846E1,2.5000196E1,3.3883507E1,9.7381735E0,1.8418097E1,5.8867493E0,1.5011083E1,1.8872425E1,3.742583E0,5.99559E0,1.1437822E1,6.9802737E0,1.1549816E0,4.7317677E0,1.0358677E1,4.6524053E0,1.7729717E1,1.1427069E0,1.4224845E0,2.3200984E0,1.6182764E0,4.3773136E0,5.870251E0,5.567571E0,2.8902016E0,4.090072E0,1.937676E0,2.7940915E0,8.480993E0,1.8776841E0,1.6992195E0,2.953186E0,4.0405188E0,1.36891985E1,2.1052012E0,2.2721126E0],"tree_param":{"num_deleted":"0","num_feature":"15","num_nodes":"41","size_leaf_vector":"1"}},{"base_weights":[7.5535043E-3,-2.853644E-1,2.3231153E-1,4.5541954E-1,1.5462682E-2,3.5473865E-2,2.848025E-1,4.7812045E-1,-2.7052486E-2,-2.2154114E-1,1.2634195E-1,1.8208373E-1,3.5358157E-2,-2.4864249E-1,2.7865475E-2,9.675982E-2,-2.5429395E-1,2.261758E-1,-4.177059E-2,4.970216E-1,-2.394947E-2,-1.9210057E-1,3.883391E-2,1.9509517E-1,9.895596E-3,-2.1797144E-1,1.4110819E-2],"categories":[],"categories_nodes":[],"categories_segments":[],"categories_sizes":[],"default_left":[0,0,0,0,0,0,0,0,0,0,0,0,0,0,0,0,0,0,0,0,0,0,0,0,0,0,0],"id":31,"left_children":[1,-1,3,5,7,9,-1,11,13,15,17,-1,-1,-1,19,-1,-1,-1,21,23,25,-1,-1,-1,-1,-1,-1],"loss_changes":[2.3236996E1,0E0,4.217941E0,8.886971E0,9.0438247E-1,5.951135E-1,0E0,1.0796672E-1,1.8923153E0,2.557791E0,1.9914597E0,0E0,0E0,0E0,1.0012572E0,0E0,0E0,0E0,1.6816231E0,2.6975942E-1,1.9097512E0,0E0,0E0,0E0,0E0,0E0,0E0],"parents":[2147483647,0,0,2,2,3,3,4,4,5,5,7,7,8,8,9,9,10,10,14,14,18,18,19,19,20,20],"right_children":[2,-1,4,6,8,10,-1,12,14,16,18,-1,-1,-1,20,-1,-1,-1,22,24,26,-1,-1,-1,-1,-1,-1],"split_conditions":[9.574765E-7,-2.853644E-1,1.896E3,1.017685E-6,8.631007E0,2.8755306E1,2.848025E-1,2.115828E-5,1.3087207E1,4.99764E0,3.7671246E1,1.8208373E-1,3.5358157E-2,-2.4864249E-1,1.7545689E1,9.675982E-2,-2.5429395E-1,2.261758E-1,5.259371E1,2.115828E-5,2.9313173E1,-1.9210057E-1,3.883391E-2,1.9509517E-1,9.895596E-3,-2.1797144E-1,1.4110819E-2],"split_indices":[1,0,0,1,14,14,0,1,14,14,14,0,0,0,14,0,0,0,14,1,14,0,0,0,0,0,0],"split_type":[0,0,0,0,0,0,0,0,0,0,0,0,0,0,0,0,0,0,0,0,0,0,0,0,0,0,0],"sum_hessian":[1.0580742E2,1.9479597E1,8.632782E1,4.200757E1,4.4320255E1,2.3283304E1,1.8724264E1,2.867687E0,4.1452568E1,5.706044E0,1.757726E1,1.6079544E0,1.2597325E0,1.7539935E0,3.9698574E1,3.3124475E0,2.3935966E0,2.9774804E0,1.4599779E1,3.0937858E0,3.660479E1,2.637906E0,1.1961873E1,2.0237863E0,1.0699992E0,2.5113828E0,3.4093407E1],"tree_param":{"num_deleted":"0","num_feature":"15","num_nodes":"27","size_leaf_vector":"1"}},{"base_weights":[7.936969E-3,1.8911196E-1,-2.8096265E-1,9.8760284E-2,5.113595E-1,1.7008983E-1,-4.1998124E-1,2.5177568E-1,3.131716E-1,1.08275585E-1,2.0169814E-1,-8.3033913E-1,2.3523785E-1,1.847207E-1,9.1859914E-2,-1.258466E-1,2.233801E-1,-5.370391E-1,-2.662327E-2,8.737052E-2,1.4957692E-2,-1.4364666E-1,3.6381927E-1,1.6868468E-2,-3.0729422E-1,2.645842E-1,5.74068E-3,1.6996594E-1,-1.6159688E-1,1.751449E-1,-6.2617905E-2],"categories":[0,0,1,2,3,4,5,6,7,8,9,10,11,13,14],"categories_nodes":[4,12],"categories_segments":[0,1],"categories_sizes":[1,14],"default_left":[0,0,0,0,1,0,0,0,0,0,0,0,1,0,0,0,0,0,0,0,0,0,0,0,0,0,0,0,0,0,0],"id":32,"left_children":[1,3,-1,5,7,9,11,-1,13,15,-1,17,19,-1,21,23,25,-1,27,-1,-1,-1,29,-1,-1,-1,-1,-1,-1,-1,-1],"loss_changes":[1.6743553E1,2.3388355E0,0E0,2.4888482E0,8.894148E-1,1.7323956E0,2.3962955E0,0E0,7.902702E-1,1.4554801E0,0E0,4.0054398E0,2.6292562E-2,0E0,1.4902284E0,3.0181031E0,4.8078423E0,0E0,1.4820273E0,0E0,0E0,0E0,9.167745E-1,0E0,0E0,0E0,0E0,0E0,0E0,0E0,0E0],"parents":[2147483647,0,0,1,1,3,3,4,4,5,5,6,6,8,8,9,9,11,11,12,12,14,14,15,15,16,16,18,18,22,22],"right_children":[2,4,-1,6,8,10,12,-1,14,16,-1,18,20,-1,22,24,26,-1,28,-1,-1,-1,30,-1,-1,-1,-1,-1,-1,-1,-1],"split_conditions":[2.039E3,1E0,-2.8096265E-1,6.65098E1,1E-45,6.3607292E1,1.0569142E2,2.5177568E-1,2.5407448E1,1.083207E-6,2.0169814E-1,1.926763E-6,1E-45,1.847207E-1,3.042545E1,5.542104E1,1.896E3,-5.370391E-1,2.231009E-6,8.737052E-2,1.4957692E-2,-1.4364666E-1,1E0,1.6868468E-2,-3.0729422E-1,2.645842E-1,5.74068E-3,1.6996594E-1,-1.6159688E-1,1.751449E-1,-6.2617905E-2],"split_indices":[0,9,0,14,2,14,14,0,14,1,0,1,6,0,14,14,0,0,1,0,0,0,10,0,0,0,0,0,0,0,0],"split_type":[0,0,0,0,1,0,0,0,0,0,0,0,1,0,0,0,0,0,0,0,0,0,0,0,0,0,0,0,0,0,0],"sum_hessian":[9.581412E1,8.10638E1,1.4750319E1,6.433269E1,1.673111E1,5.7146828E1,7.1858625E0,5.0844665E0,1.1646644E1,5.196649E1,5.180333E0,4.2542157E0,2.931647E0,4.167237E0,7.479407E0,1.7097307E1,3.4869186E1,1.3795047E0,2.874711E0,1.812977E0,1.11867E0,2.168457E0,5.31095E0,1.4995816E1,2.101491E0,7.468764E0,2.7400421E1,1.282496E0,1.5922151E0,3.8224947E0,1.4884548E0],"tree_param":{"num_deleted":"0","num_feature":"15","num_nodes":"31","size_leaf_vector":"1"}},{"base_weights":[8.694136E-3,-2.7548254E-1,1.5441073E-1,3.4951535E-1,-7.815353E-3,1.9702798E-2,2.7672252E-1,1.4150015E-1,-1.2486869E-1,-2.1623957E-1,2.103605E-1,5.708237E-1,-1.3789833E-1,-3.2109603E-2,-2.6591092E-1,5.9899025E-2,-7.486255E-1,4.8878598E-1,-1.3801275E-1,2.3858277E-2,1.947238E-1,-9.853813E-1,1.8438412E-1,-2.325687E-1,5.2169555E-1,1.179521E-1,-1.8960486E-1,-4.0740094E-1,5.2613802E-2,4.162527E-2,2.2873014E-1,-2.3087566E-1,3.7606448E-2,-6.000642E-2,-4.5135203E-1,-1.3978891E-1,9.3478516E-2,-1.3960599E-2,-2.8212723E-1,4.516852E-2,2.1846442E-1],"categories":[0,0],"categories_nodes":[9,17],"categories_segments":[0,1],"categories_sizes":[1,1],"default_left":[0,0,0,0,0,0,0,0,0,1,0,0,0,0,0,0,0,1,0,0,0,0,0,0,0,0,0,0,0,0,0,0,0,0,0,0,0,0,0,0,0],"id":33,"left_children":[1,-1,3,5,7,9,-1,11,13,15,17,19,21,23,-1,25,27,29,31,-1,-1,33,35,37,39,-1,-1,-1,-1,-1,-1,-1,-1,-1,-1,-1,-1,-1,-1,-1,-1],"loss_changes":[1.21618595E1,0E0,2.4637876E0,6.6559353E0,7.767906E-1,1.0998716E0,0E0,2.424401E0,1.7288352E0,1.6573516E0,1.3740354E0,2.522533E-1,3.6371436E0,2.698479E0,0E0,2.1274776E0,2.3892038E0,6.3243806E-1,1.2214676E0,0E0,0E0,1.1844034E0,9.731797E-1,2.2918494E0,3.868705E-1,0E0,0E0,0E0,0E0,0E0,0E0,0E0,0E0,0E0,0E0,0E0,0E0,0E0,0E0,0E0,0E0],"parents":[2147483647,0,0,2,2,3,3,4,4,5,5,7,7,8,8,9,9,10,10,11,11,12,12,13,13,15,15,16,16,17,17,18,18,21,21,22,22,23,23,24,24],"right_children":[2,-1,4,6,8,10,-1,12,14,16,18,20,22,24,-1,26,28,30,32,-1,-1,34,36,38,40,-1,-1,-1,-1,-1,-1,-1,-1,-1,-1,-1,-1,-1,-1,-1,-1],"split_conditions":[9.574765E-7,-2.7548254E-1,1.896E3,1.017685E-6,3.363599E-6,7.73E2,2.7672252E-1,4.9236877E1,6.5055305E1,1E-45,1.189E3,1.7266138E1,5.8541664E1,5.036458E1,-2.6591092E-1,5.542104E1,5.0943115E1,1E-45,1.383E3,2.3858277E-2,1.947238E-1,5.3993576E1,1.148406E-6,4.2760998E1,5.5700653E1,1.179521E-1,-1.8960486E-1,-4.0740094E-1,5.2613802E-2,4.162527E-2,2.2873014E-1,-2.3087566E-1,3.7606448E-2,-6.000642E-2,-4.5135203E-1,-1.3978891E-1,9.3478516E-2,-1.3960599E-2,-2.8212723E-1,4.516852E-2,2.1846442E-1],"split_indices":[1,0,0,1,1,0,0,14,14,2,0,14,14,14,0,14,14,2,0,0,0,14,1,14,14,0,0,0,0,0,0,0,0,0,0,0,0,0,0,0,0],"split_type":[0,0,0,0,0,0,0,0,0,1,0,0,0,0,0,0,0,1,0,0,0,0,0,0,0,0,0,0,0,0,0,0,0,0,0,0,0,0,0,0,0],"sum_hessian":[8.798823E1,1.1232353E1,7.6755875E1,3.4322594E1,4.2433285E1,2.2438955E1,1.1883637E1,1.855514E1,2.3878145E1,9.968534E0,1.247042E1,6.903767E0,1.1651371E1,2.2214361E1,1.6637841E0,7.1483235E0,2.8202116E0,6.707014E0,5.763406E0,1.2255977E0,5.6781697E0,2.6432083E0,9.008163E0,1.6736395E1,5.4779663E0,5.1159062E0,2.032417E0,1.4164054E0,1.4038061E0,3.6040087E0,3.1030056E0,1.13044E0,4.6329656E0,1.6031636E0,1.0400448E0,1.0381019E0,7.9700613E0,1.4097211E1,2.6391842E0,2.5766087E0,2.9013577E0],"tree_param":{"num_deleted":"0","num_feature":"15","num_nodes":"41","size_leaf_vector":"1"}},{"base_weights":[4.1985502E-3,1.2098689E-1,-2.6889914E-1,4.2951692E-2,4.267496E-1,9.8800905E-2,-3.9190227E-1,5.283498E-1,-1.4916578E-1,-1.4977969E-1,1.8212692E-1,-9.365801E-1,7.637107E-2,2.529017E-1,2.5154686E-1,8.839529E-2,-3.3767277E-1,2.7269864E-2,4.7815037E-1,-3.92257E-1,1.0395648E-2,1.759318E-1,-1.16394415E-1,1.5645519E-1,-7.865605E-2,-1.3364369E-1,5.275005E-2,-8.7058984E-2,1.9174348E-1,1.9061993E-1,-2.1078728E-1],"categories":[9,0,0],"categories_nodes":[4,15,18],"categories_segments":[0,1,2],"categories_sizes":[1,1,1],"default_left":[0,0,0,0,1,0,0,0,0,0,0,0,0,0,0,1,0,0,1,0,0,0,0,0,0,0,0,0,0,0,0],"id":34,"left_children":[1,3,-1,5,7,9,11,13,-1,15,17,19,-1,21,-1,23,-1,25,27,-1,-1,-1,29,-1,-1,-1,-1,-1,-1,-1,-1],"loss_changes":[8.834759E0,1.7551607E0,0E0,1.503848E0,1.6709106E0,1.1511781E0,2.727026E0,9.8388696E-1,0E0,3.3929422E0,1.8705407E0,1.504214E0,0E0,1.1578957E0,0E0,2.007125E0,0E0,2.0474849E0,1.923677E0,0E0,0E0,0E0,2.6643968E0,0E0,0E0,0E0,0E0,0E0,0E0,0E0,0E0],"parents":[2147483647,0,0,1,1,3,3,4,4,5,5,6,6,7,7,9,9,10,10,11,11,13,13,15,15,17,17,18,18,22,22],"right_children":[2,4,-1,6,8,10,12,14,-1,16,18,20,-1,22,-1,24,-1,26,28,-1,-1,-1,30,-1,-1,-1,-1,-1,-1,-1,-1],"split_conditions":[2.039E3,1E0,-2.6889914E-1,6.740003E1,1E-45,2.8755306E1,1.0569142E2,4.3894413E1,-1.4916578E-1,2.0365496E1,1E0,1E0,7.637107E-2,2.5407448E1,2.5154686E-1,1E-45,-3.3767277E-1,4.6975174E1,1E-45,-3.92257E-1,1.0395648E-2,1.759318E-1,6.02388E-6,1.5645519E-1,-7.865605E-2,-1.3364369E-1,5.275005E-2,-8.7058984E-2,1.9174348E-1,1.9061993E-1,-2.1078728E-1],"split_indices":[0,9,0,14,6,14,14,14,0,14,10,11,0,14,0,2,0,14,2,0,0,0,1,0,0,0,0,0,0,0,0],"split_type":[0,0,0,0,1,0,0,0,0,0,0,0,0,0,0,1,0,0,1,0,0,0,0,0,0,0,0,0,0,0,0],"sum_hessian":[8.197241E1,7.332823E1,8.644186E0,5.9327454E1,1.4000775E1,5.325996E1,6.067494E0,1.2999514E1,1.0012618E0,1.3170834E1,4.0089127E1,3.049456E0,3.0180383E0,7.8463154E0,5.1531987E0,1.1317773E1,1.8530606E0,2.7037352E1,1.3051775E1,1.9561071E0,1.0933487E0,3.8138046E0,4.0325108E0,4.8447795E0,6.4729934E0,5.9870872E0,2.1050264E1,2.1219993E0,1.0929775E1,1.7300199E0,2.3024907E0],"tree_param":{"num_deleted":"0","num_feature":"15","num_nodes":"31","size_leaf_vector":"1"}},{"base_weights":[3.4164763E-3,-2.6087767E-1,9.639416E-2,3.423503E-2,3.594678E-1,-1.3636377E-1,1.2373862E-1,4.6014455E-1,-1.1623686E-1,-2.0170992E-2,-6.8630254E-1,2.5573272E-1,-2.6686288E-2,2.4434827E-1,1.7520349E-1,-1.5657955E-1,2.0536117E-1,-3.9093986E-1,5.1844984E-2,4.7838324E-1,-9.04181E-2,-1.5659341E-1,4.0033782E-1,7.5486503E-3,-2.924857E-1,1.8226187E-1,3.90382E-2,1.3633981E-1,-4.752926E-2,1.5492141E-1,-1.7457278E-1,1.9366024E-1,-1.0389983E-2],"categories":[0,9],"categories_nodes":[4],"categories_segments":[0],"categories_sizes":[2],"default_left":[0,0,0,0,1,0,0,0,0,0,0,0,0,0,0,0,0,0,0,0,0,0,0,0,0,0,0,0,0,0,0,0,0],"id":35,"left_children":[1,-1,3,5,7,9,11,13,-1,15,17,-1,19,-1,21,23,-1,-1,-1,25,27,29,31,-1,-1,-1,-1,-1,-1,-1,-1,-1,-1],"loss_changes":[6.465631E0,0E0,1.1643345E0,9.224621E-1,1.2045064E0,1.3206348E0,4.344213E0,1.117701E0,0E0,1.8636084E0,2.139596E0,0E0,1.1263465E0,0E0,6.7471755E-1,2.422441E0,0E0,0E0,0E0,9.76699E-2,1.2104125E0,1.4542861E0,5.7294196E-1,0E0,0E0,0E0,0E0,0E0,0E0,0E0,0E0,0E0,0E0],"parents":[2147483647,0,0,2,2,3,3,4,4,5,5,6,6,7,7,9,9,10,10,12,12,14,14,15,15,19,19,20,20,21,21,22,22],"right_children":[2,-1,4,6,8,10,12,14,-1,16,18,-1,20,-1,22,24,-1,-1,-1,26,28,30,32,-1,-1,-1,-1,-1,-1,-1,-1,-1,-1],"split_conditions":[9.574765E-7,-2.6087767E-1,1E0,1.083207E-6,1E-45,6.62234E1,1.896E3,1.896E3,-1.1623686E-1,6.3607292E1,1.0569142E2,2.5573272E-1,1.222429E-6,2.4434827E-1,3.0147861E1,5.542104E1,2.0536117E-1,-3.9093986E-1,5.1844984E-2,4.7837257E1,8.631007E0,1.6147177E1,1.348158E-5,7.5486503E-3,-2.924857E-1,1.8226187E-1,3.90382E-2,1.3633981E-1,-4.752926E-2,1.5492141E-1,-1.7457278E-1,1.9366024E-1,-1.0389983E-2],"split_indices":[1,0,9,1,6,14,0,0,0,14,14,0,1,0,14,14,0,0,0,14,14,14,1,0,0,0,0,0,0,0,0,0,0],"split_type":[0,0,0,0,1,0,0,0,0,0,0,0,0,0,0,0,0,0,0,0,0,0,0,0,0,0,0,0,0,0,0,0,0],"sum_hessian":[7.762242E1,6.667319E0,7.095511E1,5.8308167E1,1.2646939E1,1.9884209E1,3.8423958E1,1.1483097E1,1.163842E0,1.7271673E1,2.6125343E0,5.776064E0,3.2647896E1,4.289837E0,7.1932597E0,1.5122298E1,2.149375E0,1.2198689E0,1.3926655E0,2.9290686E0,2.9718826E1,3.030878E0,4.162382E0,1.316738E1,1.9549181E0,1.5935534E0,1.335515E0,2.6673424E0,2.7051485E1,1.0907551E0,1.940123E0,2.3522928E0,1.8100892E0],"tree_param":{"num_deleted":"0","num_feature":"15","num_nodes":"33","size_leaf_vector":"1"}},{"base_weights":[9.970962E-3,8.50814E-2,-2.5178763E-1,-1.0259626E-1,1.7135511E-1,-3.436357E-1,7.8223474E-2,2.614456E-1,3.661506E-2,-6.307512E-1,3.7339006E-2,-7.8628205E-2,1.9895577E-1,2.172682E-1,-5.253032E-2,2.880656E-2,-1.147441E0,2.8512746E-1,-1.4505783E-1,-3.2485035E-1,1.6240202E-1,8.113871E-2,1.5664864E-1,-2.651662E-1,1.32860225E-2,-6.264763E-1,4.7659114E-2,9.997585E-2,2.783167E-2,1.2968387E-1,-8.469052E-2,1.0190933E-1,-2.3466583E-1,2.0322262E-1,-2.017272E-2],"categories":[0],"categories_nodes":[11],"categories_segments":[0],"categories_sizes":[1],"default_left":[0,0,0,0,0,0,0,0,0,0,0,1,0,0,0,0,0,0,0,0,0,0,0,0,0,0,0,0,0,0,0,0,0,0,0],"id":36,"left_children":[1,3,-1,5,7,9,11,-1,13,15,17,19,-1,21,23,-1,25,27,-1,-1,29,31,-1,-1,33,-1,-1,-1,-1,-1,-1,-1,-1,-1,-1],"loss_changes":[4.8836336E0,1.1545309E0,0E0,1.0179479E0,4.5414257E0,1.1099404E0,1.3189688E0,0E0,6.82953E-1,2.2579448E0,8.106017E-1,3.0275207E0,0E0,5.375709E-1,1.583565E0,0E0,4.5350456E0,7.603854E-3,0E0,0E0,1.36668E0,2.686364E0,0E0,0E0,1.5218481E0,0E0,0E0,0E0,0E0,0E0,0E0,0E0,0E0,0E0,0E0],"parents":[2147483647,0,0,1,1,3,3,4,4,5,5,6,6,8,8,9,9,10,10,11,11,13,13,14,14,16,16,17,17,20,20,21,21,24,24],"right_children":[2,4,-1,6,8,10,12,-1,14,16,18,20,-1,22,24,-1,26,28,-1,-1,30,32,-1,-1,34,-1,-1,-1,-1,-1,-1,-1,-1,-1,-1],"split_conditions":[2.039E3,1.083207E-6,-2.5178763E-1,7.73E2,1.896E3,1E0,7.884957E1,2.614456E-1,2.586483E-6,7.528324E0,4.93E2,1E-45,1.9895577E-1,6.419733E1,3.076473E-6,2.880656E-2,1E0,3.6889477E1,-1.4505783E-1,-3.2485035E-1,1.571E3,6.1325745E1,1.5664864E-1,-2.651662E-1,3.363599E-6,-6.264763E-1,4.7659114E-2,9.997585E-2,2.783167E-2,1.2968387E-1,-8.469052E-2,1.0190933E-1,-2.3466583E-1,2.0322262E-1,-2.017272E-2],"split_indices":[0,1,0,0,0,8,14,0,1,14,0,2,0,14,1,0,9,14,0,0,0,14,0,0,1,0,0,0,0,0,0,0,0,0,0],"split_type":[0,0,0,0,0,0,0,0,0,0,0,1,0,0,0,0,0,0,0,0,0,0,0,0,0,0,0,0,0,0,0,0,0,0,0],"sum_hessian":[7.444031E1,6.921832E1,5.221982E0,2.1738892E1,4.747943E1,8.931902E0,1.280699E1,6.7802577E0,4.0699173E1,4.7195005E0,4.212401E0,1.0781599E1,2.025391E0,1.2972719E1,2.7726454E1,2.2993736E0,2.420127E0,3.1611514E0,1.0512496E0,1.410886E0,9.370712E0,9.843777E0,3.128943E0,1.1221721E0,2.6604282E1,1.0589002E0,1.3612268E0,1.9426368E0,1.2185146E0,5.8490415E0,3.5216715E0,8.041917E0,1.8018595E0,2.0754962E0,2.4528786E1],"tree_param":{"num_deleted":"0","num_feature":"15","num_nodes":"35","size_leaf_vector":"1"}},{"base_weights":[4.8992005E-3,-2.4121459E-1,6.5506905E-2,1.964878E-2,2.7900743E-1,-3.135562E-1,6.887819E-2,3.8033637E-1,-9.6301444E-2,2.1903996E-1,-4.4561765E-1,1.9457681E-1,5.411712E-3,5.2907273E-2,6.334208E-1,-5.547225E-2,1.5792279E-1,-2.4673223E-1,6.53473E-2,5.026518E-1,-1.94228E-1,7.7266656E-2,2.1966314E-1,-1.4087996E-1,4.3339502E-2,3.31306E-2,1.9188973E-1],"categories":[0,9,0],"categories_nodes":[4,18],"categories_segments":[0,2],"categories_sizes":[2,1],"default_left":[0,0,0,0,1,0,0,0,0,0,0,0,0,0,0,0,0,0,1,0,0,0,0,0,0,0,0],"id":37,"left_children":[1,-1,3,5,7,9,11,13,-1,15,-1,-1,17,19,21,-1,-1,-1,23,25,-1,-1,-1,-1,-1,-1,-1],"loss_changes":[3.5892787E0,0E0,6.605886E-1,9.578708E-1,8.488153E-1,5.0233994E0,1.856345E0,8.5181916E-1,0E0,8.481175E-1,0E0,0E0,2.3644717E0,2.136166E0,3.1785727E-2,0E0,0E0,0E0,1.9450226E0,1.4768839E-1,0E0,0E0,0E0,0E0,0E0,0E0,0E0],"parents":[2147483647,0,0,2,2,3,3,4,4,5,5,6,6,7,7,9,9,12,12,13,13,14,14,18,18,19,19],"right_children":[2,-1,4,6,8,10,12,14,-1,16,-1,-1,18,20,22,-1,-1,-1,24,26,-1,-1,-1,-1,-1,-1,-1],"split_conditions":[9.574765E-7,-2.4121459E-1,1E0,1.3087207E1,1E-45,8.631007E0,2.0365496E1,3.042545E1,-9.6301444E-2,4.99764E0,-4.4561765E-1,1.9457681E-1,2.8755306E1,2.5407448E1,4.3894413E1,-5.547225E-2,1.5792279E-1,-2.4673223E-1,1E-45,1.6418215E1,-1.94228E-1,7.7266656E-2,2.1966314E-1,-1.4087996E-1,4.3339502E-2,3.31306E-2,1.9188973E-1],"split_indices":[1,0,9,14,6,14,14,14,0,14,0,0,14,14,14,0,0,0,2,14,0,0,0,0,0,0,0],"split_type":[0,0,0,0,1,0,0,0,0,0,0,0,0,0,0,0,0,0,1,0,0,0,0,0,0,0,0],"sum_hessian":[7.113376E1,4.1030307E0,6.703073E1,5.6077732E1,1.0952995E1,6.5275173E0,4.9550217E1,9.683743E0,1.2692533E0,5.046828E0,1.4806894E0,3.979701E0,4.5570515E1,4.7488923E0,4.93485E0,2.3529627E0,2.6938653E0,2.2176354E0,4.335288E1,3.0636976E0,1.6851947E0,1.7778333E0,3.157017E0,4.9498E0,3.840308E1,1.2605572E0,1.8031403E0],"tree_param":{"num_deleted":"0","num_feature":"15","num_nodes":"27","size_leaf_vector":"1"}},{"base_weights":[1.6512168E-3,5.1467318E-2,-2.3039167E-1,1.2719987E-1,-9.695691E-2,3.171831E-2,6.8924266E-1,-5.307326E-1,9.181394E-2,1.3288677E-1,-7.7300847E-1,2.4140619E-1,4.353312E-2,-1.0491697E-2,5.236518E-1,4.4569783E-2,2.2854058E-1,-7.980559E-2,-3.3773887E-1,1.4858794E-1,-2.2919689E-1,1.9216341E-1,5.064984E-2,3.56304E-2,-1.5285331E-1,-1.479456E-1,7.638012E-2],"categories":[],"categories_nodes":[],"categories_segments":[],"categories_sizes":[],"default_left":[0,0,0,0,0,0,0,0,0,0,0,0,0,0,0,0,0,0,0,0,0,0,0,0,0,0,0],"id":38,"left_children":[1,3,-1,5,7,9,11,-1,13,15,17,-1,-1,19,21,23,-1,-1,-1,25,-1,-1,-1,-1,-1,-1,-1],"loss_changes":[2.7178438E0,7.60369E-1,0E0,2.366056E0,7.438577E0,3.2846367E0,2.8609872E-1,0E0,9.6257275E-1,1.9418631E0,5.0743794E-1,0E0,0E0,2.3303907E0,6.476307E-2,1.3865378E0,0E0,0E0,0E0,1.2214074E0,0E0,0E0,0E0,0E0,0E0,0E0,0E0],"parents":[2147483647,0,0,1,1,3,3,4,4,5,5,6,6,8,8,9,9,10,10,13,13,14,14,15,15,19,19],"right_children":[2,4,-1,6,8,10,12,-1,14,16,18,-1,-1,20,22,24,-1,-1,-1,26,-1,-1,-1,-1,-1,-1,-1],"split_conditions":[2.039E3,5.542104E1,-2.3039167E-1,5.2873646E1,5.7694485E1,5.0086468E1,1E0,-5.307326E-1,6.02388E-6,4.6975174E1,1.926763E-6,2.4140619E-1,4.353312E-2,2.586483E-6,1.1539479E2,4.333927E1,2.2854058E-1,-7.980559E-2,-3.3773887E-1,4.93E2,-2.2919689E-1,1.9216341E-1,5.064984E-2,3.56304E-2,-1.5285331E-1,-1.479456E-1,7.638012E-2],"split_indices":[0,14,0,14,14,14,11,0,1,14,1,0,0,1,14,14,0,0,0,0,0,0,0,0,0,0,0],"split_type":[0,0,0,0,0,0,0,0,0,0,0,0,0,0,0,0,0,0,0,0,0,0,0,0,0,0,0],"sum_hessian":[6.885769E1,6.554803E1,3.3096595E0,4.3496967E1,2.2051064E1,3.8083633E1,5.4133315E0,1.3876238E0,2.0663439E1,3.4572166E1,3.5114684E0,4.0708117E0,1.3425196E0,1.7494553E1,3.1688867E0,3.1254099E1,3.318067E0,2.16057E0,1.3508985E0,1.5107778E1,2.3867748E0,1.7778977E0,1.3909891E0,2.8255932E1,2.9981675E0,1.6241642E0,1.3483613E1],"tree_param":{"num_deleted":"0","num_feature":"15","num_nodes":"27","size_leaf_vector":"1"}},{"base_weights":[-2.7181988E-3,-2.1777377E-1,3.757514E-2,-1.0869486E-1,1.0453861E-1,1.378643E-1,-2.5394246E-1,2.5228664E-1,-1.327109E-2,-2.2230163E-1,2.1473758E-1,-2.3309936E-1,-7.524566E-2,4.6882507E-1,-6.247879E-2,-1.3295843E-1,4.890952E-2,4.2575985E-1,-2.6316977E-1,1.8173163E-1,3.2244384E-2,-5.2245927E-1,2.3971975E-2,1.6758634E-1,2.9341249E-2,-2.383492E-1,4.467758E-3,1.0201428E-1,-3.1775963E-1,2.0912793E-1,-1.5204438E-2],"categories":[],"categories_nodes":[],"categories_segments":[],"categories_sizes":[],"default_left":[0,0,0,0,0,0,0,0,0,0,0,0,0,0,0,0,0,0,0,0,0,0,0,0,0,0,0,0,0,0,0],"id":39,"left_children":[1,-1,3,5,7,9,11,-1,13,15,-1,-1,17,19,21,-1,-1,23,25,-1,-1,27,29,-1,-1,-1,-1,-1,-1,-1,-1],"loss_changes":[2.01455E0,0E0,6.534013E-1,7.897585E-1,3.9563537E0,1.9202734E0,1.2140355E0,0E0,9.826415E-1,5.808787E-1,0E0,0E0,1.1716878E0,1.2489283E-1,1.497669E0,0E0,0E0,9.577799E-2,1.3123584E0,0E0,0E0,3.1158822E0,1.6631951E0,0E0,0E0,0E0,0E0,0E0,0E0,0E0,0E0],"parents":[2147483647,0,0,2,2,3,3,4,4,5,5,6,6,8,8,9,9,12,12,13,13,14,14,17,17,18,18,21,21,22,22],"right_children":[2,-1,4,6,8,10,12,-1,14,16,-1,-1,18,20,22,-1,-1,24,26,-1,-1,28,30,-1,-1,-1,-1,-1,-1,-1,-1],"split_conditions":[9.574765E-7,-2.1777377E-1,1.083207E-6,3.7671246E1,1.896E3,2.8755306E1,5.2873646E1,2.5228664E-1,1.222429E-6,4.93E2,2.1473758E-1,-2.3309936E-1,5.542104E1,4.7837257E1,2.2862963E1,-1.3295843E-1,4.890952E-2,5.3993576E1,6.3607292E1,1.8173163E-1,3.2244384E-2,8.631007E0,2.5126863E1,1.6758634E-1,2.9341249E-2,-2.383492E-1,4.467758E-3,1.0201428E-1,-3.1775963E-1,2.0912793E-1,-1.5204438E-2],"split_indices":[1,0,1,14,0,14,14,0,1,0,0,0,14,14,14,0,0,14,14,0,0,14,14,0,0,0,0,0,0,0,0],"split_type":[0,0,0,0,0,0,0,0,0,0,0,0,0,0,0,0,0,0,0,0,0,0,0,0,0,0,0,0,0,0,0],"sum_hessian":[6.719765E1,2.6483707E0,6.454927E1,2.0075235E1,4.447404E1,7.460981E0,1.2614254E1,5.2870374E0,3.9187E1,4.9755516E0,2.4854295E0,2.359559E0,1.0254695E1,2.8395894E0,3.6347412E1,3.067145E0,1.9084064E0,2.4520187E0,7.8026757E0,1.5686418E0,1.2709476E0,4.952596E0,3.1394817E1,1.2445031E0,1.2075156E0,2.0425198E0,5.760156E0,2.0403454E0,2.9122505E0,2.3018854E0,2.9092932E1],"tree_param":{"num_deleted":"0","num_feature":"15","num_nodes":"31","size_leaf_vector":"1"}},{"base_weights":[7.118869E-3,4.0697087E-2,-2.0554344E-1,-4.1602184E-3,2.584993E-1,4.9921542E-2,-3.2706702E-1,3.600855E-1,-8.408964E-2,-3.020564E-1,1.1227246E-1,-2.9737416E-1,-7.0349336E-2,2.1797931E-1,1.19473405E-1,1.3949506E-1,-8.216957E-1,1.847285E-1,4.7894515E-2,-4.8882425E-1,3.0411094E-1,4.763034E-1,-2.207818E-1,1.5509555E-1,-4.112338E-1,-2.200214E-1,3.5816856E-2,-2.591536E-1,3.729142E-2,1.8901016E-1,-4.642268E-2,3.6017295E-2,1.8216383E-1,-3.4132552E-1,1.1989536E-1],"categories":[9,0],"categories_nodes":[4,9],"categories_segments":[0,1],"categories_sizes":[1,1],"default_left":[0,0,0,0,1,0,0,0,0,1,0,0,0,0,0,0,0,0,0,0,0,0,0,0,0,0,0,0,0,0,0,0,0,0,0],"id":40,"left_children":[1,3,-1,5,7,9,11,13,-1,15,17,-1,19,-1,21,-1,23,-1,25,27,29,31,33,-1,-1,-1,-1,-1,-1,-1,-1,-1,-1,-1,-1],"loss_changes":[1.5955673E0,6.387239E-1,0E0,9.7862595E-1,7.118783E-1,1.0887839E0,1.300709E0,7.7998817E-1,0E0,3.3731747E0,1.3176836E0,0E0,1.2257124E0,0E0,9.7088957E-1,0E0,4.2626266E0,0E0,2.2065477E0,9.419094E-1,7.3216665E-1,1.0418403E-1,2.9199817E0,0E0,0E0,0E0,0E0,0E0,0E0,0E0,0E0,0E0,0E0,0E0,0E0],"parents":[2147483647,0,0,1,1,3,3,4,4,5,5,6,6,7,7,9,9,10,10,12,12,14,14,16,16,18,18,19,19,20,20,21,21,22,22],"right_children":[2,4,-1,6,8,10,12,14,-1,16,18,-1,20,-1,22,-1,24,-1,26,28,30,32,34,-1,-1,-1,-1,-1,-1,-1,-1,-1,-1,-1,-1],"split_conditions":[2.039E3,1E0,-2.0554344E-1,6.65098E1,1E-45,1.3087207E1,6.77031E1,6.02388E-6,-8.408964E-2,1E-45,2.0365496E1,-2.9737416E-1,1.017685E-6,2.1797931E-1,1E0,1.3949506E-1,1E0,1.847285E-1,2.8755306E1,1.0569142E2,4.103903E-6,1.6418215E1,3.0686333E1,1.5509555E-1,-4.112338E-1,-2.200214E-1,3.5816856E-2,-2.591536E-1,3.729142E-2,1.8901016E-1,-4.642268E-2,3.6017295E-2,1.8216383E-1,-3.4132552E-1,1.1989536E-1],"split_indices":[0,9,0,14,6,14,14,1,0,2,14,0,1,0,8,0,12,0,14,14,1,14,14,0,0,0,0,0,0,0,0,0,0,0,0],"split_type":[0,0,0,0,1,0,0,0,0,1,0,0,0,0,0,0,0,0,0,0,0,0,0,0,0,0,0,0,0,0,0,0,0,0,0],"sum_hessian":[6.644183E1,6.426583E1,2.1759996E0,5.4103817E1,1.0162015E1,4.7066353E1,7.037467E0,8.829053E0,1.3329618E0,6.504313E0,4.056204E1,1.1642039E0,5.873263E0,2.6986096E0,6.1304436E0,2.6693153E0,3.8349977E0,3.6274629E0,3.6934574E1,2.6293948E0,3.243868E0,2.7971718E0,3.3332717E0,1.1324681E0,2.7025297E0,2.3202877E0,3.461429E1,1.3777685E0,1.2516264E0,1.6785407E0,1.5653274E0,1.2668307E0,1.5303411E0,1.0086837E0,2.324588E0],"tree_param":{"num_deleted":"0","num_feature":"15","num_nodes":"35","size_leaf_vector":"1"}},{"base_weights":[4.4742133E-3,-1.9258426E-1,3.2680932E-2,-5.57153E-2,1.2837175E-1,1.6295843E-1,-1.5036882E-1,2.2297294E-1,3.847469E-2,-9.585903E-2,3.6464354E-1,-3.3003753E-1,1.429314E-1,2.1253641E-1,-5.675441E-2,-4.8450816E-2,5.684223E-1,-1.2810129E-1,-2.829605E-1,-1.475263E-1,2.1416622E-1,4.5663345E-1,-1.3661765E-1,1.9459182E-1,6.458803E-2,-1.1461767E-1,2.074032E-1,9.990606E-2,-1.172769E-1,1.7156428E-1,4.33077E-2,-1.8108182E-1,2.5099695E-2],"categories":[],"categories_nodes":[],"categories_segments":[],"categories_sizes":[],"default_left":[0,0,0,0,0,0,0,0,0,0,0,0,0,0,0,0,0,0,0,0,0,0,0,0,0,0,0,0,0,0,0,0,0],"id":41,"left_children":[1,-1,3,5,7,9,11,-1,13,-1,15,17,19,-1,21,-1,23,25,-1,27,-1,29,31,-1,-1,-1,-1,-1,-1,-1,-1,-1,-1],"loss_changes":[1.2177968E0,0E0,5.4720503E-1,7.2586787E-1,1.6827538E0,1.1593299E0,1.3207955E0,0E0,1.8308618E0,0E0,9.521512E-1,1.7723746E0,1.7436235E0,0E0,1.1078657E0,0E0,3.0466437E-2,2.8985484E0,0E0,9.929795E-1,0E0,4.9269497E-2,2.399643E0,0E0,0E0,0E0,0E0,0E0,0E0,0E0,0E0,0E0,0E0],"parents":[2147483647,0,0,2,2,3,3,4,4,5,5,6,6,8,8,10,10,11,11,12,12,14,14,16,16,17,17,19,19,21,21,22,22],"right_children":[2,-1,4,6,8,10,12,-1,14,-1,16,18,20,-1,22,-1,24,26,-1,28,-1,30,32,-1,-1,-1,-1,-1,-1,-1,-1,-1,-1],"split_conditions":[9.574765E-7,-1.9258426E-1,2.815151E-6,3.7956768E1,1.896E3,8.915831E0,6.3607292E1,2.2297294E-1,3.363599E-6,-9.585903E-2,4.93E2,1.926763E-6,1.926763E-6,2.1253641E-1,8.631007E0,-4.8450816E-2,2.4557764E1,1.579112E-6,-2.829605E-1,6.65098E1,2.1416622E-1,2.115828E-5,3.4656723E1,1.9459182E-1,6.458803E-2,-1.1461767E-1,2.074032E-1,9.990606E-2,-1.172769E-1,1.7156428E-1,4.33077E-2,-1.8108182E-1,2.5099695E-2],"split_indices":[1,0,1,14,0,14,14,0,1,0,0,1,1,0,14,0,14,1,0,14,0,1,14,0,0,0,0,0,0,0,0,0,0],"split_type":[0,0,0,0,0,0,0,0,0,0,0,0,0,0,0,0,0,0,0,0,0,0,0,0,0,0,0,0,0,0,0,0,0],"sum_hessian":[6.463861E1,1.7928424E0,6.284577E1,3.2885197E1,2.9960575E1,9.716343E0,2.3168854E1,2.8945985E0,2.7065977E1,2.6920016E0,7.024341E0,1.428993E1,8.878923E0,2.5669365E0,2.449904E1,2.0189579E0,5.005383E0,1.16591015E1,2.6308284E0,6.376616E0,2.5023077E0,2.6629577E0,2.1836082E1,3.3969047E0,1.6084782E0,9.308138E0,2.3509636E0,2.0200808E0,4.356535E0,1.337866E0,1.3250917E0,6.441123E0,1.5394959E1],"tree_param":{"num_deleted":"0","num_feature":"15","num_nodes":"33","size_leaf_vector":"1"}},{"base_weights":[1.8338451E-2,4.2442158E-2,-1.8062767E-1,1.0860878E-3,2.6722035E-1,-5.9219366E-1,4.3835934E-2,-7.332143E-2,6.092573E-1,-3.2849047E-1,4.829046E-2,9.970907E-2,-3.244445E-1,-1.631762E-1,2.2541773E-1,2.1990554E-1,4.6588182E-2,1.5407635E-1,-1.8363528E-1,-6.5173364E-1,3.3791068E-1,1.7330804E-1,-3.97045E-2,1.1980205E-2,1.1559727E-1,-2.6172516E-1,2.3264248E-2,-3.698875E-1,1.714485E-1,1.5108918E-1,8.391513E-4],"categories":[0],"categories_nodes":[3],"categories_segments":[0],"categories_sizes":[1],"default_left":[0,0,0,1,0,0,0,0,0,0,0,0,0,0,0,0,0,0,0,0,0,0,0,0,0,0,0,0,0,0,0],"id":42,"left_children":[1,3,-1,5,7,9,11,13,15,-1,-1,17,19,-1,21,-1,-1,23,25,27,29,-1,-1,-1,-1,-1,-1,-1,-1,-1,-1],"loss_changes":[1.0041883E0,5.939704E-1,0E0,1.4208276E0,1.2012818E0,1.6021276E0,1.1071177E0,9.476257E-1,1.7053604E-1,0E0,0E0,7.3869646E-1,1.7627296E0,0E0,6.179741E-1,0E0,0E0,1.0202465E0,1.4853108E0,4.33323E0,1.6584799E-1,0E0,0E0,0E0,0E0,0E0,0E0,0E0,0E0,0E0,0E0],"parents":[2147483647,0,0,1,1,3,3,4,4,5,5,6,6,7,7,8,8,11,11,12,12,14,14,17,17,18,18,19,19,20,20],"right_children":[2,4,-1,6,8,10,12,14,16,-1,-1,18,20,-1,22,-1,-1,24,26,28,30,-1,-1,-1,-1,-1,-1,-1,-1,-1,-1],"split_conditions":[2.039E3,2.115828E-5,-1.8062767E-1,1E-45,3.042545E1,4.578831E-6,1.045708E-5,1E0,1.1539479E2,-3.2849047E-1,4.829046E-2,6.65098E1,1E0,-1.631762E-1,1.6147177E1,2.1990554E-1,4.6588182E-2,2.815151E-6,6.77031E1,4.6975174E1,4.585231E1,1.7330804E-1,-3.97045E-2,1.1980205E-2,1.1559727E-1,-2.6172516E-1,2.3264248E-2,-3.698875E-1,1.714485E-1,1.5108918E-1,8.391513E-4],"split_indices":[0,1,0,5,14,1,1,9,14,0,0,14,10,0,14,0,0,1,14,14,14,0,0,0,0,0,0,0,0,0,0],"split_type":[0,0,0,1,0,0,0,0,0,0,0,0,0,0,0,0,0,0,0,0,0,0,0,0,0,0,0,0,0,0,0],"sum_hessian":[6.444E1,6.2926888E1,1.5131148E0,5.3997017E1,8.929872E0,2.7654696E0,5.123155E1,4.868393E0,4.0614786E0,1.3862484E0,1.3792211E0,4.5116085E1,6.1154637E0,1.5717376E0,3.2966552E0,2.7083964E0,1.3530818E0,3.8235744E1,6.880339E0,4.103728E0,2.0117362E0,1.3513345E0,1.9453206E0,2.6384987E1,1.1850758E1,1.2482482E0,5.632091E0,2.7765017E0,1.327226E0,1.0096029E0,1.0021334E0],"tree_param":{"num_deleted":"0","num_feature":"15","num_nodes":"31","size_leaf_vector":"1"}},{"base_weights":[1.4554982E-2,-5.0459985E-2,2.155512E-1,2.396811E-3,-3.2902172E-1,5.1886296E-1,2.2995407E-2,-6.088115E-1,4.479518E-2,1.8894765E-1,2.1511588E-1,-6.916688E-1,3.7065738E-1,-3.1524563E-1,2.5818603E-2,-1.6336295E-1,7.272352E-2,1.0411747E-2,7.169422E-2,-4.073903E-2,-3.095032E-1,5.8939666E-1,1.8442413E-2,1.1760712E-1,-1.9667187E-1,2.0694071E-1,7.2942264E-2,1.5414493E-1,-9.79949E-2,-4.3128975E-2,5.3481847E-2,3.781103E-2,-2.3706804E-1],"categories":[0,0],"categories_nodes":[3,24],"categories_segments":[0,1],"categories_sizes":[1,1],"default_left":[0,0,0,1,0,0,0,0,0,0,0,0,0,0,0,0,0,0,0,0,0,0,0,0,1,0,0,0,0,0,0,0,0],"id":43,"left_children":[1,3,5,7,-1,9,11,13,15,17,-1,19,21,-1,-1,-1,23,-1,-1,-1,-1,25,27,29,31,-1,-1,-1,-1,-1,-1,-1,-1],"loss_changes":[8.528482E-1,2.7397974E0,9.188668E-1,1.274051E0,0E0,2.6613724E-1,2.9384584E0,1.0700446E0,7.954471E-1,1.9973367E-2,0E0,5.9353995E-1,5.987822E-1,0E0,0E0,0E0,5.6394005E-1,0E0,0E0,0E0,0E0,8.684397E-4,8.625615E-1,6.4346445E-1,1.3947953E0,0E0,0E0,0E0,0E0,0E0,0E0,0E0,0E0],"parents":[2147483647,0,0,1,1,2,2,3,3,5,5,6,6,7,7,8,8,9,9,11,11,12,12,16,16,21,21,22,22,23,23,24,24],"right_children":[2,4,6,8,-1,10,12,14,16,18,-1,20,22,-1,-1,-1,24,-1,-1,-1,-1,26,28,30,32,-1,-1,-1,-1,-1,-1,-1,-1],"split_conditions":[1.348158E-5,1.045708E-5,1.6147177E1,1E-45,-3.2902172E-1,1.0036545E1,3.2919357E1,6.1885963E1,9.574765E-7,7.2338E0,2.1511588E-1,2.5407448E1,5.0086468E1,-3.1524563E-1,2.5818603E-2,-1.6336295E-1,6.740003E1,1.0411747E-2,7.169422E-2,-4.073903E-2,-3.095032E-1,4.362015E1,1E0,2.2588694E1,1E-45,2.0694071E-1,7.2942264E-2,1.5414493E-1,-9.79949E-2,-4.3128975E-2,5.3481847E-2,3.781103E-2,-2.3706804E-1],"split_indices":[1,1,14,5,0,14,14,14,1,14,0,14,14,0,0,0,14,0,0,0,0,14,10,14,2,0,0,0,0,0,0,0,0],"split_type":[0,0,0,1,0,0,0,0,0,0,0,0,0,0,0,0,0,0,0,0,0,0,0,0,1,0,0,0,0,0,0,0,0],"sum_hessian":[6.3431187E1,4.849407E1,1.4937118E1,4.7111748E1,1.3823211E0,5.1423435E0,9.794774E0,2.1894639E0,4.4922283E1,2.6629126E0,2.4794307E0,2.8816607E0,6.9131136E0,1.0251341E0,1.1643298E0,1.1955774E0,4.3726707E1,1.067055E0,1.5958577E0,1.6247637E0,1.2568969E0,3.8492055E0,3.0639079E0,3.796487E1,5.761835E0,2.214794E0,1.6344116E0,1.0572777E0,2.0066302E0,6.893849E0,3.1071024E1,4.2427573E0,1.519078E0],"tree_param":{"num_deleted":"0","num_feature":"15","num_nodes":"33","size_leaf_vector":"1"}},{"base_weights":[4.769908E-3,2.9812422E-1,-3.1168696E-2,-2.268732E-2,1.7229398E-1,-2.9482895E-1,1.1184615E-2,-3.717011E-2,3.236403E-1,2.0822947E-1,-1.0018458E-1,2.0584655E-1,4.912344E-2,-9.5193826E-2,3.4376082E-1,-4.9059403E-1,4.2237164E-3,-6.956417E-2,1.0310126E-1,1.9851348E-1,-1.5422614E-2,-2.3864448E-1,9.396893E-2,2.1709144E-1,-2.8994547E-2],"categories":[],"categories_nodes":[],"categories_segments":[],"categories_sizes":[],"default_left":[0,0,0,0,0,0,0,0,0,0,0,0,0,0,0,0,0,0,0,0,0,0,0,0,0],"id":44,"left_children":[1,3,5,-1,-1,-1,7,9,11,13,15,-1,17,-1,19,21,23,-1,-1,-1,-1,-1,-1,-1,-1],"loss_changes":[6.735729E-1,7.6304644E-1,2.309765E0,0E0,0E0,0E0,8.5200375E-1,7.7922755E-1,7.1801525E-1,8.459214E-1,1.6201887E0,0E0,5.246329E-1,0E0,1.1276302E0,2.3040512E0,2.414787E0,0E0,0E0,0E0,0E0,0E0,0E0,0E0,0E0],"parents":[2147483647,0,0,1,1,2,2,6,6,7,7,8,8,9,9,10,10,12,12,14,14,15,15,16,16],"right_children":[2,4,6,-1,-1,-1,8,10,12,14,16,-1,18,-1,20,22,24,-1,-1,-1,-1,-1,-1,-1,-1],"split_conditions":[8.631007E0,5.2657194E0,1.19826145E1,-2.268732E-2,1.7229398E-1,-2.9482895E-1,2.115828E-5,3.267404E1,4.264611E-5,4.93E2,4.6975174E1,2.0584655E-1,3.042545E1,-9.5193826E-2,6.02388E-6,1E0,5.0086468E1,-6.956417E-2,1.0310126E-1,1.9851348E-1,-1.5422614E-2,-2.3864448E-1,9.396893E-2,2.1709144E-1,-2.8994547E-2],"split_indices":[14,14,14,0,0,0,1,14,1,0,14,0,14,0,1,10,14,0,0,0,0,0,0,0,0],"split_type":[0,0,0,0,0,0,0,0,0,0,0,0,0,0,0,0,0,0,0,0,0,0,0,0,0],"sum_hessian":[6.200833E1,5.971301E0,5.6037033E1,2.8460765E0,3.1252248E0,1.4416693E0,5.4595364E1,4.8041622E1,6.553742E0,9.3449135E0,3.869671E1,2.17803E0,4.3757114E0,1.6408875E0,7.7040257E0,7.3846817E0,3.1312025E1,2.34822E0,2.0274916E0,3.8953514E0,3.808674E0,5.3614726E0,2.0232093E0,3.091294E0,2.8220732E1],"tree_param":{"num_deleted":"0","num_feature":"15","num_nodes":"25","size_leaf_vector":"1"}},{"base_weights":[1.3702655E-2,3.1975325E-2,-1.5858747E-1,2.7350208E-1,3.852368E-3,-1.2074023E-2,1.5836447E-1,-2.0995638E-1,3.8507078E-2,3.697955E-1,-1.7412226E-3,9.238634E-2,4.923349E-1,-2.3172392E-1,3.1517703E-2,3.7190974E-2,4.125684E-3,1.9519751E-1,1.194626E-2,1.608041E-1,2.3941633E-3],"categories":[],"categories_nodes":[],"categories_segments":[],"categories_sizes":[],"default_left":[0,0,0,0,0,0,0,0,0,0,0,0,0,0,0,0,0,0,0,0,0],"id":45,"left_children":[1,3,-1,5,7,-1,-1,-1,9,11,13,15,17,-1,19,-1,-1,-1,-1,-1,-1],"loss_changes":[6.445397E-1,4.2152956E-1,0E0,5.3796375E-1,1.4106402E0,0E0,0E0,0E0,7.343259E-1,1.5730089E-1,1.3074381E0,5.8916174E-3,2.5397968E-1,0E0,5.7695836E-1,0E0,0E0,0E0,0E0,0E0,0E0],"parents":[2147483647,0,0,1,1,3,3,4,4,8,8,9,9,10,10,11,11,12,12,14,14],"right_children":[2,4,-1,6,8,-1,-1,-1,10,12,14,16,18,-1,20,-1,-1,-1,-1,-1,-1],"split_conditions":[2.039E3,8.631007E0,-1.5858747E-1,4.99764E0,1.19826145E1,-1.2074023E-2,1.5836447E-1,-2.0995638E-1,2.0365496E1,1.348158E-5,2.3134995E1,1.222429E-6,1.5588212E1,-2.3172392E-1,2.5407448E1,3.7190974E-2,4.125684E-3,1.9519751E-1,1.194626E-2,1.608041E-1,2.3941633E-3],"split_indices":[0,14,0,14,14,0,0,0,14,1,14,1,14,0,14,0,0,0,0,0,0],"split_type":[0,0,0,0,0,0,0,0,0,0,0,0,0,0,0,0,0,0,0,0,0],"sum_hessian":[6.233513E1,6.121369E1,1.1214356E0,5.4742537E0,5.5739437E1,2.8280065E0,2.6462474E0,1.7151948E0,5.4024242E1,4.965422E0,4.9058823E1,2.0587287E0,2.9066935E0,1.1101573E0,4.7948666E1,1.0574567E0,1.001272E0,1.828924E0,1.0777694E0,1.1667808E0,4.6781883E1],"tree_param":{"num_deleted":"0","num_feature":"15","num_nodes":"21","size_leaf_vector":"1"}},{"base_weights":[1.0833829E-2,1.3781132E-1,-6.656604E-2,-2.778654E-2,2.3852217E-1,-1.9369118E-1,-2.7081907E-2,-2.2317061E-1,1.4207037E-1,4.6403992E-1,-7.859672E-2,7.231449E-2,-2.50495E-1,-4.86308E-2,2.0231445E-1,1.7899185E-1,3.427627E-2,-3.995645E-1,-6.0801976E-3,4.0226644E-1,-1.8764453E-1,-4.4458887E-1,3.0287522E-1,-6.1563593E-1,5.9102427E-2,5.4551184E-1,-9.8090865E-2,4.8765574E-2,1.864461E-1,1.9201565E-1,2.6353067E-2,1.4054024E-2,-2.448356E-1,5.8824632E-2,1.9765194E-1,1.1637611E-1,-5.922317E-2],"categories":[0,0,0],"categories_nodes":[7,13,26],"categories_segments":[0,1,2],"categories_sizes":[1,1,1],"default_left":[0,0,0,0,0,0,0,1,0,0,0,0,0,1,0,0,0,0,0,0,0,0,0,0,0,0,1,0,0,0,0,0,0,0,0,0,0],"id":46,"left_children":[1,3,5,7,-1,-1,9,11,13,15,17,19,-1,21,-1,-1,-1,23,25,27,-1,-1,29,31,-1,33,35,-1,-1,-1,-1,-1,-1,-1,-1,-1,-1],"loss_changes":[6.255876E-1,2.642816E0,8.888836E-1,7.020548E-1,0E0,0E0,1.0017923E0,1.8288913E0,1.1916969E0,1.0655242E-1,8.212389E-1,1.9823011E0,0E0,5.153529E0,0E0,0E0,0E0,9.599606E-1,1.570068E0,1.9915718E-1,0E0,0E0,5.4767495E-1,7.048085E-1,0E0,4.6017528E-2,1.3536818E0,0E0,0E0,0E0,0E0,0E0,0E0,0E0,0E0,0E0,0E0],"parents":[2147483647,0,0,1,1,2,2,3,3,6,6,7,7,8,8,9,9,10,10,11,11,13,13,17,17,18,18,19,19,22,22,23,23,25,25,26,26],"right_children":[2,4,6,8,-1,-1,10,12,14,16,18,20,-1,22,-1,-1,-1,24,26,28,-1,-1,30,32,-1,34,36,-1,-1,-1,-1,-1,-1,-1,-1,-1,-1],"split_conditions":[1.896E3,1.017685E-6,1.083207E-6,7.73E2,2.3852217E-1,-1.9369118E-1,1.222429E-6,1E-45,7.884957E1,4.7837257E1,2.231009E-6,5.542104E1,-2.50495E-1,1E-45,2.0231445E-1,1.7899185E-1,3.427627E-2,6.476094E1,2.586483E-6,3.5500248E1,-1.8764453E-1,-4.4458887E-1,1.189E3,2.5126863E1,5.9102427E-2,6.3023285E1,1E-45,4.8765574E-2,1.864461E-1,1.9201565E-1,2.6353067E-2,1.4054024E-2,-2.448356E-1,5.8824632E-2,1.9765194E-1,1.1637611E-1,-5.922317E-2],"split_indices":[0,1,1,0,0,0,1,2,14,14,1,14,0,2,0,0,0,14,1,14,0,0,0,14,0,14,5,0,0,0,0,0,0,0,0,0,0],"split_type":[0,0,0,0,0,0,0,1,0,0,0,0,0,1,0,0,0,0,0,0,0,0,0,0,0,0,1,0,0,0,0,0,0,0,0,0,0],"sum_hessian":[6.1719925E1,2.3078402E1,3.864152E1,1.9198936E1,3.8794646E0,1.486648E0,3.7154873E1,8.78258E0,1.0416356E1,2.7670474E0,3.438783E1,6.5169253E0,2.2656548E0,8.337925E0,2.0784307E0,1.4946971E0,1.2723504E0,5.506287E0,2.888154E1,4.7122593E0,1.8046663E0,1.0087045E0,7.329221E0,4.0187793E0,1.4875083E0,3.424331E0,2.5457209E1,3.082781E0,1.629478E0,2.0843468E0,5.244874E0,1.111669E0,2.9071102E0,1.5072303E0,1.9171007E0,3.826556E0,2.1630653E1],"tree_param":{"num_deleted":"0","num_feature":"15","num_nodes":"37","size_leaf_vector":"1"}},{"base_weights":[1.9969711E-2,-2.3076149E-2,2.4893929E-1,1.8895958E-2,-3.140924E-1,3.5879022E-1,-7.815704E-2,-5.449233E-2,2.4058232E-1,-2.644402E-1,8.008951E-2,5.9593296E-1,2.627366E-2,2.8366849E-2,-8.838463E-1,2.1017383E-1,5.626963E-2,7.437145E-2,-6.565779E-2,5.535865E-3,2.237381E-1,-1.3679129E-1,3.5817218E-1,-5.8773514E-2,5.7504326E-1,-4.7202316E-1,3.79746E-2,-2.388836E-1,2.8322524E-1,1.5670407E-1,7.925882E-3,3.7099975E-3,-2.2435956E-1,2.1627657E-1,9.276219E-3,1.5183192E-1,1.8011043E-2],"categories":[0,1,2,9],"categories_nodes":[2],"categories_segments":[0],"categories_sizes":[4],"default_left":[0,0,1,0,0,0,0,0,0,0,0,0,0,0,0,0,0,0,0,0,0,0,0,0,0,0,0,0,0,0,0,0,0,0,0,0,0],"id":47,"left_children":[1,3,5,7,9,11,-1,13,15,-1,17,19,21,23,25,-1,27,-1,-1,-1,-1,-1,29,31,33,-1,-1,-1,35,-1,-1,-1,-1,-1,-1,-1,-1],"loss_changes":[6.2368834E-1,6.6173077E-1,6.5347755E-1,7.918424E-1,1.5968108E0,6.6659653E-1,0E0,2.5523138E0,9.855532E-1,0E0,3.0225563E-1,4.1931129E-1,9.072425E-1,1.6727474E0,2.5483391E0,0E0,2.10594E0,0E0,0E0,0E0,0E0,0E0,1.666531E-1,1.5084285E0,3.6052585E-1,0E0,0E0,0E0,3.8810593E-1,0E0,0E0,0E0,0E0,0E0,0E0,0E0,0E0],"parents":[2147483647,0,0,1,1,2,2,3,3,4,4,5,5,7,7,8,8,10,10,11,11,12,12,13,13,14,14,16,16,22,22,23,23,24,24,28,28],"right_children":[2,4,6,8,10,12,-1,14,16,-1,18,20,22,24,26,-1,28,-1,-1,-1,-1,-1,30,32,34,-1,-1,-1,36,-1,-1,-1,-1,-1,-1,-1,-1],"split_conditions":[1E0,6.740003E1,1E-45,5.8541664E1,7.884957E1,1E0,-7.815704E-2,5.542104E1,1.189E3,-2.644402E-1,1E0,1.6418215E1,3.042545E1,5.2873646E1,1.926763E-6,2.1017383E-1,1.148406E-6,7.437145E-2,-6.565779E-2,5.535865E-3,2.237381E-1,-1.3679129E-1,4.333927E1,5.065519E1,1E0,-4.7202316E-1,3.79746E-2,-2.388836E-1,1.926763E-6,1.5670407E-1,7.925882E-3,3.7099975E-3,-2.2435956E-1,2.1627657E-1,9.276219E-3,1.5183192E-1,1.8011043E-2],"split_indices":[9,14,6,14,14,8,0,14,0,0,11,14,14,14,1,0,1,0,0,0,0,0,14,14,11,0,0,0,1,0,0,0,0,0,0,0,0],"split_type":[0,0,1,0,0,0,0,0,0,0,0,0,0,0,0,0,0,0,0,0,0,0,0,0,0,0,0,0,0,0,0,0,0,0,0,0,0],"sum_hessian":[6.1695988E1,5.268965E1,9.006339E0,4.6865498E1,5.8241534E0,7.6521273E0,1.3542122E0,3.5776154E1,1.1089344E1,1.8807942E0,3.9433591E0,4.0042224E0,3.6479049E0,3.340456E1,2.3715901E0,2.3709717E0,8.718372E0,2.6349635E0,1.3083957E0,1.0564363E0,2.947786E0,1.3347306E0,2.3131742E0,2.9581718E1,3.822844E0,1.0784396E0,1.2931504E0,1.3055632E0,7.41281E0,1.1630884E0,1.1500858E0,2.7703707E1,1.8780107E0,2.758396E0,1.0644482E0,3.0747118E0,4.3380976E0],"tree_param":{"num_deleted":"0","num_feature":"15","num_nodes":"37","size_leaf_vector":"1"}},{"base_weights":[1.5194526E-2,-2.0158846E-2,2.1363886E-1,1.3173072E-2,-2.3726827E-1,3.1605327E-1,-6.1427943E-2,6.488392E-2,-2.2534372E-1,-1.8110256E-1,6.069539E-2,5.3958166E-1,2.877344E-2,-2.9309602E-2,2.9790887E-1,-4.6046776E-1,1.7446075E-1,6.1488494E-2,-5.2625503E-2,4.6148463E-3,2.095302E-1,-1.0994407E-1,3.2088038E-1,-1.0714858E-1,1.8815382E-1,-1.18667066E-1,4.1394097E-1,-3.8661045E-1,-8.7978095E-2,1.440833E-1,6.693882E-3,3.453205E-3,-1.9259466E-1,2.3251538E-1,3.5610933E-2,7.6855294E-2,-1.5129562E-1],"categories":[0,1,2,9],"categories_nodes":[2],"categories_segments":[0],"categories_sizes":[4],"default_left":[0,0,1,0,0,0,0,0,0,0,0,0,0,0,0,0,0,0,0,0,0,0,0,0,0,0,0,0,0,0,0,0,0,0,0,0,0],"id":48,"left_children":[1,3,5,7,9,11,-1,13,15,-1,17,19,21,23,25,27,-1,-1,-1,-1,-1,-1,29,31,-1,-1,33,-1,35,-1,-1,-1,-1,-1,-1,-1,-1],"loss_changes":[4.3715125E-1,3.8870385E-1,4.6817422E-1,5.960072E-1,8.165859E-1,4.9545038E-1,0E0,8.76065E-1,1.903547E0,0E0,2.0111278E-1,3.5721445E-1,6.4158326E-1,1.5517012E0,1.0862141E0,2.1185884E0,0E0,0E0,0E0,0E0,0E0,0E0,1.3885638E-1,1.7098056E0,0E0,0E0,1.0071597E0,0E0,9.9804646E-1,0E0,0E0,0E0,0E0,0E0,0E0,0E0,0E0],"parents":[2147483647,0,0,1,1,2,2,3,3,4,4,5,5,7,7,8,8,10,10,11,11,12,12,13,13,14,14,15,15,22,22,23,23,26,26,28,28],"right_children":[2,4,6,8,10,12,-1,14,16,-1,18,20,22,24,26,28,-1,-1,-1,-1,-1,-1,30,32,-1,-1,34,-1,36,-1,-1,-1,-1,-1,-1,-1,-1],"split_conditions":[1E0,6.740003E1,1E-45,1.045708E-5,7.884957E1,1E0,-6.1427943E-2,2.815151E-6,5.036458E1,-1.8110256E-1,1E0,1.6418215E1,3.042545E1,6.419733E1,2.2588694E1,1.348158E-5,1.7446075E-1,6.1488494E-2,-5.2625503E-2,4.6148463E-3,2.095302E-1,-1.0994407E-1,4.3060093E1,1.926763E-6,1.8815382E-1,-1.18667066E-1,3.939937E1,-3.8661045E-1,2.0365496E1,1.440833E-1,6.693882E-3,3.453205E-3,-1.9259466E-1,2.3251538E-1,3.5610933E-2,7.6855294E-2,-1.5129562E-1],"split_indices":[9,14,6,1,14,8,0,1,14,0,11,14,14,14,14,1,0,0,0,0,0,0,14,1,0,0,14,0,14,0,0,0,0,0,0,0,0],"split_type":[0,0,1,0,0,0,0,0,0,0,0,0,0,0,0,0,0,0,0,0,0,0,0,0,0,0,0,0,0,0,0,0,0,0,0,0,0],"sum_hessian":[6.0696762E1,5.2281155E1,8.415607E0,4.6137222E1,6.143933E0,6.9572453E0,1.458362E0,3.851506E1,7.622162E0,2.2953413E0,3.8485913E0,3.4188457E0,3.5383997E0,2.8050632E1,1.0464427E1,6.234699E0,1.3874632E0,2.470838E0,1.3777534E0,1.0501804E0,2.3686652E0,1.395509E0,2.1428907E0,2.5825344E1,2.2252893E0,1.1546475E0,9.309779E0,1.1710848E0,5.063614E0,1.0002674E0,1.1426233E0,2.1936865E1,3.8884788E0,3.456681E0,5.853098E0,2.9826896E0,2.0809243E0],"tree_param":{"num_deleted":"0","num_feature":"15","num_nodes":"37","size_leaf_vector":"1"}},{"base_weights":[1.6003644E-2,-9.6069075E-2,7.169231E-2,1.1722902E-1,-2.2603269E-1,2.2642492E-1,-2.318155E-3,-1.6621386E-1,1.9094864E-1,-4.398618E-1,1.7454885E-1,1.6822624E-1,-8.878608E-2,3.2595786E-1,-3.6842597E-1,-5.530084E-1,-1.0076648E-2,2.012489E-1,-2.0199649E-1,3.8327243E-2,1.925323E-1,4.1850927E-1,-1.9943435E-1,1.6142523E-1,3.8403388E-2,-1.8639868E-1,2.544674E-1,-9.70205E-2,1.7683044E-1,2.2624184E-1,-1.3643074E-1,-3.9611754E-1,3.6860004E-1,1.8183874E-1,-1.6465585E-1,5.943749E-2,-2.1151994E-1,-1.4420738E-2,-2.4157651E-1,1.7776258E-1,-6.483236E-2],"categories":[0,0],"categories_nodes":[7,12],"categories_segments":[0,1],"categories_sizes":[1,1],"default_left":[0,0,0,0,0,0,0,1,0,0,0,0,1,0,0,0,0,0,0,0,0,0,0,0,0,0,0,0,0,0,0,0,0,0,0,0,0,0,0,0,0],"id":49,"left_children":[1,3,5,7,9,-1,11,13,-1,15,17,19,21,23,-1,-1,25,-1,-1,27,-1,29,31,-1,-1,-1,33,35,-1,-1,-1,37,39,-1,-1,-1,-1,-1,-1,-1,-1],"loss_changes":[3.9089194E-1,6.045223E-1,2.1086144E0,1.3646684E0,1.2158618E0,0E0,5.841372E-1,3.7063718E0,0E0,5.3826966E0,2.7003615E0,7.9546374E-1,1.5578856E0,1.4580047E-1,0E0,0E0,1.4291936E0,0E0,0E0,9.1686475E-1,0E0,1.8161123E0,2.6308575E0,0E0,0E0,0E0,2.082934E0,1.9543114E0,0E0,0E0,0E0,2.3824885E0,9.4490784E-1,0E0,0E0,0E0,0E0,0E0,0E0,0E0,0E0],"parents":[2147483647,0,0,1,1,2,2,3,3,4,4,6,6,7,7,9,9,10,10,11,11,12,12,13,13,16,16,19,19,21,21,22,22,26,26,27,27,31,31,32,32],"right_children":[2,4,6,8,10,-1,12,14,-1,16,18,20,22,24,-1,-1,26,-1,-1,28,-1,30,32,-1,-1,-1,34,36,-1,-1,-1,38,40,-1,-1,-1,-1,-1,-1,-1,-1],"split_conditions":[1.083207E-6,3.7671246E1,1.896E3,3.0686333E1,1.383E3,2.2642492E-1,2.586483E-6,1E-45,1.9094864E-1,5.3427216E1,5.31466E1,2.406776E-6,1E-45,1E0,-3.6842597E-1,-5.530084E-1,1E0,2.012489E-1,-2.0199649E-1,6.838105E1,1.925323E-1,4.9236877E1,1E0,1.6142523E-1,3.8403388E-2,-1.8639868E-1,8.7919014E1,6.1325745E1,1.7683044E-1,2.2624184E-1,-1.3643074E-1,3.939937E1,5.4854404E1,1.8183874E-1,-1.6465585E-1,5.943749E-2,-2.1151994E-1,-1.4420738E-2,-2.4157651E-1,1.7776258E-1,-6.483236E-2],"split_indices":[1,14,0,14,0,0,1,2,0,14,14,1,5,11,0,0,11,0,0,14,0,14,10,0,0,0,14,14,0,0,0,14,14,0,0,0,0,0,0,0,0],"split_type":[0,0,0,0,0,0,0,1,0,0,0,0,1,0,0,0,0,0,0,0,0,0,0,0,0,0,0,0,0,0,0,0,0,0,0,0,0,0,0,0,0],"sum_hessian":[6.0527546E1,1.9851517E1,4.067603E1,7.553157E0,1.2298361E1,3.0772839E0,3.7598747E1,5.325905E0,2.227252E0,7.954315E0,4.3440456E0,1.2331421E1,2.5267326E1,4.1127186E0,1.2131861E0,1.0937039E0,6.860611E0,2.8718705E0,1.4721748E0,1.0525191E1,1.8062298E0,4.026136E0,2.124119E1,1.1557976E0,2.9569209E0,1.6649406E0,5.1956706E0,9.111444E0,1.4137466E0,3.0069077E0,1.0192281E0,1.6002827E1,5.238363E0,3.784456E0,1.4112147E0,6.5878596E0,2.5235853E0,9.250783E0,6.7520437E0,3.777999E0,1.4603637E0],"tree_param":{"num_deleted":"0","num_feature":"15","num_nodes":"41","size_leaf_vector":"1"}},{"base_weights":[2.0351632E-2,-1.4487351E-2,2.1535675E-1,1.9990367E-1,-4.1027494E-2,3.2354704E-1,-6.8958335E-2,-3.5264984E-2,1.4493506E-1,-2.8190613E-1,1.4374035E-2,9.223571E-2,1.948901E-1,5.317912E-1,-3.5498105E-2,1.4955467E-1,-1.000888E-1,5.0517615E-2,1.9153643E-1,-6.711708E-1,1.5813697E-2,-9.400991E-2,3.8765986E-2,-2.4239665E-1,-6.624843E-2,1.9353314E-1,-9.867098E-3],"categories":[0,1,2,3,4,5,6,9],"categories_nodes":[2],"categories_segments":[0],"categories_sizes":[8],"default_left":[0,0,1,0,0,0,0,0,0,0,0,0,0,0,0,0,0,0,0,0,0,0,0,0,0,0,0],"id":50,"left_children":[1,3,5,7,9,11,-1,-1,-1,-1,13,15,-1,17,19,-1,21,-1,-1,23,25,-1,-1,-1,-1,-1,-1],"loss_changes":[4.1569924E-1,3.0670214E-1,5.208E-1,5.916647E-1,2.3789754E0,5.33814E-1,0E0,0E0,0E0,0E0,1.1991235E0,5.007864E-1,0E0,5.077207E-2,1.401885E0,0E0,2.7276358E-1,0E0,0E0,1.9290686E-2,1.2608346E0,0E0,0E0,0E0,0E0,0E0,0E0],"parents":[2147483647,0,0,1,1,2,2,3,3,4,4,5,5,10,10,11,11,13,13,14,14,16,16,19,19,20,20],"right_children":[2,4,6,8,10,12,-1,-1,-1,-1,14,16,-1,18,20,-1,22,-1,-1,24,26,-1,-1,-1,-1,-1,-1],"split_conditions":[1E0,8.631007E0,1E-45,5.2657194E0,1.3087207E1,4.3894413E1,-6.8958335E-2,-3.5264984E-2,1.4493506E-1,-2.8190613E-1,1.9542194E1,1.6147177E1,1.948901E-1,1.017685E-6,2.8755306E1,1.4955467E-1,2.9599182E1,5.0517615E-2,1.9153643E-1,1E0,3.0989176E1,-9.400991E-2,3.8765986E-2,-2.4239665E-1,-6.624843E-2,1.9353314E-1,-9.867098E-3],"split_indices":[9,14,6,14,14,14,0,0,0,0,14,14,0,1,14,0,14,0,0,8,14,0,0,0,0,0,0],"split_type":[0,0,1,0,0,0,0,0,0,0,0,0,0,0,0,0,0,0,0,0,0,0,0,0,0,0,0],"sum_hessian":[5.9728977E1,5.1460854E1,8.268122E0,4.949193E0,4.651166E1,6.8715763E0,1.3965452E0,2.6093335E0,2.3398597E0,1.7740285E0,4.4737633E1,4.770472E0,2.1011043E0,3.0835104E0,4.165412E1,1.021188E0,3.749284E0,1.2848366E0,1.7986739E0,2.2089133E0,3.944521E1,1.7526207E0,1.9966632E0,1.0850893E0,1.123824E0,1.9538828E0,3.7491325E1],"tree_param":{"num_deleted":"0","num_feature":"15","num_nodes":"27","size_leaf_vector":"1"}},{"base_weights":[2.0691538E-2,-9.7222574E-2,7.24754E-2,3.204437E-2,-3.0367675E-1,2.2083305E-1,7.4808267E-3,-1.0171935E-1,1.7689088E-1,-2.2160721E-1,-5.2346405E-2,1.2308044E-1,-1.2351108E-1,9.043554E-2,-4.1911373E-1,-5.5162555E-1,1.3860016E-1,-1.2983401E-1,1.9264619E-1,3.9477974E-1,-2.179035E-1,-1.4023383E-1,1.6660653E-1,-3.6935E-1,1.5208925E-1,-3.3786836E-1,7.0900455E-2,5.8436822E-2,4.3283594E-1,1.7006543E-1,7.158427E-4,-4.0921432E-1,2.6686645E-1,8.947867E-2,-3.350422E-1,-3.570675E-2,1.5524122E-1,1.4430714E-3,1.516945E-1,-2.691209E-1,9.864566E-4,1.4571528E-1,-4.7366593E-2],"categories":[0,0,0],"categories_nodes":[11,12,21],"categories_segments":[0,1,2],"categories_sizes":[1,1,1],