{"learner":{"attributes":{"scikit_learn":"{\"_estimator_type\": \"classifier\"}"},"feature_names":["cdmMissDistance","cdmPc","SAT1_CDM_TYPE","SAT2_CDM_TYPE","rso1_objectType","rso2_objectType","org1_displayName","org2_displayName","condition_24H_tca_72H","condition_Radial_100m","condition_InTrack_500m","condition_CrossTrack_500m","condition_sat2posUnc_1km","condition_sat2Obs_25","hours_to_tca","log_cdmPc","inv_miss_distance","tca_bin","same_sat_type","is_debris_pair","close_all_axes","risky_uncertainty","distance_ratio","object_type_match"],"feature_types":["int","float","c","c","c","c","c","c","i","i","i","i","i","i","float","float","float","int","int","int","int","int","float","int"],"gradient_booster":{"model":{"cats":{"enc":[{"offsets":[],"values":[]},{"offsets":[],"values":[]},{"offsets":[0,5,8],"values":[69,80,72,69,77,72,65,67]},{"offsets":[0,3],"values":[72,65,67]},{"offsets":[0,7,18,25],"values":[80,65,89,76,79,65,68,82,79,67,75,69,84,32,66,79,68,89,85,78,75,78,79,87,78]},{"offsets":[0,6,17],"values":[68,69,66,82,73,83,82,79,67,75,69,84,32,66,79,68,89]},{"offsets":[0,10,23,29,39,50,56,62,68,80,85],"values":[65,115,116,114,111,115,99,97,108,101,67,97,112,101,108,108,97,32,83,112,97,99,101,71,72,71,83,97,116,71,108,111,98,97,108,115,116,97,114,72,97,119,107,69,121,101,32,51,54,48,79,110,101,87,101,98,80,108,97,110,101,116,83,112,97,99,101,88,83,112,105,114,101,32,71,108,111,98,97,108,85,109,98,114,97]},{"offsets":[0,28,32],"values":[45,32,87,104,105,116,101,108,105,115,116,45,83,104,111,119,32,112,117,98,108,105,99,32,67,68,77,115,78,79,78,69]},{"offsets":[],"values":[]},{"offsets":[],"values":[]},{"offsets":[],"values":[]},{"offsets":[],"values":[]},{"offsets":[],"values":[]},{"offsets":[],"values":[]},{"offsets":[],"values":[]},{"offsets":[],"values":[]},{"offsets":[],"values":[]},{"offsets":[],"values":[]},{"offsets":[],"values":[]},{"offsets":[],"values":[]},{"offsets":[],"values":[]},{"offsets":[],"values":[]},{"offsets":[],"values":[]},{"offsets":[],"values":[]}],"feature_segments":[0,0,0,2,3,6,8,18,20,20,20,20,20,20,20,20,20,20,20,20,20,20,20,20,20],"sorted_idx":[0,1,0,0,1,2,0,1,0,1,2,3,4,5,6,7,8,9,0,1]},"gbtree_model_param":{"num_parallel_tree":"1","num_trees":"400"},"iteration_indptr":[0,1,2,3,4,5,6,7,8,9,10,11,12,13,14,15,16,17,18,19,20,21,22,23,24,25,26,27,28,29,30,31,32,33,34,35,36,37,38,39,40,41,42,43,44,45,46,47,48,49,50,51,52,53,54,55,56,57,58,59,60,61,62,63,64,65,66,67,68,69,70,71,72,73,74,75,76,77,78,79,80,81,82,83,84,85,86,87,88,89,90,91,92,93,94,95,96,97,98,99,100,101,102,103,104,105,106,107,108,109,110,111,112,113,114,115,116,117,118,119,120,121,122,123,124,125,126,127,128,129,130,131,132,133,134,135,136,137,138,139,140,141,142,143,144,145,146,147,148,149,150,151,152,153,154,155,156,157,158,159,160,161,162,163,164,165,166,167,168,169,170,171,172,173,174,175,176,177,178,179,180,181,182,183,184,185,186,187,188,189,190,191,192,193,194,195,196,197,198,199,200,201,202,203,204,205,206,207,208,209,210,211,212,213,214,215,216,217,218,219,220,221,222,223,224,225,226,227,228,229,230,231,232,233,234,235,236,237,238,239,240,241,242,243,244,245,246,247,248,249,250,251,252,253,254,255,256,257,258,259,260,261,262,263,264,265,266,267,268,269,270,271,272,273,274,275,276,277,278,279,280,281,282,283,284,285,286,287,288,289,290,291,292,293,294,295,296,297,298,299,300,301,302,303,304,305,306,307,308,309,310,311,312,313,314,315,316,317,318,319,320,321,322,323,324,325,326,327,328,329,330,331,332,333,334,335,336,337,338,339,340,341,342,343,344,345,346,347,348,349,350,351,352,353,354,355,356,357,358,359,360,361,362,363,364,365,366,367,368,369,370,371,372,373,374,375,376,377,378,379,380,381,382,383,384,385,386,387,388,389,390,391,392,393,394,395,396,397,398,399,400],"tree_info":[0,0,0,0,0,0,0,0,0,0,0,0,0,0,0,0,0,0,0,0,0,0,0,0,0,0,0,0,0,0,0,0,0,0,0,0,0,0,0,0,0,0,0,0,0,0,0,0,0,0,0,0,0,0,0,0,0,0,0,0,0,0,0,0,0,0,0,0,0,0,0,0,0,0,0,0,0,0,0,0,0,0,0,0,0,0,0,0,0,0,0,0,0,0,0,0,0,0,0,0,0,0,0,0,0,0,0,0,0,0,0,0,0,0,0,0,0,0,0,0,0,0,0,0,0,0,0,0,0,0,0,0,0,0,0,0,0,0,0,0,0,0,0,0,0,0,0,0,0,0,0,0,0,0,0,0,0,0,0,0,0,0,0,0,0,0,0,0,0,0,0,0,0,0,0,0,0,0,0,0,0,0,0,0,0,0,0,0,0,0,0,0,0,0,0,0,0,0,0,0,0,0,0,0,0,0,0,0,0,0,0,0,0,0,0,0,0,0,0,0,0,0,0,0,0,0,0,0,0,0,0,0,0,0,0,0,0,0,0,0,0,0,0,0,0,0,0,0,0,0,0,0,0,0,0,0,0,0,0,0,0,0,0,0,0,0,0,0,0,0,0,0,0,0,0,0,0,0,0,0,0,0,0,0,0,0,0,0,0,0,0,0,0,0,0,0,0,0,0,0,0,0,0,0,0,0,0,0,0,0,0,0,0,0,0,0,0,0,0,0,0,0,0,0,0,0,0,0,0,0,0,0,0,0,0,0,0,0,0,0,0,0,0,0,0,0,0,0,0,0,0,0,0,0,0,0,0,0,0,0,0,0,0,0,0,0,0,0,0,0,0,0,0,0,0,0,0,0,0,0,0,0,0,0,0,0,0,0,0,0,0,0,0,0,0,0,0,0,0,0],"trees":[{"base_weights":[2.218802E-3,-9.999679E-2,1.9112669E0,9.996867E-2,-9.986111E-2],"categories":[],"categories_nodes":[],"categories_segments":[],"categories_sizes":[],"default_left":[0,0,0,0,0],"id":0,"left_children":[1,-1,3,-1,-1],"loss_changes":[2.436916E5,0E0,1.1243047E4,0E0,0E0],"parents":[2147483647,0,0,2,2],"right_children":[2,-1,4,-1,-1],"split_conditions":[9.782818E-7,-9.999679E-2,2.069E3,9.996867E-2,-9.986111E-2],"split_indices":[15,0,0,0,0],"split_type":[0,0,0,0,0],"sum_hessian":[6.375473E4,3.11185E4,3.263623E4,3.191723E4,7.19E2],"tree_param":{"num_deleted":"0","num_feature":"24","num_nodes":"5","size_leaf_vector":"1"}},{"base_weights":[1.5058844E-2,-9.523896E-2,1.8222476E0,9.521103E-2,-9.51147E-2],"categories":[],"categories_nodes":[],"categories_segments":[],"categories_sizes":[],"default_left":[0,0,0,0,0],"id":1,"left_children":[1,-1,3,-1,-1],"loss_changes":[2.2307325E5,0E0,1.0115328E4,0E0,0E0],"parents":[2147483647,0,0,2,2],"right_children":[2,-1,4,-1,-1],"split_conditions":[9.782823E-7,-9.523896E-2,2.069E3,9.521103E-2,-9.51147E-2],"split_indices":[1,0,0,0,0],"split_type":[0,0,0,0,0],"sum_hessian":[6.429332E4,3.1175002E4,3.3118316E4,3.2405596E4,7.127217E2],"tree_param":{"num_deleted":"0","num_feature":"24","num_nodes":"5","size_leaf_vector":"1"}},{"base_weights":[-1.5987236E-2,-9.112909E-2,1.7406598E0,-9.101473E-2,9.1107294E-2],"categories":[],"categories_nodes":[],"categories_segments":[],"categories_sizes":[],"default_left":[0,0,0,0,0],"id":2,"left_children":[1,-1,3,-1,-1],"loss_changes":[1.9906581E5,0E0,9.2315E3,0E0,0E0],"parents":[2147483647,0,0,2,2],"right_children":[2,-1,4,-1,-1],"split_conditions":[9.782823E-7,-9.112909E-2,4.8379294E-4,-9.101473E-2,9.1107294E-2],"split_indices":[1,0,16,0,0],"split_type":[0,0,0,0,0],"sum_hessian":[6.272456E4,3.0922643E4,3.1801916E4,7.1097156E2,3.1090945E4],"tree_param":{"num_deleted":"0","num_feature":"24","num_nodes":"5","size_leaf_vector":"1"}},{"base_weights":[-8.491533E-3,-8.754656E-2,1.6719993E0,8.752364E-2,-8.7440096E-2],"categories":[],"categories_nodes":[],"categories_segments":[],"categories_sizes":[],"default_left":[0,0,0,0,0],"id":3,"left_children":[1,-1,3,-1,-1],"loss_changes":[1.8190058E5,0E0,8.4919375E3,0E0,0E0],"parents":[2147483647,0,0,2,2],"right_children":[2,-1,4,-1,-1],"split_conditions":[9.782818E-7,-8.754656E-2,2.069E3,8.752364E-2,-8.7440096E-2],"split_indices":[15,0,0,0,0],"split_type":[0,0,0,0,0],"sum_hessian":[6.2119246E4,3.049748E4,3.1621766E4,3.0913105E4,7.086605E2],"tree_param":{"num_deleted":"0","num_feature":"24","num_nodes":"5","size_leaf_vector":"1"}},{"base_weights":[-9.3554305E-3,-8.43991E-2,1.6113056E0,-8.429864E-2,8.436983E-2],"categories":[],"categories_nodes":[],"categories_segments":[],"categories_sizes":[],"default_left":[0,0,0,0,0],"id":4,"left_children":[1,-1,3,-1,-1],"loss_changes":[1.6692747E5,0E0,7.8354062E3,0E0,0E0],"parents":[2147483647,0,0,2,2],"right_children":[2,-1,4,-1,-1],"split_conditions":[9.782823E-7,-8.43991E-2,4.8379294E-4,-8.429864E-2,8.436983E-2],"split_indices":[1,0,16,0,0],"split_type":[0,0,0,0,0],"sum_hessian":[6.1357465E4,3.0139715E4,3.121775E4,7.0368146E2,3.0514068E4],"tree_param":{"num_deleted":"0","num_feature":"24","num_nodes":"5","size_leaf_vector":"1"}},{"base_weights":[-7.79142E-3,-8.161479E-2,1.559074E0,-8.151656E-2,8.158728E-2],"categories":[],"categories_nodes":[],"categories_segments":[],"categories_sizes":[],"default_left":[0,0,0,0,0],"id":5,"left_children":[1,-1,3,-1,-1],"loss_changes":[1.5338575E5,0E0,7.112336E3,0E0,0E0],"parents":[2147483647,0,0,2,2],"right_children":[2,-1,4,-1,-1],"split_conditions":[9.782823E-7,-8.161479E-2,4.8379294E-4,-8.151656E-2,8.158728E-2],"split_indices":[1,0,16,0,0],"split_type":[0,0,0,0,0],"sum_hessian":[6.025845E4,2.9585043E4,3.0673406E4,6.8285394E2,2.999055E4],"tree_param":{"num_deleted":"0","num_feature":"24","num_nodes":"5","size_leaf_vector":"1"}},{"base_weights":[2.2286568E-2,-7.913686E-2,1.5144279E0,7.911211E-2,-7.904115E-2],"categories":[],"categories_nodes":[],"categories_segments":[],"categories_sizes":[],"default_left":[0,0,0,0,0],"id":6,"left_children":[1,-1,3,-1,-1],"loss_changes":[1.4419997E5,0E0,6.5519844E3,0E0,0E0],"parents":[2147483647,0,0,2,2],"right_children":[2,-1,4,-1,-1],"split_conditions":[9.782823E-7,-7.913686E-2,2.069E3,7.911211E-2,-7.904115E-2],"split_indices":[1,0,0,0,0],"split_type":[0,0,0,0,0],"sum_hessian":[6.0208703E4,2.9007107E4,3.1201594E4,3.0533129E4,6.684659E2],"tree_param":{"num_deleted":"0","num_feature":"24","num_nodes":"5","size_leaf_vector":"1"}},{"base_weights":[-3.3269823E-3,-7.691975E-2,1.4702826E0,7.689529E-2,-7.6825045E-2],"categories":[],"categories_nodes":[],"categories_segments":[],"categories_sizes":[],"default_left":[0,0,0,0,0],"id":7,"left_children":[1,-1,3,-1,-1],"loss_changes":[1.31005734E5,0E0,6.010371E3,0E0,0E0],"parents":[2147483647,0,0,2,2],"right_children":[2,-1,4,-1,-1],"split_conditions":[9.782823E-7,-7.691975E-2,2.069E3,7.689529E-2,-7.6825045E-2],"split_indices":[1,0,0,0,0],"split_type":[0,0,0,0,0],"sum_hessian":[5.791156E4,2.8364277E4,2.9547283E4,2.8897854E4,6.4943146E2],"tree_param":{"num_deleted":"0","num_feature":"24","num_nodes":"5","size_leaf_vector":"1"}},{"base_weights":[-2.3591554E-2,-7.492653E-2,1.429311E0,7.4893504E-2,-7.4834764E-2],"categories":[],"categories_nodes":[],"categories_segments":[],"categories_sizes":[],"default_left":[0,0,0,0,0],"id":8,"left_children":[1,-1,3,-1,-1],"loss_changes":[1.19795266E5,0E0,5.6515625E3,0E0,0E0],"parents":[2147483647,0,0,2,2],"right_children":[2,-1,4,-1,-1],"split_conditions":[9.782823E-7,-7.492653E-2,2.069E3,7.4893504E-2,-7.4834764E-2],"split_indices":[1,0,0,0,0],"split_type":[0,0,0,0,0],"sum_hessian":[5.5900223E4,2.7739729E4,2.8160494E4,2.751625E4,6.442441E2],"tree_param":{"num_deleted":"0","num_feature":"24","num_nodes":"5","size_leaf_vector":"1"}},{"base_weights":[-1.8832386E-2,-7.3126934E-2,1.3956991E0,7.310278E-2,-7.3035106E-2],"categories":[],"categories_nodes":[],"categories_segments":[],"categories_sizes":[],"default_left":[0,0,0,0,0],"id":9,"left_children":[1,-1,3,-1,-1],"loss_changes":[1.1146066E5,0E0,5.227449E3,0E0,0E0],"parents":[2147483647,0,0,2,2],"right_children":[2,-1,4,-1,-1],"split_conditions":[9.782823E-7,-7.3126934E-2,2.069E3,7.310278E-2,-7.3035106E-2],"split_indices":[1,0,0,0,0],"split_type":[0,0,0,0,0],"sum_hessian":[5.4577574E4,2.7010229E4,2.7567346E4,2.6941951E4,6.2539355E2],"tree_param":{"num_deleted":"0","num_feature":"24","num_nodes":"5","size_leaf_vector":"1"}},{"base_weights":[-2.03859E-3,-7.1495876E-2,1.3657084E0,7.146981E-2,-7.140405E-2],"categories":[],"categories_nodes":[],"categories_segments":[],"categories_sizes":[],"default_left":[0,0,0,0,0],"id":10,"left_children":[1,-1,3,-1,-1],"loss_changes":[1.0460006E5,0E0,4.869457E3,0E0,0E0],"parents":[2147483647,0,0,2,2],"right_children":[2,-1,4,-1,-1],"split_conditions":[9.782823E-7,-7.1495876E-2,2.069E3,7.146981E-2,-7.140405E-2],"split_indices":[1,0,0,0,0],"split_type":[0,0,0,0,0],"sum_hessian":[5.355729E4,2.6202633E4,2.7354658E4,2.674545E4,6.0920844E2],"tree_param":{"num_deleted":"0","num_feature":"24","num_nodes":"5","size_leaf_vector":"1"}},{"base_weights":[-2.4474975E-2,-7.001244E-2,1.3348649E0,6.998834E-2,-6.992073E-2],"categories":[],"categories_nodes":[],"categories_segments":[],"categories_sizes":[],"default_left":[0,0,0,0,0],"id":11,"left_children":[1,-1,3,-1,-1],"loss_changes":[9.555028E4,0E0,4.560961E3,0E0,0E0],"parents":[2147483647,0,0,2,2],"right_children":[2,-1,4,-1,-1],"split_conditions":[9.782823E-7,-7.001244E-2,2.069E3,6.998834E-2,-6.992073E-2],"split_indices":[1,0,0,0,0],"split_type":[0,0,0,0,0],"sum_hessian":[5.1090465E4,2.5391729E4,2.5698736E4,2.5103148E4,5.955876E2],"tree_param":{"num_deleted":"0","num_feature":"24","num_nodes":"5","size_leaf_vector":"1"}},{"base_weights":[-6.6402745E-3,-6.865903E-2,1.3115196E0,-6.8564616E-2,6.8631E-2],"categories":[],"categories_nodes":[],"categories_segments":[],"categories_sizes":[],"default_left":[0,0,0,0,0],"id":12,"left_children":[1,-1,3,-1,-1],"loss_changes":[9.065678E4,0E0,4.201117E3,0E0,0E0],"parents":[2147483647,0,0,2,2],"right_children":[2,-1,4,-1,-1],"split_conditions":[9.782823E-7,-6.865903E-2,4.8379294E-4,-6.8564616E-2,6.8631E-2],"split_indices":[1,0,16,0,0],"split_type":[0,0,0,0,0],"sum_hessian":[5.032601E4,2.4709527E4,2.5616482E4,5.6994006E2,2.5046543E4],"tree_param":{"num_deleted":"0","num_feature":"24","num_nodes":"5","size_leaf_vector":"1"}},{"base_weights":[7.5449077E-3,-6.7420684E-2,1.2894232E0,6.739231E-2,-6.732359E-2],"categories":[],"categories_nodes":[],"categories_segments":[],"categories_sizes":[],"default_left":[0,0,0,0,0],"id":13,"left_children":[1,-1,3,-1,-1],"loss_changes":[8.5332766E4,0E0,3.888086E3,0E0,0E0],"parents":[2147483647,0,0,2,2],"right_children":[2,-1,4,-1,-1],"split_conditions":[9.782818E-7,-6.7420684E-2,2.069E3,6.739231E-2,-6.732359E-2],"split_indices":[15,0,0,0,0],"split_type":[0,0,0,0,0],"sum_hessian":[4.909135E4,2.3856318E4,2.5235033E4,2.468832E4,5.467129E2],"tree_param":{"num_deleted":"0","num_feature":"24","num_nodes":"5","size_leaf_vector":"1"}},{"base_weights":[-1.5386218E-3,-6.628466E-2,1.2665253E0,6.625691E-2,-6.618695E-2],"categories":[],"categories_nodes":[],"categories_segments":[],"categories_sizes":[],"default_left":[0,0,0,0,0],"id":14,"left_children":[1,-1,3,-1,-1],"loss_changes":[7.945255E4,0E0,3.6714688E3,0E0,0E0],"parents":[2147483647,0,0,2,2],"right_children":[2,-1,4,-1,-1],"split_conditions":[9.782823E-7,-6.628466E-2,2.069E3,6.625691E-2,-6.618695E-2],"split_indices":[1,0,0,0,0],"split_type":[0,0,0,0,0],"sum_hessian":[4.7316176E4,2.314615E4,2.4170025E4,2.3635684E4,5.34343E2],"tree_param":{"num_deleted":"0","num_feature":"24","num_nodes":"5","size_leaf_vector":"1"}},{"base_weights":[1.3599741E-2,-6.5239996E-2,1.2484695E0,6.520977E-2,-6.513825E-2],"categories":[],"categories_nodes":[],"categories_segments":[],"categories_sizes":[],"default_left":[0,0,0,0,0],"id":15,"left_children":[1,-1,3,-1,-1],"loss_changes":[7.5165445E4,0E0,3.3909766E3,0E0,0E0],"parents":[2147483647,0,0,2,2],"right_children":[2,-1,4,-1,-1],"split_conditions":[9.782823E-7,-6.5239996E-2,2.069E3,6.520977E-2,-6.513825E-2],"split_indices":[1,0,0,0,0],"split_type":[0,0,0,0,0],"sum_hessian":[4.6166953E4,2.2328275E4,2.3838676E4,2.3329584E4,5.090912E2],"tree_param":{"num_deleted":"0","num_feature":"24","num_nodes":"5","size_leaf_vector":"1"}},{"base_weights":[-8.602789E-4,-6.4277224E-2,1.2277089E0,6.425161E-2,-6.417563E-2],"categories":[],"categories_nodes":[],"categories_segments":[],"categories_sizes":[],"default_left":[0,0,0,0,0],"id":16,"left_children":[1,-1,3,-1,-1],"loss_changes":[6.9512875E4,0E0,3.2423906E3,0E0,0E0],"parents":[2147483647,0,0,2,2],"right_children":[2,-1,4,-1,-1],"split_conditions":[9.782818E-7,-6.4277224E-2,2.069E3,6.425161E-2,-6.417563E-2],"split_indices":[15,0,0,0,0],"split_type":[0,0,0,0,0],"sum_hessian":[4.4040215E4,2.152843E4,2.2511787E4,2.2009861E4,5.0192664E2],"tree_param":{"num_deleted":"0","num_feature":"24","num_nodes":"5","size_leaf_vector":"1"}},{"base_weights":[-8.10776E-3,-6.338815E-2,1.2105083E0,6.3356124E-2,-6.3282326E-2],"categories":[],"categories_nodes":[],"categories_segments":[],"categories_sizes":[],"default_left":[0,0,0,0,0],"id":17,"left_children":[1,-1,3,-1,-1],"loss_changes":[6.4809652E4,0E0,3.0099375E3,0E0,0E0],"parents":[2147483647,0,0,2,2],"right_children":[2,-1,4,-1,-1],"split_conditions":[9.782823E-7,-6.338815E-2,2.069E3,6.3356124E-2,-6.3282326E-2],"split_indices":[1,0,0,0,0],"split_type":[0,0,0,0,0],"sum_hessian":[4.2218277E4,2.075956E4,2.1458715E4,2.0979533E4,4.791823E2],"tree_param":{"num_deleted":"0","num_feature":"24","num_nodes":"5","size_leaf_vector":"1"}},{"base_weights":[4.6705045E-3,-6.256557E-2,1.1956166E0,-6.2457126E-2,6.2528215E-2],"categories":[],"categories_nodes":[],"categories_segments":[],"categories_sizes":[],"default_left":[0,0,0,0,0],"id":18,"left_children":[1,-1,3,-1,-1],"loss_changes":[6.1551797E4,0E0,2.8389102E3,0E0,0E0],"parents":[2147483647,0,0,2,2],"right_children":[2,-1,4,-1,-1],"split_conditions":[9.782823E-7,-6.256557E-2,4.8379294E-4,-6.2457126E-2,6.2528215E-2],"split_indices":[1,0,16,0,0],"split_type":[0,0,0,0,0],"sum_hessian":[4.1147562E4,2.0026936E4,2.1120629E4,4.6378754E2,2.065684E4],"tree_param":{"num_deleted":"0","num_feature":"24","num_nodes":"5","size_leaf_vector":"1"}},{"base_weights":[1.15403375E-2,-6.180322E-2,1.1817936E0,6.176721E-2,-6.1690714E-2],"categories":[],"categories_nodes":[],"categories_segments":[],"categories_sizes":[],"default_left":[0,0,0,0,0],"id":19,"left_children":[1,-1,3,-1,-1],"loss_changes":[5.8098316E4,0E0,2.6576191E3,0E0,0E0],"parents":[2147483647,0,0,2,2],"right_children":[2,-1,4,-1,-1],"split_conditions":[9.782823E-7,-6.180322E-2,2.069E3,6.176721E-2,-6.1690714E-2],"split_indices":[1,0,0,0,0],"split_type":[0,0,0,0,0],"sum_hessian":[3.9790996E4,1.925898E4,2.0532018E4,2.0087201E4,4.4481613E2],"tree_param":{"num_deleted":"0","num_feature":"24","num_nodes":"5","size_leaf_vector":"1"}},{"base_weights":[1.2032829E-3,-6.1095547E-2,1.1677365E0,6.10493E-2,-6.0977902E-2],"categories":[],"categories_nodes":[],"categories_segments":[],"categories_sizes":[],"default_left":[0,0,0,0,0],"id":20,"left_children":[1,-1,3,-1,-1],"loss_changes":[5.4244566E4,0E0,2.4751855E3,0E0,0E0],"parents":[2147483647,0,0,2,2],"right_children":[2,-1,4,-1,-1],"split_conditions":[9.782823E-7,-6.1095547E-2,2.069E3,6.10493E-2,-6.0977902E-2],"split_indices":[1,0,0,0,0],"split_type":[0,0,0,0,0],"sum_hessian":[3.8016246E4,1.8558035E4,1.945821E4,1.9034137E4,4.2407486E2],"tree_param":{"num_deleted":"0","num_feature":"24","num_nodes":"5","size_leaf_vector":"1"}},{"base_weights":[-2.0945135E-3,-6.0437657E-2,1.1544615E0,6.0394555E-2,-6.031702E-2],"categories":[],"categories_nodes":[],"categories_segments":[],"categories_sizes":[],"default_left":[0,0,0,0,0],"id":21,"left_children":[1,-1,3,-1,-1],"loss_changes":[5.0821332E4,0E0,2.3468652E3,0E0,0E0],"parents":[2147483647,0,0,2,2],"right_children":[2,-1,4,-1,-1],"split_conditions":[9.782823E-7,-6.0437657E-2,2.069E3,6.0394555E-2,-6.031702E-2],"split_indices":[1,0,0,0,0],"split_type":[0,0,0,0,0],"sum_hessian":[3.641423E4,1.7821082E4,1.8593146E4,1.8182137E4,4.1100998E2],"tree_param":{"num_deleted":"0","num_feature":"24","num_nodes":"5","size_leaf_vector":"1"}},{"base_weights":[2.2052001E-4,-5.982521E-2,1.1430734E0,5.9777506E-2,-5.9699483E-2],"categories":[],"categories_nodes":[],"categories_segments":[],"categories_sizes":[],"default_left":[0,0,0,0,0],"id":22,"left_children":[1,-1,3,-1,-1],"loss_changes":[4.794122E4,0E0,2.2003906E3,0E0,0E0],"parents":[2147483647,0,0,2,2],"right_children":[2,-1,4,-1,-1],"split_conditions":[9.782818E-7,-5.982521E-2,2.069E3,5.9777506E-2,-5.9699483E-2],"split_indices":[15,0,0,0,0],"split_type":[0,0,0,0,0],"sum_hessian":[3.505094E4,1.71219E4,1.7929041E4,1.753578E4,3.9326212E2],"tree_param":{"num_deleted":"0","num_feature":"24","num_nodes":"5","size_leaf_vector":"1"}},{"base_weights":[-7.638715E-3,-5.9254345E-2,1.1312509E0,5.9197675E-2,-5.912404E-2],"categories":[],"categories_nodes":[],"categories_segments":[],"categories_sizes":[],"default_left":[0,0,0,0,0],"id":23,"left_children":[1,-1,3,-1,-1],"loss_changes":[4.4854465E4,0E0,2.0747266E3,0E0,0E0],"parents":[2147483647,0,0,2,2],"right_children":[2,-1,4,-1,-1],"split_conditions":[9.782823E-7,-5.9254345E-2,2.069E3,5.9197675E-2,-5.912404E-2],"split_indices":[1,0,0,0,0],"split_type":[0,0,0,0,0],"sum_hessian":[3.3446934E4,1.6445062E4,1.7001873E4,1.6623703E4,3.781699E2],"tree_param":{"num_deleted":"0","num_feature":"24","num_nodes":"5","size_leaf_vector":"1"}},{"base_weights":[1.4745522E-2,-5.8722086E-2,1.1082653E0,1.139973E0,1.0226351E0,5.7790346E-2,1.1207424E0,1.0673511E0,1.3347682E-1,5.609114E-2,-4.2665046E-2,5.355179E-2,-5.157299E-2,3.892584E-2,-5.7935692E-2],"categories":[0],"categories_nodes":[3],"categories_segments":[0],"categories_sizes":[1],"default_left":[0,0,0,1,0,0,0,0,0,0,0,0,0,0,0],"id":24,"left_children":[1,-1,3,5,7,-1,9,11,13,-1,-1,-1,-1,-1,-1],"loss_changes":[4.2546957E4,0E0,4.511328E1,2.4902344E0,1.8337451E2,0E0,1.3E1,3.508838E1,1.860685E2,0E0,0E0,0E0,0E0,0E0,0E0],"parents":[2147483647,0,0,2,2,3,3,4,4,6,6,7,7,8,8],"right_children":[2,-1,4,6,8,-1,10,12,14,-1,-1,-1,-1,-1,-1],"split_conditions":[4.8379294E-4,-5.8722086E-2,1.196E3,1E-45,1E0,5.7790346E-2,3.976277E2,5.860055E2,1E0,5.609114E-2,-4.2665046E-2,5.355179E-2,-5.157299E-2,3.892584E-2,-5.7935692E-2],"split_indices":[16,0,0,2,11,0,22,22,10,0,0,0,0,0,0],"split_type":[0,0,0,1,0,0,0,0,0,0,0,0,0,0,0],"sum_hessian":[3.271637E4,1.5672583E4,1.7043787E4,1.2429123E4,4.614664E3,6.784155E3,5.6449683E3,4.3935127E3,2.2115134E2,5.6423115E3,2.6565595E0,4.386302E3,7.210661E0,1.477797E2,7.337164E1],"tree_param":{"num_deleted":"0","num_feature":"24","num_nodes":"15","size_leaf_vector":"1"}},{"base_weights":[-1.326814E-4,-5.8249947E-2,1.1129345E0,5.8197625E-2,-5.8081932E-2],"categories":[],"categories_nodes":[],"categories_segments":[],"categories_sizes":[],"default_left":[0,0,0,0,0],"id":25,"left_children":[1,-1,3,-1,-1],"loss_changes":[4.030906E4,0E0,1.8462129E3,0E0,0E0],"parents":[2147483647,0,0,2,2],"right_children":[2,-1,4,-1,-1],"split_conditions":[9.782823E-7,-5.8249947E-2,2.069E3,5.8197625E-2,-5.8081932E-2],"split_indices":[1,0,0,0,0],"split_type":[0,0,0,0,0],"sum_hessian":[3.1086893E4,1.5189973E4,1.5896919E4,1.5548655E4,3.4826352E2],"tree_param":{"num_deleted":"0","num_feature":"24","num_nodes":"5","size_leaf_vector":"1"}},{"base_weights":[1.3205208E-3,-5.7782914E-2,1.1039567E0,-5.7611216E-2,5.7735454E-2],"categories":[],"categories_nodes":[],"categories_segments":[],"categories_sizes":[],"default_left":[0,0,0,0,0],"id":26,"left_children":[1,-1,3,-1,-1],"loss_changes":[3.7980066E4,0E0,1.7468301E3,0E0,0E0],"parents":[2147483647,0,0,2,2],"right_children":[2,-1,4,-1,-1],"split_conditions":[9.782823E-7,-5.7782914E-2,4.8379294E-4,-5.7611216E-2,5.7735454E-2],"split_indices":[1,0,16,0,0],"split_type":[0,0,0,0,0],"sum_hessian":[2.9769322E4,1.4526669E4,1.5242652E4,3.348597E2,1.4907793E4],"tree_param":{"num_deleted":"0","num_feature":"24","num_nodes":"5","size_leaf_vector":"1"}},{"base_weights":[-9.648711E-4,-5.7345178E-2,1.0948399E0,1.1455683E0,-5.7170253E-2,1.0789866E0,5.7344537E-2,4.5432065E-2,5.5008512E-2],"categories":[],"categories_nodes":[],"categories_segments":[],"categories_sizes":[],"default_left":[0,0,0,0,0,0,0,0,0],"id":27,"left_children":[1,-1,3,5,-1,7,-1,-1,-1],"loss_changes":[3.5802164E4,0E0,1.656123E3,1.7578125E-2,0E0,6.2805176E-2,0E0,0E0,0E0],"parents":[2147483647,0,0,2,2,3,3,5,5],"right_children":[2,-1,4,6,-1,8,-1,-1,-1],"split_conditions":[9.782823E-7,-5.7345178E-2,2.069E3,5.211047E-4,-5.7170253E-2,2.8699734E1,5.7344537E-2,4.5432065E-2,5.5008512E-2],"split_indices":[1,0,0,16,0,14,0,0,0],"split_type":[0,0,0,0,0,0,0,0,0],"sum_hessian":[2.850915E4,1.3935767E4,1.4573385E4,1.4250886E4,3.2249908E2,2.9344547E2,1.395744E4,3.7310505E1,2.5613498E2],"tree_param":{"num_deleted":"0","num_feature":"24","num_nodes":"9","size_leaf_vector":"1"}},{"base_weights":[-1.8249683E-2,-5.6935627E-2,1.0866208E0,-5.6751665E-2,5.68747E-2],"categories":[],"categories_nodes":[],"categories_segments":[],"categories_sizes":[],"default_left":[0,0,0,0,0],"id":28,"left_children":[1,-1,3,-1,-1],"loss_changes":[3.328343E4,0E0,1.5312744E3,0E0,0E0],"parents":[2147483647,0,0,2,2],"right_children":[2,-1,4,-1,-1],"split_conditions":[9.782823E-7,-5.6935627E-2,4.8379294E-4,-5.6751665E-2,5.68747E-2],"split_indices":[1,0,16,0,0],"split_type":[0,0,0,0,0],"sum_hessian":[2.6883568E4,1.3347586E4,1.3535981E4,3.0254135E2,1.323344E4],"tree_param":{"num_deleted":"0","num_feature":"24","num_nodes":"5","size_leaf_vector":"1"}},{"base_weights":[3.0930864E-3,-5.6551445E-2,1.0800568E0,-5.6365103E-2,5.6478895E-2],"categories":[],"categories_nodes":[],"categories_segments":[],"categories_sizes":[],"default_left":[0,0,0,0,0],"id":29,"left_children":[1,-1,3,-1,-1],"loss_changes":[3.2030996E4,0E0,1.4716455E3,0E0,0E0],"parents":[2147483647,0,0,2,2],"right_children":[2,-1,4,-1,-1],"split_conditions":[9.782823E-7,-5.6551445E-2,4.8379294E-4,-5.6365103E-2,5.6478895E-2],"split_indices":[1,0,16,0,0],"split_type":[0,0,0,0,0],"sum_hessian":[2.6222643E4,1.2772358E4,1.3450283E4,2.9465225E2,1.3155631E4],"tree_param":{"num_deleted":"0","num_feature":"24","num_nodes":"5","size_leaf_vector":"1"}},{"base_weights":[-5.004381E-3,-5.619088E-2,1.0720674E0,5.6130346E-2,-5.6001127E-2],"categories":[],"categories_nodes":[],"categories_segments":[],"categories_sizes":[],"default_left":[0,0,0,0,0],"id":30,"left_children":[1,-1,3,-1,-1],"loss_changes":[3.0047473E4,0E0,1.4087422E3,0E0,0E0],"parents":[2147483647,0,0,2,2],"right_children":[2,-1,4,-1,-1],"split_conditions":[9.782823E-7,-5.619088E-2,2.069E3,5.6130346E-2,-5.6001127E-2],"split_indices":[1,0,0,0,0],"split_type":[0,0,0,0,0],"sum_hessian":[2.4932791E4,1.2229401E4,1.270339E4,1.2417585E4,2.858048E2],"tree_param":{"num_deleted":"0","num_feature":"24","num_nodes":"5","size_leaf_vector":"1"}},{"base_weights":[3.680125E-3,-5.5852264E-2,1.0670708E0,5.5789977E-2,-5.5652827E-2],"categories":[],"categories_nodes":[],"categories_segments":[],"categories_sizes":[],"default_left":[0,0,0,0,0],"id":31,"left_children":[1,-1,3,-1,-1],"loss_changes":[2.8650934E4,0E0,1.3117412E3,0E0,0E0],"parents":[2147483647,0,0,2,2],"right_children":[2,-1,4,-1,-1],"split_conditions":[9.782823E-7,-5.5852264E-2,2.069E3,5.5789977E-2,-5.5652827E-2],"split_indices":[1,0,0,0,0],"split_type":[0,0,0,0,0],"sum_hessian":[2.4038676E4,1.1703797E4,1.233488E4,1.2065685E4,2.6919562E2],"tree_param":{"num_deleted":"0","num_feature":"24","num_nodes":"5","size_leaf_vector":"1"}},{"base_weights":[1.75322E-3,-5.553397E-2,1.0599848E0,5.546428E-2,-5.532998E-2],"categories":[],"categories_nodes":[],"categories_segments":[],"categories_sizes":[],"default_left":[0,0,0,0,0],"id":32,"left_children":[1,-1,3,-1,-1],"loss_changes":[2.6947203E4,0E0,1.2542822E3,0E0,0E0],"parents":[2147483647,0,0,2,2],"right_children":[2,-1,4,-1,-1],"split_conditions":[9.782823E-7,-5.553397E-2,2.069E3,5.546428E-2,-5.532998E-2],"split_indices":[1,0,0,0,0],"split_type":[0,0,0,0,0],"sum_hessian":[2.2888709E4,1.1158566E4,1.1730142E4,1.1469637E4,2.6050427E2],"tree_param":{"num_deleted":"0","num_feature":"24","num_nodes":"5","size_leaf_vector":"1"}},{"base_weights":[-7.43972E-3,-5.523476E-2,1.053474E0,1.1028252E0,-5.502183E-2,1.0181429E0,5.523261E-2,4.6543624E-2,5.4447908E-2],"categories":[],"categories_nodes":[],"categories_segments":[],"categories_sizes":[],"default_left":[0,0,0,0,0,0,0,0,0],"id":33,"left_children":[1,-1,3,5,-1,7,-1,-1,-1],"loss_changes":[2.536106E4,0E0,1.178623E3,5.498047E-1,0E0,4.7854614E-1,0E0,0E0,0E0],"parents":[2147483647,0,0,2,2,3,3,5,5],"right_children":[2,-1,4,6,-1,8,-1,-1,-1],"split_conditions":[9.782823E-7,-5.523476E-2,2.069E3,5.211047E-4,-5.502183E-2,1E0,5.523261E-2,4.6543624E-2,5.4447908E-2],"split_indices":[1,0,0,16,0,21,0,0,0],"split_type":[0,0,0,0,0,0,0,0,0],"sum_hessian":[2.1784105E4,1.0708619E4,1.1075486E4,1.0827882E4,2.4760487E2,2.4045714E2,1.0587425E4,1.1405013E2,1.26407E2],"tree_param":{"num_deleted":"0","num_feature":"24","num_nodes":"9","size_leaf_vector":"1"}},{"base_weights":[-2.1111697E-3,-5.49527E-2,1.0486857E0,5.4876357E-2,-5.4732915E-2],"categories":[],"categories_nodes":[],"categories_segments":[],"categories_sizes":[],"default_left":[0,0,0,0,0],"id":34,"left_children":[1,-1,3,-1,-1],"loss_changes":[2.4115365E4,0E0,1.1197998E3,0E0,0E0],"parents":[2147483647,0,0,2,2],"right_children":[2,-1,4,-1,-1],"split_conditions":[9.782823E-7,-5.49527E-2,2.069E3,5.4876357E-2,-5.4732915E-2],"split_indices":[1,0,0,0,0],"split_type":[0,0,0,0,0],"sum_hessian":[2.0919416E4,1.0234949E4,1.0684467E4,1.04468955E4,2.3757088E2],"tree_param":{"num_deleted":"0","num_feature":"24","num_nodes":"5","size_leaf_vector":"1"}},{"base_weights":[-1.2945474E-2,-5.468753E-2,1.0429934E0,5.459513E-2,-5.4455705E-2],"categories":[],"categories_nodes":[],"categories_segments":[],"categories_sizes":[],"default_left":[0,0,0,0,0],"id":35,"left_children":[1,-1,3,-1,-1],"loss_changes":[2.2575482E4,0E0,1.0445752E3,0E0,0E0],"parents":[2147483647,0,0,2,2],"right_children":[2,-1,4,-1,-1],"split_conditions":[9.782823E-7,-5.468753E-2,2.069E3,5.459513E-2,-5.4455705E-2],"split_indices":[1,0,0,0,0],"split_type":[0,0,0,0,0],"sum_hessian":[1.9779117E4,9.774451E3,1.0004665E4,9.780788E3,2.238771E2],"tree_param":{"num_deleted":"0","num_feature":"24","num_nodes":"5","size_leaf_vector":"1"}},{"base_weights":[-2.6922615E-3,-5.4437723E-2,1.0388881E0,1.0697284E0,4.1273278E-1,1.0808556E0,9.4731534E-1,1.0382786E0,-5.435575E-2,5.4317724E-2,5.2593865E-2,5.411114E-2,-5.504073E-2,5.2531697E-2,-3.5518344E-2],"categories":[],"categories_nodes":[],"categories_segments":[],"categories_sizes":[],"default_left":[0,0,0,0,0,0,0,0,0,0,0,0,0,0,0],"id":36,"left_children":[1,-1,3,5,7,9,11,13,-1,-1,-1,-1,-1,-1,-1],"loss_changes":[2.162507E4,0E0,1.8799414E2,1.1643555E1,4.3241806E2,2.1484375E-1,2.1753357E2,7.7658386E0,0E0,0E0,0E0,0E0,0E0,0E0,0E0],"parents":[2147483647,0,0,2,2,3,3,4,4,5,5,6,6,7,7],"right_children":[2,-1,4,6,8,10,12,14,-1,-1,-1,-1,-1,-1,-1],"split_conditions":[9.782823E-7,-5.4437723E-2,1.807417E2,8.429344E1,6.5978146E0,4.3129635E1,2.0779055E1,3.9381558E3,-5.435575E-2,5.4317724E-2,5.2593865E-2,5.411114E-2,-5.504073E-2,5.2531697E-2,-3.5518344E-2],"split_indices":[1,0,22,22,14,22,14,22,0,0,0,0,0,0,0],"split_type":[0,0,0,0,0,0,0,0,0,0,0,0,0,0,0],"sum_hessian":[1.9114574E4,9.357454E3,9.757119E3,9.298433E3,4.586872E2,8.516458E3,7.819748E2,3.2390353E2,1.3478365E2,7.127495E3,1.3889624E3,7.340927E2,4.7882046E1,3.220274E2,1.8761445E0],"tree_param":{"num_deleted":"0","num_feature":"24","num_nodes":"15","size_leaf_vector":"1"}},{"base_weights":[6.163385E-3,-5.4201823E-2,1.035062E0,5.4132935E-2,-5.4029595E-2],"categories":[],"categories_nodes":[],"categories_segments":[],"categories_sizes":[],"default_left":[0,0,0,0,0],"id":37,"left_children":[1,-1,3,-1,-1],"loss_changes":[2.0639703E4,0E0,9.544082E2,0E0,0E0],"parents":[2147483647,0,0,2,2],"right_children":[2,-1,4,-1,-1],"split_conditions":[9.782823E-7,-5.4201823E-2,2.069E3,5.4132935E-2,-5.4029595E-2],"split_indices":[1,0,0,0,0],"split_type":[0,0,0,0,0],"sum_hessian":[1.8398293E4,8.933008E3,9.465286E3,9.257505E3,2.077816E2],"tree_param":{"num_deleted":"0","num_feature":"24","num_nodes":"5","size_leaf_vector":"1"}},{"base_weights":[-2.8775528E-3,-5.3968865E-2,1.0106163E0,1.0443915E0,9.153926E-1,1.023534E0,5.3707886E-2,9.6091485E-1,-2.5616145E-1,3.5529315E-2,5.13285E-2,-4.2469297E-2,4.821078E-2,2.3244066E-2,-5.380844E-2],"categories":[],"categories_nodes":[],"categories_segments":[],"categories_sizes":[],"default_left":[0,0,0,0,0,0,0,0,0,0,0,0,0,0,0],"id":38,"left_children":[1,-1,3,5,7,9,-1,11,13,-1,-1,-1,-1,-1,-1],"loss_changes":[1.903466E4,0E0,2.7945312E1,3.0141602E0,1.2615857E2,2.9926758E0,0E0,1.44001465E1,5.317875E1,0E0,0E0,0E0,0E0,0E0,0E0],"parents":[2147483647,0,0,2,2,3,3,4,4,5,5,7,7,8,8],"right_children":[2,-1,4,6,8,10,-1,12,14,-1,-1,-1,-1,-1,-1],"split_conditions":[4.8379294E-4,-5.3968865E-2,1.196E3,1E0,1E0,1E0,5.3707886E-2,1.8186314E0,1.409E3,3.5529315E-2,5.13285E-2,-4.2469297E-2,4.821078E-2,2.3244066E-2,-5.380844E-2],"split_indices":[16,0,0,9,11,12,0,14,0,0,0,0,0,0,0],"split_type":[0,0,0,0,0,0,0,0,0,0,0,0,0,0,0],"sum_hessian":[1.7444568E4,8.459307E3,8.985262E3,6.625333E3,2.3599287E3,3.916435E3,2.708898E3,2.2718335E3,8.80952E1,3.9885517E1,3.8765496E3,3.6682115E0,2.2681653E3,4.710673E1,4.0988464E1],"tree_param":{"num_deleted":"0","num_feature":"24","num_nodes":"15","size_leaf_vector":"1"}},{"base_weights":[-3.7753046E-3,-5.378392E-2,1.0252504E0,-5.3568818E-2,1.073232E0,9.892595E-1,5.377985E-2,5.0119855E-2,3.307586E-2],"categories":[],"categories_nodes":[],"categories_segments":[],"categories_sizes":[],"default_left":[0,0,0,0,0,0,0,0,0],"id":39,"left_children":[1,-1,3,-1,5,7,-1,-1,-1],"loss_changes":[1.836876E4,0E0,8.558994E2,0E0,5.839844E-1,3.7031555E-1,0E0,0E0,0E0],"parents":[2147483647,0,0,2,2,4,4,5,5],"right_children":[2,-1,4,-1,6,8,-1,-1,-1],"split_conditions":[9.782823E-7,-5.378392E-2,4.8379294E-4,-5.3568818E-2,5.211047E-4,1.4250446E2,5.377985E-2,5.0119855E-2,3.307586E-2],"split_indices":[1,0,16,0,16,22,0,0,0],"split_type":[0,0,0,0,0,0,0,0,0],"sum_hessian":[1.6651219E4,8.155672E3,8.495547E3,1.8959488E2,8.305951E3,2.390083E2,8.0669434E3,2.2781767E2,1.1190631E1],"tree_param":{"num_deleted":"0","num_feature":"24","num_nodes":"9","size_leaf_vector":"1"}},{"base_weights":[1.618858E-3,-5.358518E-2,1.0215636E0,1.0694155E0,-5.336085E-2,5.358057E-2,4.968509E-2],"categories":[],"categories_nodes":[],"categories_segments":[],"categories_sizes":[],"default_left":[0,0,0,0,0,0,0],"id":40,"left_children":[1,-1,3,5,-1,-1,-1],"loss_changes":[1.751862E4,0E0,8.212832E2,2.6757812E-1,0E0,0E0,0E0],"parents":[2147483647,0,0,2,2,3,3],"right_children":[2,-1,4,6,-1,-1,-1],"split_conditions":[9.782823E-7,-5.358518E-2,2.069E3,1.917E3,-5.336085E-2,5.358057E-2,4.968509E-2],"split_indices":[1,0,0,0,0,0,0],"split_type":[0,0,0,0,0,0,0],"sum_hessian":[1.600069E4,7.7963145E3,8.204376E3,8.021109E3,1.8326709E2,7.7822373E3,2.3887166E2],"tree_param":{"num_deleted":"0","num_feature":"24","num_nodes":"7","size_leaf_vector":"1"}},{"base_weights":[-7.714052E-3,-5.3397655E-2,1.0175084E0,1.0657752E0,-5.3156193E-2,9.795852E-1,5.339938E-2,3.1390037E-2,4.9779173E-2],"categories":[],"categories_nodes":[],"categories_segments":[],"categories_sizes":[],"default_left":[0,0,0,0,0,0,0,0,0],"id":41,"left_children":[1,-1,3,5,-1,7,-1,-1,-1],"loss_changes":[1.6454729E4,0E0,7.7401904E2,3.876953E-1,0E0,5.0242615E-1,0E0,0E0,0E0],"parents":[2147483647,0,0,2,2,3,3,5,5],"right_children":[2,-1,4,6,-1,8,-1,-1,-1],"split_conditions":[9.782823E-7,-5.3397655E-2,2.069E3,5.211047E-4,-5.3156193E-2,1.3064182E1,5.339938E-2,3.1390037E-2,4.9779173E-2],"split_indices":[1,0,0,16,0,14,0,0,0],"split_type":[0,0,0,0,0,0,0,0,0],"sum_hessian":[1.5136012E4,7.440912E3,7.6950996E3,7.5211113E3,1.7398819E2,1.9933261E2,7.321779E3,1.0421316E1,1.889113E2],"tree_param":{"num_deleted":"0","num_feature":"24","num_nodes":"9","size_leaf_vector":"1"}},{"base_weights":[-1.7785551E-2,-5.322034E-2,1.0125027E0,1.0619434E0,-5.2965887E-2,5.3214516E-2,4.9030714E-2],"categories":[],"categories_nodes":[],"categories_segments":[],"categories_sizes":[],"default_left":[0,0,0,0,0,0,0],"id":42,"left_children":[1,-1,3,5,-1,-1,-1],"loss_changes":[1.5464739E4,0E0,7.414175E2,3.0419922E-1,0E0,0E0,0E0],"parents":[2147483647,0,0,2,2,3,3],"right_children":[2,-1,4,6,-1,-1,-1],"split_conditions":[9.782818E-7,-5.322034E-2,2.069E3,1.917E3,-5.2965887E-2,5.3214516E-2,4.9030714E-2],"split_indices":[15,0,0,0,0,0,0],"split_type":[0,0,0,0,0,0,0],"sum_hessian":[1.4339492E4,7.113346E3,7.226146E3,7.0582007E3,1.6794522E2,6.848486E3,2.0971503E2],"tree_param":{"num_deleted":"0","num_feature":"24","num_nodes":"7","size_leaf_vector":"1"}},{"base_weights":[-5.117297E-3,-5.3052615E-2,1.0103179E0,5.2941382E-2,-5.2784957E-2],"categories":[],"categories_nodes":[],"categories_segments":[],"categories_sizes":[],"default_left":[0,0,0,0,0],"id":43,"left_children":[1,-1,3,-1,-1],"loss_changes":[1.4824931E4,0E0,7.075088E2,0E0,0E0],"parents":[2147483647,0,0,2,2],"right_children":[2,-1,4,-1,-1],"split_conditions":[9.782823E-7,-5.3052615E-2,2.069E3,5.2941382E-2,-5.2784957E-2],"split_indices":[1,0,0,0,0],"split_type":[0,0,0,0,0],"sum_hessian":[1.3824214E4,6.776938E3,7.047276E3,6.8860796E3,1.6119629E2],"tree_param":{"num_deleted":"0","num_feature":"24","num_nodes":"5","size_leaf_vector":"1"}},{"base_weights":[-6.99417E-3,-5.289445E-2,1.0072773E0,1.0550752E0,-5.260367E-2,5.2896053E-2,9.459264E-1,4.8171706E-2,2.850756E-2],"categories":[],"categories_nodes":[],"categories_segments":[],"categories_sizes":[],"default_left":[0,0,0,0,0,0,0,0,0],"id":44,"left_children":[1,-1,3,5,-1,-1,7,-1,-1],"loss_changes":[1.40276045E4,0E0,6.603042E2,1.0327148E0,0E0,0E0,6.0713196E-1,0E0,0E0],"parents":[2147483647,0,0,2,2,3,3,6,6],"right_children":[2,-1,4,6,-1,-1,8,-1,-1],"split_conditions":[9.782823E-7,-5.289445E-2,2.069E3,1.917E3,-5.260367E-2,5.2896053E-2,1.4250446E2,4.8171706E-2,2.850756E-2],"split_indices":[1,0,0,0,0,0,22,0,0],"split_type":[0,0,0,0,0,0,0,0,0],"sum_hessian":[1.3158429E4,6.462518E3,6.6959106E3,6.5444995E3,1.5141136E2,6.36972E3,1.747794E2,1.6550456E2,9.274841E0],"tree_param":{"num_deleted":"0","num_feature":"24","num_nodes":"9","size_leaf_vector":"1"}},{"base_weights":[-7.5024175E-3,-5.2744307E-2,1.0043995E0,1.0522488E0,-5.2439608E-2,5.2737433E-2,9.558344E-1,3.8011074E-2,4.9310625E-2],"categories":[],"categories_nodes":[],"categories_segments":[],"categories_sizes":[],"default_left":[0,0,0,0,0,0,0,0,0],"id":45,"left_children":[1,-1,3,5,-1,-1,7,-1,-1],"loss_changes":[1.3295271E4,0E0,6.279297E2,4.9414062E-1,0E0,0E0,2.5009155E-1,0E0,0E0],"parents":[2147483647,0,0,2,2,3,3,6,6],"right_children":[2,-1,4,6,-1,-1,8,-1,-1],"split_conditions":[9.782823E-7,-5.2744307E-2,2.069E3,1.917E3,-5.2439608E-2,5.2737433E-2,3.2946636E1,3.8011074E-2,4.9310625E-2],"split_indices":[1,0,0,0,0,0,14,0,0],"split_type":[0,0,0,0,0,0,0,0,0],"sum_hessian":[1.2542488E4,6.163169E3,6.3793193E3,6.2345127E3,1.4480663E2,6.067261E3,1.6725154E2,2.5980587E1,1.4127095E2],"tree_param":{"num_deleted":"0","num_feature":"24","num_nodes":"9","size_leaf_vector":"1"}},{"base_weights":[1.6535787E-2,-5.260254E-2,1.0035121E0,-5.227668E-2,1.0489419E0,9.2978376E-1,5.2596577E-2,1.5147378E-2,4.81105E-2],"categories":[],"categories_nodes":[],"categories_segments":[],"categories_sizes":[],"default_left":[0,0,0,0,0,0,0,0,0],"id":46,"left_children":[1,-1,3,-1,5,7,-1,-1,-1],"loss_changes":[1.2908241E4,0E0,5.9336865E2,0E0,1.2397461E0,2.9803467E0,0E0,0E0,0E0],"parents":[2147483647,0,0,2,2,4,4,5,5],"right_children":[2,-1,4,-1,6,8,-1,-1,-1],"split_conditions":[9.782823E-7,-5.260254E-2,4.8379294E-4,-5.227668E-2,5.211047E-4,2.2457052E1,5.2596577E-2,1.5147378E-2,4.81105E-2],"split_indices":[1,0,16,0,16,14,0,0,0],"split_type":[0,0,0,0,0,0,0,0,0],"sum_hessian":[1.2237131E4,5.8756133E3,6.361517E3,1.3750557E2,6.2240117E3,1.5996973E2,6.064042E3,8.376922E0,1.515928E2],"tree_param":{"num_deleted":"0","num_feature":"24","num_nodes":"9","size_leaf_vector":"1"}},{"base_weights":[-1.1437102E-2,-5.246835E-2,9.9884176E-1,1.0321627E0,3.74836E-1,5.2033443E-2,9.217262E-1,9.495819E-1,-5.1864684E-2,5.2064594E-2,-5.0297618E-2,5.105604E-2,2.4799915E-2],"categories":[],"categories_nodes":[],"categories_segments":[],"categories_sizes":[],"default_left":[0,0,0,0,0,0,0,0,0,0,0,0,0],"id":47,"left_children":[1,-1,3,5,7,-1,9,11,-1,-1,-1,-1,-1],"loss_changes":[1.1923616E4,0E0,1.1942529E2,4.178711E0,2.3933101E2,0E0,9.321948E1,6.2831726E0,0E0,0E0,0E0,0E0,0E0],"parents":[2147483647,0,0,2,2,3,3,4,4,6,6,7,7],"right_children":[2,-1,4,6,8,-1,10,12,-1,-1,-1,-1,-1],"split_conditions":[9.782823E-7,-5.246835E-2,1.5341975E2,7.869122E1,1.05871725E1,5.2033443E-2,2.3030973E1,5.731936E2,-5.1864684E-2,5.2064594E-2,-5.0297618E-2,5.105604E-2,2.4799915E-2],"split_indices":[1,0,22,22,14,0,14,22,0,0,0,0,0],"split_type":[0,0,0,0,0,0,0,0,0,0,0,0,0],"sum_hessian":[1.1369002E4,5.6077407E3,5.7612617E3,5.468593E3,2.9266855E2,5.069687E3,3.989059E2,2.0824078E2,8.442778E1,3.7604147E2,2.2864418E1,1.7879077E2,2.9450005E1],"tree_param":{"num_deleted":"0","num_feature":"24","num_nodes":"13","size_leaf_vector":"1"}},{"base_weights":[-3.7399065E-3,-5.234144E-2,9.9545467E-1,1.043468E0,-5.2044522E-2,5.2334815E-2,9.211187E-1,2.5408005E-2,4.7090318E-2],"categories":[],"categories_nodes":[],"categories_segments":[],"categories_sizes":[],"default_left":[0,0,0,0,0,0,0,0,0],"id":48,"left_children":[1,-1,3,5,-1,-1,7,-1,-1],"loss_changes":[1.1364454E4,0E0,5.455835E2,1.1850586E0,0E0,0E0,7.876663E-1,0E0,0E0],"parents":[2147483647,0,0,2,2,3,3,6,6],"right_children":[2,-1,4,6,-1,-1,8,-1,-1],"split_conditions":[9.782823E-7,-5.234144E-2,2.069E3,1.917E3,-5.2044522E-2,5.2334815E-2,1.3064182E1,2.5408005E-2,4.7090318E-2],"split_indices":[1,0,0,0,0,0,14,0,0],"split_type":[0,0,0,0,0,0,0,0,0],"sum_hessian":[1.0901783E4,5.3337134E3,5.5680693E3,5.4402847E3,1.2778445E2,5.2930654E3,1.4721927E2,8.242811E0,1.3897647E2],"tree_param":{"num_deleted":"0","num_feature":"24","num_nodes":"9","size_leaf_vector":"1"}},{"base_weights":[-1.0816733E-3,-5.222109E-2,9.934161E-1,1.041302E0,-5.1904317E-2,9.426288E-1,5.2213598E-2,3.5432808E-2,4.8759747E-2],"categories":[],"categories_nodes":[],"categories_segments":[],"categories_sizes":[],"default_left":[0,0,0,0,0,0,0,0,0],"id":49,"left_children":[1,-1,3,5,-1,7,-1,-1,-1],"loss_changes":[1.0831155E4,0E0,5.2098926E2,5.4589844E-1,0E0,5.498047E-1,0E0,0E0,0E0],"parents":[2147483647,0,0,2,2,3,3,5,5],"right_children":[2,-1,4,6,-1,8,-1,-1,-1],"split_conditions":[9.782823E-7,-5.222109E-2,2.069E3,5.211047E-4,-5.1904317E-2,2.8699734E1,5.2213598E-2,3.5432808E-2,4.8759747E-2],"split_indices":[1,0,0,16,0,14,0,0,0],"split_type":[0,0,0,0,0,0,0,0,0],"sum_hessian":[1.0436669E4,5.0932383E3,5.34343E3,5.2208535E3,1.2257686E2,1.6185388E2,5.0589995E3,2.2556479E1,1.392974E2],"tree_param":{"num_deleted":"0","num_feature":"24","num_nodes":"9","size_leaf_vector":"1"}},{"base_weights":[-1.6999735E-2,-5.2106936E-2,9.901782E-1,-5.1760685E-2,1.0389591E0,4.6655145E-2,5.209865E-2],"categories":[],"categories_nodes":[],"categories_segments":[],"categories_sizes":[],"default_left":[0,0,0,0,0,0,0],"id":50,"left_children":[1,-1,3,-1,5,-1,-1],"loss_changes":[1.010318E4,0E0,4.8873877E2,0E0,5.654297E-1,0E0,0E0],"parents":[2147483647,0,0,2,2,4,4],"right_children":[2,-1,4,-1,6,-1,-1],"split_conditions":[9.782823E-7,-5.2106936E-2,4.8379294E-4,-5.1760685E-2,5.211047E-4,4.6655145E-2,5.209865E-2],"split_indices":[1,0,16,0,16,0,0],"split_type":[0,0,0,0,0,0,0],"sum_hessian":[9.7831875E3,4.848346E3,4.9348413E3,1.1558326E2,4.8192583E3,1.4200919E2,4.677249E3],"tree_param":{"num_deleted":"0","num_feature":"24","num_nodes":"7","size_leaf_vector":"1"}},{"base_weights":[-5.5765156E-3,-5.1999062E-2,9.880454E-1,1.0360754E0,-5.163298E-2,8.9808464E-1,5.199019E-2,2.8476177E-2,4.5662098E-2],"categories":[],"categories_nodes":[],"categories_segments":[],"categories_sizes":[],"default_left":[0,0,0,0,0,0,0,0,0],"id":51,"left_children":[1,-1,3,5,-1,7,-1,-1,-1],"loss_changes":[9.702458E3,0E0,4.6837744E2,1.4853516E0,0E0,1.3266754E-1,0E0,0E0,0E0],"parents":[2147483647,0,0,2,2,3,3,5,5],"right_children":[2,-1,4,6,-1,8,-1,-1,-1],"split_conditions":[9.782823E-7,-5.1999062E-2,2.069E3,5.211047E-4,-5.163298E-2,1.0015151E1,5.199019E-2,2.8476177E-2,4.5662098E-2],"split_indices":[1,0,0,16,0,14,0,0,0],"split_type":[0,0,0,0,0,0,0,0,0],"sum_hessian":[9.43796E3,4.62406E3,4.8138994E3,4.702611E3,1.1128864E2,1.3008173E2,4.5725293E3,7.4373693E0,1.2264436E2],"tree_param":{"num_deleted":"0","num_feature":"24","num_nodes":"9","size_leaf_vector":"1"}},{"base_weights":[5.7766316E-3,-5.189655E-2,9.880527E-1,1.0345933E0,-5.1505476E-2,5.188776E-2,9.1960305E-1,2.7846063E-2,4.681163E-2],"categories":[],"categories_nodes":[],"categories_segments":[],"categories_sizes":[],"default_left":[0,0,0,0,0,0,0,0,0],"id":52,"left_children":[1,-1,3,5,-1,-1,7,-1,-1],"loss_changes":[9.351139E3,0E0,4.4241602E2,7.1533203E-1,0E0,0E0,2.7294922E-1,0E0,0E0],"parents":[2147483647,0,0,2,2,3,3,6,6],"right_children":[2,-1,4,6,-1,-1,8,-1,-1],"split_conditions":[9.782823E-7,-5.189655E-2,2.069E3,1.917E3,-5.1505476E-2,5.188776E-2,1.3064182E1,2.7846063E-2,4.681163E-2],"split_indices":[1,0,0,0,0,0,14,0,0],"split_type":[0,0,0,0,0,0,0,0,0],"sum_hessian":[9.119202E3,4.4213184E3,4.6978843E3,4.592465E3,1.0541906E2,4.4617563E3,1.307087E2,7.2425227E0,1.2346618E2],"tree_param":{"num_deleted":"0","num_feature":"24","num_nodes":"9","size_leaf_vector":"1"}},{"base_weights":[1.9738432E-2,-5.1799424E-2,9.875786E-1,1.032576E0,-5.1377065E-2,5.180193E-2,9.101633E-1,3.0303061E-2,4.790622E-2],"categories":[],"categories_nodes":[],"categories_segments":[],"categories_sizes":[],"default_left":[0,0,0,0,0,0,0,0,0],"id":53,"left_children":[1,-1,3,5,-1,-1,7,-1,-1],"loss_changes":[8.995492E3,0E0,4.175381E2,9.609375E-1,0E0,0E0,1.3421173E0,0E0,0E0],"parents":[2147483647,0,0,2,2,3,3,6,6],"right_children":[2,-1,4,6,-1,-1,8,-1,-1],"split_conditions":[9.782823E-7,-5.1799424E-2,2.069E3,1.917E3,-5.1377065E-2,5.180193E-2,3.2946636E1,3.0303061E-2,4.790622E-2],"split_indices":[1,0,0,0,0,0,14,0,0],"split_type":[0,0,0,0,0,0,0,0,0],"sum_hessian":[8.80179E3,4.209723E3,4.5920664E3,4.4922427E3,9.9823715E1,4.36141E3,1.3083267E2,1.9680853E1,1.1115182E2],"tree_param":{"num_deleted":"0","num_feature":"24","num_nodes":"9","size_leaf_vector":"1"}},{"base_weights":[1.0013935E-2,-5.1707577E-2,9.8441803E-1,1.0300169E0,-5.1255733E-2,8.960083E-1,5.169756E-2,2.656175E-2,4.562127E-2],"categories":[],"categories_nodes":[],"categories_segments":[],"categories_sizes":[],"default_left":[0,0,0,0,0,0,0,0,0],"id":54,"left_children":[1,-1,3,5,-1,7,-1,-1,-1],"loss_changes":[8.436892E3,0E0,3.9410693E2,1.2851562E0,0E0,2.7661896E-1,0E0,0E0,0E0],"parents":[2147483647,0,0,2,2,3,3,5,5],"right_children":[2,-1,4,6,-1,8,-1,-1,-1],"split_conditions":[9.782823E-7,-5.1707577E-2,2.069E3,5.211047E-4,-5.1255733E-2,1.3064182E1,5.169756E-2,2.656175E-2,4.562127E-2],"split_indices":[1,0,0,16,0,14,0,0,0],"split_type":[0,0,0,0,0,0,0,0,0],"sum_hessian":[8.29028E3,4.0018552E3,4.288425E3,4.1937505E3,9.467427E1,1.2613194E2,4.0676187E3,6.8689175E0,1.1926302E2],"tree_param":{"num_deleted":"0","num_feature":"24","num_nodes":"9","size_leaf_vector":"1"}},{"base_weights":[1.9952788E-3,-5.1620126E-2,9.818564E-1,1.0279795E0,-5.1140346E-2,8.659807E-1,5.1609077E-2,1.9659942E-2,4.4710394E-2],"categories":[],"categories_nodes":[],"categories_segments":[],"categories_sizes":[],"default_left":[0,0,0,0,0,0,0,0,0],"id":55,"left_children":[1,-1,3,5,-1,7,-1,-1,-1],"loss_changes":[7.956668E3,0E0,3.7379565E2,1.7890625E0,0E0,1.0610504E0,0E0,0E0,0E0],"parents":[2147483647,0,0,2,2,3,3,5,5],"right_children":[2,-1,4,6,-1,8,-1,-1,-1],"split_conditions":[9.782823E-7,-5.1620126E-2,2.069E3,5.211047E-4,-5.1140346E-2,1.3064182E1,5.1609077E-2,1.9659942E-2,4.4710394E-2],"split_indices":[1,0,0,16,0,14,0,0,0],"split_type":[0,0,0,0,0,0,0,0,0],"sum_hessian":[7.848171E3,3.8178137E3,4.0303574E3,3.9401892E3,9.0168236E1,1.0485407E2,3.835335E3,6.748698E0,9.810538E1],"tree_param":{"num_deleted":"0","num_feature":"24","num_nodes":"9","size_leaf_vector":"1"}},{"base_weights":[7.77069E-3,-5.1537465E-2,9.7950715E-1,1.0256349E0,-5.103762E-2,8.558402E-1,5.152564E-2,1.9108543E-2,4.4100534E-2],"categories":[],"categories_nodes":[],"categories_segments":[],"categories_sizes":[],"default_left":[0,0,0,0,0,0,0,0,0],"id":56,"left_children":[1,-1,3,5,-1,7,-1,-1,-1],"loss_changes":[7.591462E3,0E0,3.5961694E2,2.2648926E0,0E0,1.0511856E0,0E0,0E0,0E0],"parents":[2147483647,0,0,2,2,3,3,5,5],"right_children":[2,-1,4,6,-1,8,-1,-1,-1],"split_conditions":[9.782823E-7,-5.1537465E-2,2.069E3,5.211047E-4,-5.103762E-2,1.3064182E1,5.152564E-2,1.9108543E-2,4.4100534E-2],"split_indices":[1,0,0,16,0,14,0,0,0],"split_type":[0,0,0,0,0,0,0,0,0],"sum_hessian":[7.5204976E3,3.6352986E3,3.8851987E3,3.7980984E3,8.7100296E1,1.10992E2,3.6871064E3,6.628226E0,1.0436377E2],"tree_param":{"num_deleted":"0","num_feature":"24","num_nodes":"9","size_leaf_vector":"1"}},{"base_weights":[2.9067227E-3,-5.1458802E-2,9.7704643E-1,1.0231959E0,-5.092293E-2,8.271777E-1,5.144629E-2,4.3640222E-2,5.704319E-3],"categories":[],"categories_nodes":[],"categories_segments":[],"categories_sizes":[],"default_left":[0,0,0,0,0,0,0,0,0],"id":57,"left_children":[1,-1,3,5,-1,7,-1,-1,-1],"loss_changes":[7.1741343E3,0E0,3.3909814E2,3.1791992E0,0E0,3.382248E0,0E0,0E0,0E0],"parents":[2147483647,0,0,2,2,3,3,5,5],"right_children":[2,-1,4,6,-1,8,-1,-1,-1],"split_conditions":[9.782823E-7,-5.1458802E-2,2.069E3,5.211047E-4,-5.092293E-2,7.869122E1,5.144629E-2,4.3640222E-2,5.704319E-3],"split_indices":[1,0,0,16,0,22,0,0,0],"split_type":[0,0,0,0,0,0,0,0,0],"sum_hessian":[7.133653E3,3.4637832E3,3.6698699E3,3.5873923E3,8.2477325E1,1.0601439E2,3.481378E3,9.942854E1,6.5858445E0],"tree_param":{"num_deleted":"0","num_feature":"24","num_nodes":"9","size_leaf_vector":"1"}},{"base_weights":[-6.3717333E-3,-5.138415E-2,9.7516173E-1,1.0224591E0,-5.0823905E-2,5.137049E-2,8.2685E-1,3.4429204E-2,4.899814E-2],"categories":[],"categories_nodes":[],"categories_segments":[],"categories_sizes":[],"default_left":[0,0,0,0,0,0,0,0,0],"id":58,"left_children":[1,-1,3,5,-1,-1,7,-1,-1],"loss_changes":[6.763835E3,0E0,3.2514722E2,2.4060059E0,0E0,0E0,1.1902046E0,0E0,0E0],"parents":[2147483647,0,0,2,2,3,3,6,6],"right_children":[2,-1,4,6,-1,-1,8,-1,-1],"split_conditions":[9.782823E-7,-5.138415E-2,2.069E3,1.917E3,-5.0823905E-2,5.137049E-2,1E0,3.4429204E-2,4.899814E-2],"split_indices":[1,0,0,0,0,0,9,0,0],"split_type":[0,0,0,0,0,0,0,0,0],"sum_hessian":[6.7452964E3,3.305642E3,3.4396543E3,3.3603396E3,7.931471E1,3.2732449E3,8.7094574E1,4.865484E1,3.843973E1],"tree_param":{"num_deleted":"0","num_feature":"24","num_nodes":"9","size_leaf_vector":"1"}},{"base_weights":[-6.1120247E-3,-5.131336E-2,9.744891E-1,1.0217217E0,-5.07223E-2,8.2271683E-1,5.1299006E-2,2.7120978E-2,4.278223E-2],"categories":[],"categories_nodes":[],"categories_segments":[],"categories_sizes":[],"default_left":[0,0,0,0,0,0,0,0,0],"id":59,"left_children":[1,-1,3,5,-1,7,-1,-1,-1],"loss_changes":[6.431287E3,0E0,3.0898267E2,1.869873E0,0E0,2.0169449E-1,0E0,0E0,0E0],"parents":[2147483647,0,0,2,2,3,3,5,5],"right_children":[2,-1,4,6,-1,8,-1,-1,-1],"split_conditions":[9.782823E-7,-5.131336E-2,2.069E3,5.211047E-4,-5.07223E-2,2.039483E-6,5.1299006E-2,2.7120978E-2,4.278223E-2],"split_indices":[1,0,0,16,0,1,0,0,0],"split_type":[0,0,0,0,0,0,0,0,0],"sum_hessian":[6.4269395E3,3.149918E3,3.2770212E3,3.2014797E3,7.554154E1,7.114001E1,3.1303398E3,9.315433E0,6.1824577E1],"tree_param":{"num_deleted":"0","num_feature":"24","num_nodes":"9","size_leaf_vector":"1"}},{"base_weights":[2.2098683E-3,-5.1246017E-2,9.731393E-1,-5.0625652E-2,1.0199411E0,8.5285336E-1,5.1247794E-2,3.731301E-2,4.896145E-2],"categories":[],"categories_nodes":[],"categories_segments":[],"categories_sizes":[],"default_left":[0,0,0,0,0,0,0,0,0],"id":60,"left_children":[1,-1,3,-1,5,7,-1,-1,-1],"loss_changes":[6.157534E3,0E0,2.9600195E2,0E0,1.7243652E0,5.6682587E-1,0E0,0E0,0E0],"parents":[2147483647,0,0,2,2,4,4,5,5],"right_children":[2,-1,4,-1,6,8,-1,-1,-1],"split_conditions":[9.782823E-7,-5.1246017E-2,4.8379294E-4,-5.0625652E-2,5.211047E-4,1E0,5.1247794E-2,3.731301E-2,4.896145E-2],"split_indices":[1,0,16,0,16,10,0,0,0],"split_type":[0,0,0,0,0,0,0,0,0],"sum_hessian":[6.172385E3,2.999358E3,3.1730269E3,7.25909E1,3.100436E3,9.532632E1,3.0051096E3,5.5456173E1,3.9870148E1],"tree_param":{"num_deleted":"0","num_feature":"24","num_nodes":"9","size_leaf_vector":"1"}},{"base_weights":[2.5132594E-3,-5.1174957E-2,9.4954884E-1,6.1994475E-1,9.619147E-1,6.558461E-1,-3.6257174E-2,8.831905E-1,9.868299E-1,3.561326E-2,-2.1988745E-3,4.6261366E-2,-1.3198032E-3,4.823515E-2,5.0881624E-2],"categories":[],"categories_nodes":[],"categories_segments":[],"categories_sizes":[],"default_left":[0,0,0,0,0,0,0,0,0,0,0,0,0,0,0],"id":61,"left_children":[1,-1,3,5,7,9,-1,11,13,-1,-1,-1,-1,-1,-1],"loss_changes":[5.7095547E3,0E0,1.1858154E1,5.9471703E0,4.901367E0,4.4094543E0,0E0,2.7443481E1,5.3637695E-1,0E0,0E0,0E0,0E0,0E0,0E0],"parents":[2147483647,0,0,2,2,3,3,4,4,5,5,7,7,8,8],"right_children":[2,-1,4,6,8,10,-1,12,14,-1,-1,-1,-1,-1,-1],"split_conditions":[4.8379294E-4,-5.1174957E-2,5.211047E-4,1E0,8.361204E-4,1.1604901E2,-3.6257174E-2,1E0,1E0,3.561326E-2,-2.1988745E-3,4.6261366E-2,-1.3198032E-3,4.823515E-2,5.0881624E-2],"split_indices":[16,0,16,11,16,22,0,11,9,0,0,0,0,0,0],"split_type":[0,0,0,0,0,0,0,0,0,0,0,0,0,0,0],"sum_hessian":[5.874021E3,2.8194097E3,3.0546113E3,1.1230583E2,2.9423054E3,1.0988533E2,2.420501E0,7.1609924E2,2.2262063E3,1.0167094E2,8.214393E0,6.8445E2,3.1649233E1,1.3143611E3,9.118451E2],"tree_param":{"num_deleted":"0","num_feature":"24","num_nodes":"15","size_leaf_vector":"1"}},{"base_weights":[-1.0259713E-2,-5.1126976E-2,9.6808624E-1,1.0153986E0,-5.0424047E-2,5.110654E-2,7.841682E-1,4.0857855E-2,1.5069732E-2],"categories":[],"categories_nodes":[],"categories_segments":[],"categories_sizes":[],"default_left":[0,0,0,0,0,0,0,0,0],"id":62,"left_children":[1,-1,3,5,-1,-1,7,-1,-1],"loss_changes":[5.4896626E3,0E0,2.6462744E2,3.4846191E0,0E0,0E0,1.0626831E0,0E0,0E0],"parents":[2147483647,0,0,2,2,3,3,6,6],"right_children":[2,-1,4,6,-1,-1,8,-1,-1],"split_conditions":[9.782818E-7,-5.1126976E-2,2.069E3,1.917E3,-5.0424047E-2,5.110654E-2,1.4250446E2,4.0857855E-2,1.5069732E-2],"split_indices":[15,0,0,0,0,0,22,0,0],"split_type":[0,0,0,0,0,0,0,0,0],"sum_hessian":[5.5410996E3,2.7232983E3,2.817801E3,2.752404E3,6.5397026E1,2.671214E3,8.118994E1,7.534859E1,5.841357E0],"tree_param":{"num_deleted":"0","num_feature":"24","num_nodes":"9","size_leaf_vector":"1"}},{"base_weights":[-7.1466933E-3,-5.106872E-2,9.6981436E-1,-5.0322633E-2,1.0166137E0,4.4979528E-2,5.1048066E-2],"categories":[],"categories_nodes":[],"categories_segments":[],"categories_sizes":[],"default_left":[0,0,0,0,0,0,0],"id":63,"left_children":[1,-1,3,-1,5,-1,-1],"loss_changes":[5.2380405E3,0E0,2.5006079E2,0E0,4.2016602E-1,0E0,0E0],"parents":[2147483647,0,0,2,2,4,4],"right_children":[2,-1,4,-1,6,-1,-1],"split_conditions":[9.782823E-7,-5.106872E-2,4.8379294E-4,-5.0322633E-2,5.211047E-4,4.4979528E-2,5.1048066E-2],"split_indices":[1,0,16,0,16,0,0],"split_type":[0,0,0,0,0,0,0],"sum_hessian":[5.2843535E3,2.592704E3,2.6916494E3,6.1791195E1,2.6298582E3,1.0165115E2,2.528207E3],"tree_param":{"num_deleted":"0","num_feature":"24","num_nodes":"7","size_leaf_vector":"1"}},{"base_weights":[1.5644819E-2,-5.1013745E-2,9.6940696E-1,1.0143753E0,-5.0234802E-2,8.523857E-1,5.1013764E-2,4.3691866E-2,2.0693293E-2],"categories":[],"categories_nodes":[],"categories_segments":[],"categories_sizes":[],"default_left":[0,0,0,0,0,0,0,0,0],"id":64,"left_children":[1,-1,3,5,-1,7,-1,-1,-1],"loss_changes":[5.100986E3,0E0,2.3963892E2,1.6420898E0,0E0,5.64476E-1,0E0,0E0,0E0],"parents":[2147483647,0,0,2,2,3,3,5,5],"right_children":[2,-1,4,6,-1,8,-1,-1,-1],"split_conditions":[9.782823E-7,-5.1013745E-2,2.069E3,5.211047E-4,-5.0234802E-2,1.4250446E2,5.1013764E-2,4.3691866E-2,2.0693293E-2],"split_indices":[1,0,0,16,0,22,0,0,0],"split_type":[0,0,0,0,0,0,0,0,0],"sum_hessian":[5.16083E3,2.4738318E3,2.6869985E3,2.6276294E3,5.9369026E1,9.745115E1,2.5301785E3,9.1959946E1,5.4912033E0],"tree_param":{"num_deleted":"0","num_feature":"24","num_nodes":"9","size_leaf_vector":"1"}},{"base_weights":[2.53107E-3,-5.0961316E-2,9.662937E-1,1.0123539E0,-5.014179E-2,7.555918E-1,5.093964E-2,2.9272903E-2,4.617813E-2],"categories":[],"categories_nodes":[],"categories_segments":[],"categories_sizes":[],"default_left":[0,0,0,0,0,0,0,0,0],"id":65,"left_children":[1,-1,3,5,-1,7,-1,-1,-1],"loss_changes":[4.77386E3,0E0,2.2728442E2,3.2609863E0,0E0,1.2744789E0,0E0,0E0,0E0],"parents":[2147483647,0,0,2,2,3,3,5,5],"right_children":[2,-1,4,6,-1,8,-1,-1,-1],"split_conditions":[9.782823E-7,-5.0961316E-2,2.069E3,5.211047E-4,-5.014179E-2,1E0,5.093964E-2,2.9272903E-2,4.617813E-2],"split_indices":[1,0,0,16,0,10,0,0,0],"split_type":[0,0,0,0,0,0,0,0,0],"sum_hessian":[4.8458794E3,2.3521406E3,2.4937388E3,2.4372153E3,5.6523415E1,6.251798E1,2.3746975E3,3.3287403E1,2.9230574E1],"tree_param":{"num_deleted":"0","num_feature":"24","num_nodes":"9","size_leaf_vector":"1"}},{"base_weights":[-5.628546E-3,-5.0911516E-2,9.6466005E-1,1.0109265E0,-5.004136E-2,5.0910484E-2,7.704525E-1,-8.008242E-3,4.1459244E-2],"categories":[],"categories_nodes":[],"categories_segments":[],"categories_sizes":[],"default_left":[0,0,0,0,0,0,0,0,0],"id":66,"left_children":[1,-1,3,5,-1,-1,7,-1,-1],"loss_changes":[4.511871E3,0E0,2.1426416E2,3.229004E0,0E0,0E0,4.039509E0,0E0,0E0],"parents":[2147483647,0,0,2,2,3,3,6,6],"right_children":[2,-1,4,6,-1,-1,8,-1,-1],"split_conditions":[9.782818E-7,-5.0911516E-2,2.069E3,1.917E3,-5.004136E-2,5.0910484E-2,2.2457052E1,-8.008242E-3,4.1459244E-2],"split_indices":[15,0,0,0,0,0,14,0,0],"split_type":[0,0,0,0,0,0,0,0,0],"sum_hessian":[4.59016E3,2.2460808E3,2.3440793E3,2.2906445E3,5.343479E1,2.2201685E3,7.047627E1,4.081268E0,6.6395004E1],"tree_param":{"num_deleted":"0","num_feature":"24","num_nodes":"9","size_leaf_vector":"1"}},{"base_weights":[7.0541934E-3,-5.086389E-2,9.6344894E-1,1.0089395E0,-4.9954638E-2,5.0840165E-2,7.890459E-1,1.182974E-2,4.122502E-2],"categories":[],"categories_nodes":[],"categories_segments":[],"categories_sizes":[],"default_left":[0,0,0,0,0,0,0,0,0],"id":67,"left_children":[1,-1,3,5,-1,-1,7,-1,-1],"loss_changes":[4.3189087E3,0E0,2.0454907E2,3.0510254E0,0E0,0E0,1.3995972E0,0E0,0E0],"parents":[2147483647,0,0,2,2,3,3,6,6],"right_children":[2,-1,4,6,-1,-1,8,-1,-1],"split_conditions":[9.782823E-7,-5.086389E-2,2.069E3,1.917E3,-4.9954638E-2,5.0840165E-2,1.3064182E1,1.182974E-2,4.122502E-2],"split_indices":[1,0,0,0,0,0,14,0,0],"split_type":[0,0,0,0,0,0,0,0,0],"sum_hessian":[4.4065527E3,2.1276748E3,2.2788777E3,2.227726E3,5.1151447E1,2.147311E3,8.04152E1,5.3123E0,7.51029E1],"tree_param":{"num_deleted":"0","num_feature":"24","num_nodes":"9","size_leaf_vector":"1"}},{"base_weights":[-6.8661477E-3,-5.081877E-2,9.616803E-1,-4.985322E-2,1.0078636E0,7.8071135E-1,5.0792884E-2,1.1839281E-2,4.263659E-2],"categories":[],"categories_nodes":[],"categories_segments":[],"categories_sizes":[],"default_left":[0,0,0,0,0,0,0,0,0],"id":68,"left_children":[1,-1,3,-1,5,7,-1,-1,-1],"loss_changes":[4.0620437E3,0E0,1.9280542E2,0E0,2.9694824E0,2.726593E0,0E0,0E0,0E0],"parents":[2147483647,0,0,2,2,4,4,5,5],"right_children":[2,-1,4,-1,6,8,-1,-1,-1],"split_conditions":[9.782823E-7,-5.081877E-2,4.8379294E-4,-4.985322E-2,5.211047E-4,2.8699734E1,5.0792884E-2,1.1839281E-2,4.263659E-2],"split_indices":[1,0,16,0,16,14,0,0,0],"split_type":[0,0,0,0,0,0,0,0,0],"sum_hessian":[4.152453E3,2.0332065E3,2.1192466E3,4.834243E1,2.0709043E3,7.375689E1,1.9971473E3,9.125482E0,6.463141E1],"tree_param":{"num_deleted":"0","num_feature":"24","num_nodes":"9","size_leaf_vector":"1"}},{"base_weights":[-2.2425358E-3,-5.0775647E-2,9.605033E-1,1.0066681E0,-4.9770217E-2,5.0748613E-2,7.9930615E-1,2.1586915E-2,4.2981848E-2],"categories":[],"categories_nodes":[],"categories_segments":[],"categories_sizes":[],"default_left":[0,0,0,0,0,0,0,0,0],"id":69,"left_children":[1,-1,3,5,-1,-1,7,-1,-1],"loss_changes":[3.8739875E3,0E0,1.8487402E2,2.6152344E0,0E0,0E0,1.4323425E0,0E0,0E0],"parents":[2147483647,0,0,2,2,3,3,6,6],"right_children":[2,-1,4,6,-1,-1,8,-1,-1],"split_conditions":[9.782823E-7,-5.0775647E-2,2.069E3,1.917E3,-4.9770217E-2,5.0748613E-2,2.8699734E1,2.1586915E-2,4.2981848E-2],"split_indices":[1,0,0,0,0,0,14,0,0],"split_type":[0,0,0,0,0,0,0,0,0],"sum_hessian":[3.9691953E3,1.9338269E3,2.0353684E3,1.9889099E3,4.645841E1,1.9085829E3,8.032704E1,1.2475541E1,6.78515E1],"tree_param":{"num_deleted":"0","num_feature":"24","num_nodes":"9","size_leaf_vector":"1"}},{"base_weights":[-2.2765785E-2,-5.073473E-2,9.574322E-1,1.0054383E0,-4.9678113E-2,6.333401E-1,5.0733365E-2,-3.974037E-2,3.921893E-2],"categories":[],"categories_nodes":[],"categories_segments":[],"categories_sizes":[],"default_left":[0,0,0,0,0,0,0,0,0],"id":70,"left_children":[1,-1,3,5,-1,7,-1,-1,-1],"loss_changes":[3.6006587E3,0E0,1.7545593E2,5.602051E0,0E0,1.0690636E1,0E0,0E0,0E0],"parents":[2147483647,0,0,2,2,3,3,5,5],"right_children":[2,-1,4,6,-1,8,-1,-1,-1],"split_conditions":[9.782823E-7,-5.073473E-2,2.069E3,5.211047E-4,-4.9678113E-2,2.8699734E1,5.0733365E-2,-3.974037E-2,3.921893E-2],"split_indices":[1,0,0,16,0,14,0,0,0],"split_type":[0,0,0,0,0,0,0,0,0],"sum_hessian":[3.70129E3,1.8396193E3,1.8616708E3,1.8174357E3,4.4235073E1,4.5671135E1,1.7717645E3,3.9604762E0,4.171066E1],"tree_param":{"num_deleted":"0","num_feature":"24","num_nodes":"9","size_leaf_vector":"1"}},{"base_weights":[6.0301977E-3,-5.0695654E-2,9.575823E-1,-4.9582493E-2,1.0027205E0,7.1792245E-1,5.0667316E-2,1.1648643E-2,3.7711043E-2],"categories":[],"categories_nodes":[],"categories_segments":[],"categories_sizes":[],"default_left":[0,0,0,0,0,0,0,0,0],"id":71,"left_children":[1,-1,3,-1,5,7,-1,-1,-1],"loss_changes":[3.5235012E3,0E0,1.6624902E2,0E0,4.8292236E0,1.047245E0,0E0,0E0,0E0],"parents":[2147483647,0,0,2,2,4,4,5,5],"right_children":[2,-1,4,-1,6,8,-1,-1,-1],"split_conditions":[9.782823E-7,-5.0695654E-2,4.8379294E-4,-4.9582493E-2,5.211047E-4,1.3064182E1,5.0667316E-2,1.1648643E-2,3.7711043E-2],"split_indices":[1,0,16,0,16,14,0,0,0],"split_type":[0,0,0,0,0,0,0,0,0],"sum_hessian":[3.628495E3,1.7512797E3,1.8772153E3,4.201211E1,1.8352032E3,6.847484E1,1.7667284E3,5.2849994E0,6.3189835E1],"tree_param":{"num_deleted":"0","num_feature":"24","num_nodes":"9","size_leaf_vector":"1"}},{"base_weights":[-6.7476276E-3,-5.0658327E-2,9.5717573E-1,1.0039226E0,-4.9498875E-2,5.062717E-2,7.4179554E-1,9.639577E-3,3.885952E-2],"categories":[],"categories_nodes":[],"categories_segments":[],"categories_sizes":[],"default_left":[0,0,0,0,0,0,0,0,0],"id":72,"left_children":[1,-1,3,5,-1,-1,7,-1,-1],"loss_changes":[3.3099116E3,0E0,1.596239E2,3.0959473E0,0E0,0E0,9.761276E-1,0E0,0E0],"parents":[2147483647,0,0,2,2,3,3,6,6],"right_children":[2,-1,4,6,-1,-1,8,-1,-1],"split_conditions":[9.782823E-7,-5.0658327E-2,2.069E3,1.917E3,-4.9498875E-2,5.062717E-2,2.2457052E1,9.639577E-3,3.885952E-2],"split_indices":[1,0,0,0,0,0,14,0,0],"split_type":[0,0,0,0,0,0,0,0,0],"sum_hessian":[3.409891E3,1.668149E3,1.7417421E3,1.7013801E3,4.0362003E1,1.644436E3,5.6944057E1,3.8393536E0,5.3104706E1],"tree_param":{"num_deleted":"0","num_feature":"24","num_nodes":"9","size_leaf_vector":"1"}},{"base_weights":[-3.9043757E-3,-5.0622817E-2,9.54569E-1,1.0004606E0,-4.93922E-2,7.3369116E-1,5.058999E-2,1.0943823E-2,3.8568553E-2],"categories":[],"categories_nodes":[],"categories_segments":[],"categories_sizes":[],"default_left":[0,0,0,0,0,0,0,0,0],"id":73,"left_children":[1,-1,3,5,-1,7,-1,-1,-1],"loss_changes":[3.1475618E3,0E0,1.4980798E2,4.192749E0,0E0,1.1920815E0,0E0,0E0,0E0],"parents":[2147483647,0,0,2,2,3,3,5,5],"right_children":[2,-1,4,6,-1,8,-1,-1,-1],"split_conditions":[9.782823E-7,-5.0622817E-2,2.069E3,5.211047E-4,-4.93922E-2,1.3064182E1,5.058999E-2,1.0943823E-2,3.8568553E-2],"split_indices":[1,0,0,16,0,14,0,0,0],"split_type":[0,0,0,0,0,0,0,0,0],"sum_hessian":[3.254087E3,1.585593E3,1.6684939E3,1.6304575E3,3.8036407E1,6.915691E1,1.5613005E3,5.1808386E0,6.3976074E1],"tree_param":{"num_deleted":"0","num_feature":"24","num_nodes":"9","size_leaf_vector":"1"}},{"base_weights":[-1.4898162E-3,-5.0588902E-2,9.564433E-1,1.0024021E0,-4.930255E-2,7.396479E-1,5.0588407E-2,2.0872168E-2,4.2437933E-2],"categories":[],"categories_nodes":[],"categories_segments":[],"categories_sizes":[],"default_left":[0,0,0,0,0,0,0,0,0],"id":74,"left_children":[1,-1,3,5,-1,7,-1,-1,-1],"loss_changes":[3.0085076E3,0E0,1.4344116E2,3.0892334E0,0E0,1.6631699E0,0E0,0E0,0E0],"parents":[2147483647,0,0,2,2,3,3,5,5],"right_children":[2,-1,4,6,-1,8,-1,-1,-1],"split_conditions":[9.782823E-7,-5.0588902E-2,2.069E3,5.211047E-4,-4.930255E-2,3.2946636E1,5.0588407E-2,2.0872168E-2,4.2437933E-2],"split_indices":[1,0,0,16,0,14,0,0,0],"split_type":[0,0,0,0,0,0,0,0,0],"sum_hessian":[3.1066418E3,1.511975E3,1.5946669E3,1.5582823E3,3.6384537E1,5.6386536E1,1.5018958E3,1.5485033E1,4.0901505E1],"tree_param":{"num_deleted":"0","num_feature":"24","num_nodes":"9","size_leaf_vector":"1"}},{"base_weights":[-2.7584427E-3,-5.055667E-2,9.5352685E-1,9.99921E-1,-4.921926E-2,5.0520845E-2,7.227546E-1,2.0275733E-2,4.133224E-2],"categories":[],"categories_nodes":[],"categories_segments":[],"categories_sizes":[],"default_left":[0,0,0,0,0,0,0,0,0],"id":75,"left_children":[1,-1,3,5,-1,-1,7,-1,-1],"loss_changes":[2.8525754E3,0E0,1.3749292E2,3.584961E0,0E0,0E0,1.5642872E0,0E0,0E0],"parents":[2147483647,0,0,2,2,3,3,6,6],"right_children":[2,-1,4,6,-1,-1,8,-1,-1],"split_conditions":[9.782823E-7,-5.055667E-2,2.069E3,1.917E3,-4.921926E-2,5.0520845E-2,3.2946636E1,2.0275733E-2,4.133224E-2],"split_indices":[1,0,0,0,0,0,14,0,0],"split_type":[0,0,0,0,0,0,0,0,0],"sum_hessian":[2.9562004E3,1.4388829E3,1.5173176E3,1.4823146E3,3.5003044E1,1.4256807E3,5.6633858E1,1.5180834E1,4.1453026E1],"tree_param":{"num_deleted":"0","num_feature":"24","num_nodes":"9","size_leaf_vector":"1"}},{"base_weights":[-8.146551E-3,-5.0525576E-2,9.53723E-1,1.0006545E0,-4.9118157E-2,7.361865E-1,5.052457E-2,1.915499E-2,4.041773E-2],"categories":[],"categories_nodes":[],"categories_segments":[],"categories_sizes":[],"default_left":[0,0,0,0,0,0,0,0,0],"id":76,"left_children":[1,-1,3,5,-1,7,-1,-1,-1],"loss_changes":[2.6944397E3,0E0,1.3056616E2,2.8797607E0,0E0,1.0570126E0,0E0,0E0,0E0],"parents":[2147483647,0,0,2,2,3,3,5,5],"right_children":[2,-1,4,6,-1,8,-1,-1,-1],"split_conditions":[9.782823E-7,-5.0525576E-2,2.069E3,5.211047E-4,-4.9118157E-2,2.8699734E1,5.052457E-2,1.915499E-2,4.041773E-2],"split_indices":[1,0,0,16,0,14,0,0,0],"split_type":[0,0,0,0,0,0,0,0,0],"sum_hessian":[2.7926436E3,1.3675099E3,1.4251337E3,1.3918772E3,3.3256466E1,5.2634396E1,1.3392428E3,1.0002927E1,4.2631466E1],"tree_param":{"num_deleted":"0","num_feature":"24","num_nodes":"9","size_leaf_vector":"1"}},{"base_weights":[-4.712693E-3,-5.04962E-2,9.51973E-1,-4.9008586E-2,9.9811554E-1,6.262646E-1,5.045727E-2,-3.8068905E-2,3.8764622E-2],"categories":[],"categories_nodes":[],"categories_segments":[],"categories_sizes":[],"default_left":[0,0,0,0,0,0,0,0,0],"id":77,"left_children":[1,-1,3,-1,5,7,-1,-1,-1],"loss_changes":[2.5708176E3,0E0,1.2309277E2,0E0,4.8568115E0,9.107775E0,0E0,0E0,0E0],"parents":[2147483647,0,0,2,2,4,4,5,5],"right_children":[2,-1,4,-1,6,8,-1,-1,-1],"split_conditions":[9.782823E-7,-5.04962E-2,4.8379294E-4,-4.9008586E-2,5.211047E-4,2.8699734E1,5.045727E-2,-3.8068905E-2,3.8764622E-2],"split_indices":[1,0,16,0,16,14,0,0,0],"split_type":[0,0,0,0,0,0,0,0,0],"sum_hessian":[2.6712815E3,1.3025779E3,1.3687035E3,3.145213E1,1.3372515E3,4.018757E1,1.2970638E3,3.4989398E0,3.668863E1],"tree_param":{"num_deleted":"0","num_feature":"24","num_nodes":"9","size_leaf_vector":"1"}},{"base_weights":[1.3143061E-2,-5.0467838E-2,9.5183337E-1,9.9676853E-1,-4.892242E-2,6.5991277E-1,5.0429504E-2,1.557894E-2,3.8186535E-2],"categories":[],"categories_nodes":[],"categories_segments":[],"categories_sizes":[],"default_left":[0,0,0,0,0,0,0,0,0],"id":78,"left_children":[1,-1,3,5,-1,7,-1,-1,-1],"loss_changes":[2.4876428E3,0E0,1.1818152E2,4.595093E0,0E0,1.4863396E0,0E0,0E0,0E0],"parents":[2147483647,0,0,2,2,3,3,5,5],"right_children":[2,-1,4,6,-1,8,-1,-1,-1],"split_conditions":[9.782823E-7,-5.0467838E-2,2.069E3,5.211047E-4,-4.892242E-2,3.2946636E1,5.0429504E-2,1.557894E-2,3.8186535E-2],"split_indices":[1,0,0,16,0,14,0,0,0],"split_type":[0,0,0,0,0,0,0,0,0],"sum_hessian":[2.589805E3,1.23953E3,1.3502749E3,1.3200294E3,3.0245445E1,4.6681046E1,1.2733484E3,1.1637079E1,3.504397E1],"tree_param":{"num_deleted":"0","num_feature":"24","num_nodes":"9","size_leaf_vector":"1"}},{"base_weights":[-1.8571453E-3,-5.044064E-2,9.4883174E-1,9.9521285E-1,-4.882502E-2,7.009132E-1,5.0397303E-2,3.6346775E-2,1.8398706E-3],"categories":[],"categories_nodes":[],"categories_segments":[],"categories_sizes":[],"default_left":[0,0,0,0,0,0,0,0,0],"id":79,"left_children":[1,-1,3,5,-1,7,-1,-1,-1],"loss_changes":[2.326228E3,0E0,1.1258801E2,3.8690186E0,0E0,9.0509224E-1,0E0,0E0,0E0],"parents":[2147483647,0,0,2,2,3,3,5,5],"right_children":[2,-1,4,6,-1,8,-1,-1,-1],"split_conditions":[9.782823E-7,-5.044064E-2,2.069E3,5.211047E-4,-4.882502E-2,1.13662506E2,5.0397303E-2,3.6346775E-2,1.8398706E-3],"split_indices":[1,0,0,16,0,14,0,0,0],"split_type":[0,0,0,0,0,0,0,0,0],"sum_hessian":[2.4279846E3,1.17907E3,1.2489147E3,1.2200079E3,2.8906796E1,5.292026E1,1.1670876E3,5.0833828E1,2.0864353E0],"tree_param":{"num_deleted":"0","num_feature":"24","num_nodes":"9","size_leaf_vector":"1"}},{"base_weights":[7.7845147E-3,-5.0414737E-2,9.485942E-1,9.9425346E-1,-4.872813E-2,6.6083837E-1,5.0371375E-2,2.6309446E-2,4.453772E-2],"categories":[],"categories_nodes":[],"categories_segments":[],"categories_sizes":[],"default_left":[0,0,0,0,0,0,0,0,0],"id":80,"left_children":[1,-1,3,5,-1,7,-1,-1,-1],"loss_changes":[2.2355432E3,0E0,1.0759387E2,4.5461426E0,0E0,1.0175896E0,0E0,0E0,0E0],"parents":[2147483647,0,0,2,2,3,3,5,5],"right_children":[2,-1,4,6,-1,8,-1,-1,-1],"split_conditions":[9.782823E-7,-5.0414737E-2,2.069E3,5.211047E-4,-4.872813E-2,1E0,5.0371375E-2,2.6309446E-2,4.453772E-2],"split_indices":[1,0,0,16,0,9,0,0,0],"split_type":[0,0,0,0,0,0,0,0,0],"sum_hessian":[2.3365874E3,1.1233221E3,1.2132654E3,1.1856E3,2.7665321E1,4.700994E1,1.1385901E3,3.1721169E1,1.5288774E1],"tree_param":{"num_deleted":"0","num_feature":"24","num_nodes":"9","size_leaf_vector":"1"}},{"base_weights":[-6.9469376E-4,-5.0389845E-2,9.4747627E-1,9.936866E-1,-4.860812E-2,5.0341874E-2,7.082747E-1,3.6792055E-2,9.183944E-4],"categories":[],"categories_nodes":[],"categories_segments":[],"categories_sizes":[],"default_left":[0,0,0,0,0,0,0,0,0],"id":81,"left_children":[1,-1,3,5,-1,-1,7,-1,-1],"loss_changes":[2.1023096E3,0E0,1.01557495E2,3.4449463E0,0E0,0E0,9.786339E-1,0E0,0E0],"parents":[2147483647,0,0,2,2,3,3,6,6],"right_children":[2,-1,4,6,-1,-1,8,-1,-1],"split_conditions":[9.782823E-7,-5.0389845E-2,2.069E3,1.917E3,-4.860812E-2,5.0341874E-2,1.13662506E2,3.6792055E-2,9.183944E-4],"split_indices":[1,0,0,0,0,0,14,0,0],"split_type":[0,0,0,0,0,0,0,0,0],"sum_hessian":[2.19959E3,1.0666172E3,1.132973E3,1.1068118E3,2.6161272E1,1.0556434E3,5.116833E1,4.9138348E1,2.0299838E0],"tree_param":{"num_deleted":"0","num_feature":"24","num_nodes":"9","size_leaf_vector":"1"}},{"base_weights":[5.7891235E-3,-5.0366115E-2,9.460937E-1,9.9181765E-1,-4.850897E-2,5.0317165E-2,6.908966E-1,3.587826E-2,8.881648E-4],"categories":[],"categories_nodes":[],"categories_segments":[],"categories_sizes":[],"default_left":[0,0,0,0,0,0,0,0,0],"id":82,"left_children":[1,-1,3,5,-1,-1,7,-1,-1],"loss_changes":[2.0151509E3,0E0,9.708887E1,3.9906006E0,0E0,0E0,9.3068314E-1,0E0,0E0],"parents":[2147483647,0,0,2,2,3,3,6,6],"right_children":[2,-1,4,6,-1,-1,8,-1,-1],"split_conditions":[9.782823E-7,-5.0366115E-2,2.069E3,1.917E3,-4.850897E-2,5.0317165E-2,9E0,3.587826E-2,8.881648E-4],"split_indices":[1,0,0,0,0,0,17,0,0],"split_type":[0,0,0,0,0,0,0,0,0],"sum_hessian":[2.1133474E3,1.01725555E3,1.0960919E3,1.0710189E3,2.507302E1,1.01946454E3,5.1554356E1,4.952619E1,2.0281663E0],"tree_param":{"num_deleted":"0","num_feature":"24","num_nodes":"9","size_leaf_vector":"1"}},{"base_weights":[-6.7898855E-3,-5.03433E-2,9.447368E-1,9.9112236E-1,-4.8376467E-2,6.8851805E-1,5.028912E-2,4.4525745E-3,3.72413E-2],"categories":[],"categories_nodes":[],"categories_segments":[],"categories_sizes":[],"default_left":[0,0,0,0,0,0,0,0,0],"id":83,"left_children":[1,-1,3,5,-1,7,-1,-1,-1],"loss_changes":[1.8920472E3,0E0,9.133496E1,3.7225342E0,0E0,1.5929737E0,0E0,0E0,0E0],"parents":[2147483647,0,0,2,2,3,3,5,5],"right_children":[2,-1,4,6,-1,8,-1,-1,-1],"split_conditions":[9.782823E-7,-5.03433E-2,2.069E3,5.211047E-4,-4.8376467E-2,1.3064182E1,5.028912E-2,4.4525745E-3,3.72413E-2],"split_indices":[1,0,0,16,0,14,0,0,0],"split_type":[0,0,0,0,0,0,0,0,0],"sum_hessian":[1.9862827E3,9.684069E2,1.0178758E3,9.942403E2,2.363548E1,4.8157604E1,9.460827E2,4.3567004E0,4.3800907E1],"tree_param":{"num_deleted":"0","num_feature":"24","num_nodes":"9","size_leaf_vector":"1"}},{"base_weights":[9.4548956E-4,-5.032119E-2,9.4143623E-1,-4.826566E-2,9.870658E-1,5.935432E-1,5.0266694E-2,3.226519E-2,4.286697E-3],"categories":[],"categories_nodes":[],"categories_segments":[],"categories_sizes":[],"default_left":[0,0,0,0,0,0,0,0,0],"id":84,"left_children":[1,-1,3,-1,5,7,-1,-1,-1],"loss_changes":[1.8089331E3,0E0,8.68642E1,0E0,6.3395386E0,1.133914E0,0E0,0E0,0E0],"parents":[2147483647,0,0,2,2,4,4,5,5],"right_children":[2,-1,4,-1,6,8,-1,-1,-1],"split_conditions":[9.782823E-7,-5.032119E-2,4.8379294E-4,-4.826566E-2,5.211047E-4,1.4250446E2,5.0266694E-2,3.226519E-2,4.286697E-3],"split_indices":[1,0,16,0,16,22,0,0,0],"split_type":[0,0,0,0,0,0,0,0,0],"sum_hessian":[1.9073224E3,9.20884E2,9.864385E2,2.2583271E1,9.6385516E2,4.4244892E1,9.196103E2,3.9906494E1,4.338397E0],"tree_param":{"num_deleted":"0","num_feature":"24","num_nodes":"9","size_leaf_vector":"1"}},{"base_weights":[-1.523328E-2,-5.029559E-2,9.138708E-1,3.9210555E-1,9.374528E-1,2.0507333E-1,6.852417E-1,4.826181E-2,8.4547627E-1,-3.2804527E-3,3.1204958E-2,3.611779E-2,1.4007001E-2,4.468092E-2,-1.17102E-2],"categories":[],"categories_nodes":[],"categories_segments":[],"categories_sizes":[],"default_left":[0,0,0,0,0,0,0,0,0,0,0,0,0,0,0],"id":85,"left_children":[1,-1,3,5,7,9,11,-1,13,-1,-1,-1,-1,-1,-1],"loss_changes":[1.6444137E3,0E0,1.0976074E1,2.1394253E0,1.4361572E0,3.082305E0,3.4754753E-2,0E0,1.1255951E1,0E0,0E0,0E0,0E0,0E0,0E0],"parents":[2147483647,0,0,2,2,3,3,4,4,5,5,6,6,8,8],"right_children":[2,-1,4,6,8,10,12,-1,14,-1,-1,-1,-1,-1,-1],"split_conditions":[4.8379294E-4,-5.029559E-2,5.211047E-4,1E0,1.196E3,1E0,1.13662506E2,4.826181E-2,1E0,-3.2804527E-3,3.1204958E-2,3.611779E-2,1.4007001E-2,4.468092E-2,-1.17102E-2],"split_indices":[16,0,16,10,0,9,14,0,11,0,0,0,0,0,0],"split_type":[0,0,0,0,0,0,0,0,0,0,0,0,0,0,0],"sum_hessian":[1.7845461E3,8.6361456E2,9.209315E2,4.0585278E1,8.8034625E2,2.5814323E1,1.4770954E1,6.688208E2,2.1152542E2,1.6195667E1,9.618657E0,1.2813848E1,1.9571066E0,2.0266124E2,8.864174E0],"tree_param":{"num_deleted":"0","num_feature":"24","num_nodes":"15","size_leaf_vector":"1"}},{"base_weights":[3.1477462E-3,-5.028176E-2,9.3960494E-1,9.855268E-1,-4.8053164E-2,5.4080194E-1,5.0281208E-2,1.626034E-2,4.392157E-2],"categories":[],"categories_nodes":[],"categories_segments":[],"categories_sizes":[],"default_left":[0,0,0,0,0,0,0,0,0],"id":86,"left_children":[1,-1,3,5,-1,7,-1,-1,-1],"loss_changes":[1.6432983E3,0E0,7.968439E1,7.333069E0,0E0,2.6455212E0,0E0,0E0,0E0],"parents":[2147483647,0,0,2,2,3,3,5,5],"right_children":[2,-1,4,6,-1,8,-1,-1,-1],"split_conditions":[9.782823E-7,-5.028176E-2,2.069E3,5.211047E-4,-4.8053164E-2,1E0,5.0281208E-2,1.626034E-2,4.392157E-2],"split_indices":[1,0,0,16,0,10,0,0,0],"split_type":[0,0,0,0,0,0,0,0,0],"sum_hessian":[1.7375251E3,8.3642566E2,9.010995E2,8.803119E2,2.0787632E1,3.9268475E1,8.410434E2,2.5163433E1,1.410504E1],"tree_param":{"num_deleted":"0","num_feature":"24","num_nodes":"9","size_leaf_vector":"1"}},{"base_weights":[6.9309524E-3,-5.026209E-2,9.378521E-1,9.8320246E-1,-4.792342E-2,5.502554E-1,5.0200015E-2,1.9767853E-2,4.0229123E-2],"categories":[],"categories_nodes":[],"categories_segments":[],"categories_sizes":[],"default_left":[0,0,0,0,0,0,0,0,0],"id":87,"left_children":[1,-1,3,5,-1,7,-1,-1,-1],"loss_changes":[1.5689503E3,0E0,7.5534485E1,7.079651E0,0E0,1.2995806E0,0E0,0E0,0E0],"parents":[2147483647,0,0,2,2,3,3,5,5],"right_children":[2,-1,4,6,-1,8,-1,-1,-1],"split_conditions":[9.782823E-7,-5.026209E-2,2.069E3,5.211047E-4,-4.792342E-2,1E0,5.0200015E-2,1.9767853E-2,4.0229123E-2],"split_indices":[1,0,0,16,0,10,0,0,0],"split_type":[0,0,0,0,0,0,0,0,0],"sum_hessian":[1.6631049E3,7.967424E2,8.663625E2,8.4659766E2,1.9764784E1,4.0063194E1,8.065345E2,2.6486227E1,1.3576968E1],"tree_param":{"num_deleted":"0","num_feature":"24","num_nodes":"9","size_leaf_vector":"1"}},{"base_weights":[-7.1448493E-3,-5.0242808E-2,9.355665E-1,9.8211193E-1,-4.7786888E-2,4.6480435E-1,5.024122E-2,3.361577E-2,-3.0399699E-2],"categories":[],"categories_nodes":[],"categories_segments":[],"categories_sizes":[],"default_left":[0,0,0,0,0,0,0,0,0],"id":88,"left_children":[1,-1,3,5,-1,7,-1,-1,-1],"loss_changes":[1.4674417E3,0E0,7.155841E1,8.737732E0,0E0,8.158266E0,0E0,0E0,0E0],"parents":[2147483647,0,0,2,2,3,3,5,5],"right_children":[2,-1,4,6,-1,8,-1,-1,-1],"split_conditions":[9.782818E-7,-5.0242808E-2,2.069E3,5.211047E-4,-4.7786888E-2,5.8257473E1,5.024122E-2,3.361577E-2,-3.0399699E-2],"split_indices":[15,0,0,16,0,22,0,0,0],"split_type":[0,0,0,0,0,0,0,0,0],"sum_hessian":[1.5581895E3,7.569798E2,8.0120966E2,7.824345E2,1.877516E1,3.381084E1,7.4862366E2,2.8643621E1,5.1672196E0],"tree_param":{"num_deleted":"0","num_feature":"24","num_nodes":"9","size_leaf_vector":"1"}},{"base_weights":[-5.9664184E-3,-5.0224464E-2,9.37011E-1,9.835342E-1,-4.7656253E-2,6.290838E-1,5.0221886E-2,2.388457E-2,4.403477E-2],"categories":[],"categories_nodes":[],"categories_segments":[],"categories_sizes":[],"default_left":[0,0,0,0,0,0,0,0,0],"id":89,"left_children":[1,-1,3,5,-1,7,-1,-1,-1],"loss_changes":[1.4026846E3,0E0,6.8310425E1,4.9121094E0,0E0,1.2685394E0,0E0,0E0,0E0],"parents":[2147483647,0,0,2,2,3,3,5,5],"right_children":[2,-1,4,6,-1,8,-1,-1,-1],"split_conditions":[9.782823E-7,-5.0224464E-2,2.069E3,5.211047E-4,-4.7656253E-2,1E0,5.0221886E-2,2.388457E-2,4.403477E-2],"split_indices":[1,0,0,16,0,10,0,0,0],"split_type":[0,0,0,0,0,0,0,0,0],"sum_hessian":[1.4877068E3,7.225404E2,7.651664E2,7.472534E2,1.7913008E1,4.3346203E1,7.039072E2,2.8872442E1,1.4473761E1],"tree_param":{"num_deleted":"0","num_feature":"24","num_nodes":"9","size_leaf_vector":"1"}},{"base_weights":[1.4211351E-2,-5.020641E-2,9.3661374E-1,9.816724E-1,-4.7536235E-2,5.0135333E-2,6.2657803E-1,3.4228515E-2,3.136821E-3],"categories":[],"categories_nodes":[],"categories_segments":[],"categories_sizes":[],"default_left":[0,0,0,0,0,0,0,0,0],"id":90,"left_children":[1,-1,3,5,-1,-1,7,-1,-1],"loss_changes":[1.357506E3,0E0,6.542096E1,4.9073486E0,0E0,0E0,1.3994408E0,0E0,0E0],"parents":[2147483647,0,0,2,2,3,3,6,6],"right_children":[2,-1,4,6,-1,-1,8,-1,-1],"split_conditions":[9.782823E-7,-5.020641E-2,2.069E3,1.917E3,-4.7536235E-2,5.0135333E-2,1.4250446E2,3.4228515E-2,3.136821E-3],"split_indices":[1,0,0,0,0,0,22,0,0],"split_type":[0,0,0,0,0,0,0,0,0],"sum_hessian":[1.4432012E3,6.858874E2,7.573137E2,7.401238E2,1.7189983E1,6.97012E2,4.311175E1,3.8896996E1,4.2147536E0],"tree_param":{"num_deleted":"0","num_feature":"24","num_nodes":"9","size_leaf_vector":"1"}},{"base_weights":[4.0488387E-3,-5.0189048E-2,9.296979E-1,9.754557E-1,-4.7405344E-2,4.811222E-1,5.011305E-2,1.1413994E-2,4.0935628E-2],"categories":[],"categories_nodes":[],"categories_segments":[],"categories_sizes":[],"default_left":[0,0,0,0,0,0,0,0,0],"id":91,"left_children":[1,-1,3,5,-1,7,-1,-1,-1],"loss_changes":[1.274348E3,0E0,6.2105957E1,8.734802E0,0E0,3.03119E0,0E0,0E0,0E0],"parents":[2147483647,0,0,2,2,3,3,5,5],"right_children":[2,-1,4,6,-1,8,-1,-1,-1],"split_conditions":[9.782818E-7,-5.0189048E-2,2.069E3,5.211047E-4,-4.7405344E-2,1E0,5.011305E-2,1.1413994E-2,4.0935628E-2],"split_indices":[15,0,0,16,0,10,0,0,0],"split_type":[0,0,0,0,0,0,0,0,0],"sum_hessian":[1.3640117E3,6.5297736E2,7.110343E2,6.9458923E2,1.644504E1,3.6701427E1,6.578878E2,2.1943089E1,1.4758338E1],"tree_param":{"num_deleted":"0","num_feature":"24","num_nodes":"9","size_leaf_vector":"1"}},{"base_weights":[4.3604984E-3,-5.017221E-2,9.302304E-1,9.7521704E-1,-4.7208216E-2,4.995907E-1,5.0092258E-2,3.177521E-2,7.30928E-3],"categories":[],"categories_nodes":[],"categories_segments":[],"categories_sizes":[],"default_left":[0,0,0,0,0,0,0,0,0],"id":92,"left_children":[1,-1,3,5,-1,7,-1,-1,-1],"loss_changes":[1.2136118E3,0E0,5.8080505E1,7.8897095E0,0E0,1.6899223E0,0E0,0E0,0E0],"parents":[2147483647,0,0,2,2,3,3,5,5],"right_children":[2,-1,4,6,-1,8,-1,-1,-1],"split_conditions":[9.782823E-7,-5.017221E-2,2.069E3,5.211047E-4,-4.7208216E-2,1.036732E-5,5.0092258E-2,3.177521E-2,7.30928E-3],"split_indices":[1,0,0,16,0,1,0,0,0],"split_type":[0,0,0,0,0,0,0,0,0],"sum_hessian":[1.2986287E3,6.2176105E2,6.768676E2,6.614716E2,1.5396034E1,3.6117035E1,6.2535455E2,2.5508629E1,1.0608409E1],"tree_param":{"num_deleted":"0","num_feature":"24","num_nodes":"9","size_leaf_vector":"1"}},{"base_weights":[-1.0512192E-3,-5.015557E-2,9.263433E-1,9.7298324E-1,-4.713278E-2,5.0070453E-2,4.4109353E-1,-4.8338305E-2,2.940366E-2],"categories":[],"categories_nodes":[],"categories_segments":[],"categories_sizes":[],"default_left":[0,0,0,0,0,0,0,0,0],"id":93,"left_children":[1,-1,3,5,-1,-1,7,-1,-1],"loss_changes":[1.1431901E3,0E0,5.66084E1,8.990112E0,0E0,0E0,7.487054E0,0E0,0E0],"parents":[2147483647,0,0,2,2,3,3,6,6],"right_children":[2,-1,4,6,-1,-1,8,-1,-1],"split_conditions":[9.782823E-7,-5.015557E-2,2.069E3,1.917E3,-4.713278E-2,5.0070453E-2,2.2457052E1,-4.8338305E-2,2.940366E-2],"split_indices":[1,0,0,0,0,0,14,0,0],"split_type":[0,0,0,0,0,0,0,0,0],"sum_hessian":[1.2281559E3,5.9027527E2,6.378807E2,6.22818E2,1.5062708E1,5.903833E2,3.2434658E1,2.5388143E0,2.9895844E1],"tree_param":{"num_deleted":"0","num_feature":"24","num_nodes":"9","size_leaf_vector":"1"}},{"base_weights":[4.284307E-3,-5.0139565E-2,9.248868E-1,9.700939E-1,-4.6921186E-2,5.005158E-2,4.4835666E-1,2.756812E-2,-6.7421193E-3],"categories":[],"categories_nodes":[],"categories_segments":[],"categories_sizes":[],"default_left":[0,0,0,0,0,0,0,0,0],"id":94,"left_children":[1,-1,3,5,-1,-1,7,-1,-1],"loss_changes":[1.0929559E3,0E0,5.2788696E1,9.264832E0,0E0,0E0,2.206802E0,0E0,0E0],"parents":[2147483647,0,0,2,2,3,3,6,6],"right_children":[2,-1,4,6,-1,-1,8,-1,-1],"split_conditions":[9.782823E-7,-5.0139565E-2,2.069E3,1.917E3,-4.6921186E-2,5.005158E-2,6.3480274E1,2.756812E-2,-6.7421193E-3],"split_indices":[1,0,0,0,0,0,14,0,0],"split_type":[0,0,0,0,0,0,0,0,0],"sum_hessian":[1.1768765E3,5.619991E2,6.1487744E2,6.007808E2,1.4096597E1,5.66283E2,3.4497807E1,2.9365757E1,5.1320486E0],"tree_param":{"num_deleted":"0","num_feature":"24","num_nodes":"9","size_leaf_vector":"1"}},{"base_weights":[1.2778838E-2,-5.012381E-2,9.269384E-1,9.720888E-1,-4.6793792E-2,5.101799E-1,5.0033778E-2,1.2517336E-2,4.3581348E-2],"categories":[],"categories_nodes":[],"categories_segments":[],"categories_sizes":[],"default_left":[0,0,0,0,0,0,0,0,0],"id":95,"left_children":[1,-1,3,5,-1,7,-1,-1,-1],"loss_changes":[1.0492152E3,0E0,5.0941193E1,7.164917E0,0E0,3.1550007E0,0E0,0E0,0E0],"parents":[2147483647,0,0,2,2,3,3,5,5],"right_children":[2,-1,4,6,-1,8,-1,-1,-1],"split_conditions":[9.782823E-7,-5.012381E-2,2.069E3,5.211047E-4,-4.6793792E-2,1E0,5.0033778E-2,1.2517336E-2,4.3581348E-2],"split_indices":[1,0,0,16,0,10,0,0,0],"split_type":[0,0,0,0,0,0,0,0,0],"sum_hessian":[1.1284906E3,5.3463477E2,5.9385583E2,5.802696E2,1.3586269E1,3.4917316E1,5.4535223E2,2.1298851E1,1.3618465E1],"tree_param":{"num_deleted":"0","num_feature":"24","num_nodes":"9","size_leaf_vector":"1"}},{"base_weights":[-2.2351528E-3,-5.010848E-2,9.285542E-1,9.746793E-1,-4.6579186E-2,5.251916E-1,5.0106805E-2,1.6818294E-2,4.188203E-2],"categories":[],"categories_nodes":[],"categories_segments":[],"categories_sizes":[],"default_left":[0,0,0,0,0,0,0,0,0],"id":96,"left_children":[1,-1,3,5,-1,7,-1,-1,-1],"loss_changes":[9.846174E2,0E0,4.791678E1,6.0779724E0,0E0,1.6597328E0,0E0,0E0,0E0],"parents":[2147483647,0,0,2,2,3,3,5,5],"right_children":[2,-1,4,6,-1,8,-1,-1,-1],"split_conditions":[9.782823E-7,-5.010848E-2,2.069E3,5.211047E-4,-4.6579186E-2,1E0,5.0106805E-2,1.6818294E-2,4.188203E-2],"split_indices":[1,0,0,16,0,10,0,0,0],"split_type":[0,0,0,0,0,0,0,0,0],"sum_hessian":[1.0559001E3,5.090056E2,5.4689453E2,5.3412604E2,1.2768489E1,3.190745E1,5.022186E2,2.1182526E1,1.0724923E1],"tree_param":{"num_deleted":"0","num_feature":"24","num_nodes":"9","size_leaf_vector":"1"}},{"base_weights":[-4.932447E-4,-5.009337E-2,9.230518E-1,9.6939564E-1,-4.645901E-2,4.99874E-2,5.355354E-1,1.7759321E-2,4.2327996E-2],"categories":[],"categories_nodes":[],"categories_segments":[],"categories_sizes":[],"default_left":[0,0,0,0,0,0,0,0,0],"id":97,"left_children":[1,-1,3,5,-1,-1,7,-1,-1],"loss_changes":[9.359946E2,0E0,4.6095703E1,6.2352295E0,0E0,0E0,1.7057962E0,0E0,0E0],"parents":[2147483647,0,0,2,2,3,3,6,6],"right_children":[2,-1,4,6,-1,-1,8,-1,-1],"split_conditions":[9.782823E-7,-5.009337E-2,2.069E3,1.917E3,-4.645901E-2,4.99874E-2,1E0,1.7759321E-2,4.2327996E-2],"split_indices":[1,0,0,0,0,0,10,0,0],"split_type":[0,0,0,0,0,0,0,0,0],"sum_hessian":[1.0100894E3,4.8458383E2,5.255056E2,5.131431E2,1.2362487E1,4.7837244E2,3.4770687E1,2.3364605E1,1.1406083E1],"tree_param":{"num_deleted":"0","num_feature":"24","num_nodes":"9","size_leaf_vector":"1"}},{"base_weights":[1.1318018E-4,-5.007819E-2,9.227573E-1,9.6920735E-1,-4.6274677E-2,4.7987688E-1,4.9968626E-2,2.8839028E-2,-2.2278368E-2],"categories":[],"categories_nodes":[],"categories_segments":[],"categories_sizes":[],"default_left":[0,0,0,0,0,0,0,0,0],"id":98,"left_children":[1,-1,3,5,-1,7,-1,-1,-1],"loss_changes":[8.8759094E2,0E0,4.3815826E1,6.7259216E0,0E0,2.971487E0,0E0,0E0,0E0],"parents":[2147483647,0,0,2,2,3,3,5,5],"right_children":[2,-1,4,6,-1,8,-1,-1,-1],"split_conditions":[9.782823E-7,-5.007819E-2,2.069E3,5.211047E-4,-4.6274677E-2,7.869122E1,4.9968626E-2,2.8839028E-2,-2.2278368E-2],"split_indices":[1,0,0,16,0,22,0,0,0],"split_type":[0,0,0,0,0,0,0,0,0],"sum_hessian":[9.583974E2,4.5947678E2,4.9892062E2,4.8715317E2,1.1767472E1,2.9268988E1,4.578842E2,2.6835754E1,2.4332318E0],"tree_param":{"num_deleted":"0","num_feature":"24","num_nodes":"9","size_leaf_vector":"1"}},{"base_weights":[1.4501001E-3,-5.006383E-2,9.135986E-1,9.5951873E-1,-4.6114467E-2,3.8534987E-1,4.995043E-2,1.0503772E-2,3.6120627E-2],"categories":[],"categories_nodes":[],"categories_segments":[],"categories_sizes":[],"default_left":[0,0,0,0,0,0,0,0,0],"id":99,"left_children":[1,-1,3,5,-1,7,-1,-1,-1],"loss_changes":[8.434348E2,0E0,4.15943E1,1.0307831E1,0E0,1.7373095E0,0E0,0E0,0E0],"parents":[2147483647,0,0,2,2,3,3,5,5],"right_children":[2,-1,4,6,-1,8,-1,-1,-1],"split_conditions":[9.782823E-7,-5.006383E-2,2.069E3,5.211047E-4,-4.6114467E-2,1E0,4.995043E-2,1.0503772E-2,3.6120627E-2],"split_indices":[1,0,0,16,0,10,0,0,0],"split_type":[0,0,0,0,0,0,0,0,0],"sum_hessian":[9.2015375E2,4.3826758E2,4.8188614E2,4.705928E2,1.1293339E1,3.097561E1,4.396172E2,2.1446545E1,9.529067E0],"tree_param":{"num_deleted":"0","num_feature":"24","num_nodes":"9","size_leaf_vector":"1"}},{"base_weights":[4.423648E-3,-5.0049502E-2,9.197789E-1,9.657571E-1,-4.591043E-2,3.8234907E-1,4.9933102E-2,-6.317842E-2,2.908842E-2],"categories":[],"categories_nodes":[],"categories_segments":[],"categories_sizes":[],"default_left":[0,0,0,0,0,0,0,0,0],"id":100,"left_children":[1,-1,3,5,-1,7,-1,-1,-1],"loss_changes":[8.081762E2,0E0,3.973163E1,8.236328E0,0E0,9.134079E0,0E0,0E0,0E0],"parents":[2147483647,0,0,2,2,3,3,5,5],"right_children":[2,-1,4,6,-1,8,-1,-1,-1],"split_conditions":[9.782818E-7,-5.0049502E-2,2.069E3,5.211047E-4,-4.591043E-2,2.560222E1,4.9933102E-2,-6.317842E-2,2.908842E-2],"split_indices":[15,0,0,16,0,14,0,0,0],"split_type":[0,0,0,0,0,0,0,0,0],"sum_hessian":[8.7615546E2,4.1749316E2,4.5866232E2,4.4793164E2,1.0730686E1,2.458886E1,4.2334277E2,2.080566E0,2.2508295E1],"tree_param":{"num_deleted":"0","num_feature":"24","num_nodes":"9","size_leaf_vector":"1"}},{"base_weights":[-7.2265333E-3,-5.003505E-2,9.101299E-1,-4.568129E-2,9.563049E-1,4.4737175E-1,4.9902763E-2,1.0596871E-2,4.2179517E-2],"categories":[],"categories_nodes":[],"categories_segments":[],"categories_sizes":[],"default_left":[0,0,0,0,0,0,0,0,0],"id":101,"left_children":[1,-1,3,-1,5,7,-1,-1,-1],"loss_changes":[7.554469E2,0E0,3.7166565E1,0E0,8.495117E0,2.9664378E0,0E0,0E0,0E0],"parents":[2147483647,0,0,2,2,4,4,5,5],"right_children":[2,-1,4,-1,6,8,-1,-1,-1],"split_conditions":[9.782823E-7,-5.003505E-2,4.8379294E-4,-4.568129E-2,5.211047E-4,1E0,4.9902763E-2,1.0596871E-2,4.2179517E-2],"split_indices":[1,0,16,0,16,21,0,0,0],"split_type":[0,0,0,0,0,0,0,0,0],"sum_hessian":[8.26914E2,3.969433E2,4.299707E2,1.0153559E1,4.1981714E2,3.2716873E1,3.8710025E2,2.14852E1,1.1231674E1],"tree_param":{"num_deleted":"0","num_feature":"24","num_nodes":"9","size_leaf_vector":"1"}},{"base_weights":[-1.2271396E-2,-5.0020665E-2,9.063009E-1,9.530951E-1,-4.549667E-2,3.3766177E-1,4.988216E-2,3.3435162E-2,4.7888826E-3],"categories":[],"categories_nodes":[],"categories_segments":[],"categories_sizes":[],"default_left":[0,0,0,0,0,0,0,0,0],"id":102,"left_children":[1,-1,3,5,-1,7,-1,-1,-1],"loss_changes":[7.125731E2,0E0,3.5445404E1,1.0550781E1,0E0,2.2034016E0,0E0,0E0,0E0],"parents":[2147483647,0,0,2,2,3,3,5,5],"right_children":[2,-1,4,6,-1,8,-1,-1,-1],"split_conditions":[9.782823E-7,-5.0020665E-2,2.069E3,5.211047E-4,-4.549667E-2,3.918402E-6,4.988216E-2,3.3435162E-2,4.7888826E-3],"split_indices":[1,0,0,16,0,1,0,0,0],"split_type":[0,0,0,0,0,0,0,0,0],"sum_hessian":[7.8305005E2,3.7719666E2,4.058534E2,3.9612277E2,9.730634E0,2.7317019E1,3.6880576E2,1.0788021E1,1.6528997E1],"tree_param":{"num_deleted":"0","num_feature":"24","num_nodes":"9","size_leaf_vector":"1"}},{"base_weights":[2.7077182E-3,-5.000643E-2,9.1330445E-1,-4.5319658E-2,9.596231E-1,4.585502E-1,5.000524E-2,2.7962519E-2,-6.8971165E-3],"categories":[],"categories_nodes":[],"categories_segments":[],"categories_sizes":[],"default_left":[0,0,0,0,0,0,0,0,0],"id":103,"left_children":[1,-1,3,-1,5,7,-1,-1,-1],"loss_changes":[6.9067834E2,0E0,3.4280853E1,0E0,7.3923645E0,1.9259362E0,0E0,0E0,0E0],"parents":[2147483647,0,0,2,2,4,4,5,5],"right_children":[2,-1,4,-1,6,8,-1,-1,-1],"split_conditions":[9.782823E-7,-5.000643E-2,4.8379294E-4,-4.5319658E-2,5.211047E-4,6.3480274E1,5.000524E-2,2.7962519E-2,-6.8971165E-3],"split_indices":[1,0,16,0,16,14,0,0,0],"split_type":[0,0,0,0,0,0,0,0,0],"sum_hessian":[7.5434436E2,3.589433E2,3.9540106E2,9.353811E0,3.8604724E2,2.9778881E1,3.5626837E2,2.5531137E1,4.247743E0],"tree_param":{"num_deleted":"0","num_feature":"24","num_nodes":"9","size_leaf_vector":"1"}},{"base_weights":[5.3990516E-4,-4.9992274E-2,9.0655196E-1,9.5197564E-1,-4.503139E-2,4.9842853E-2,4.4165173E-1,2.4328757E-2,-2.0872768E-2],"categories":[],"categories_nodes":[],"categories_segments":[],"categories_sizes":[],"default_left":[0,0,0,0,0,0,0,0,0],"id":104,"left_children":[1,-1,3,5,-1,-1,7,-1,-1],"loss_changes":[6.531117E2,0E0,3.1897552E1,8.019196E0,0E0,0E0,1.4247117E0,0E0,0E0],"parents":[2147483647,0,0,2,2,3,3,6,6],"right_children":[2,-1,4,6,-1,-1,8,-1,-1],"split_conditions":[9.782818E-7,-4.9992274E-2,2.069E3,1.917E3,-4.503139E-2,4.9842853E-2,1.13662506E2,2.4328757E-2,-2.0872768E-2],"split_indices":[15,0,0,0,0,0,14,0,0],"split_type":[0,0,0,0,0,0,0,0,0],"sum_hessian":[7.185864E2,3.414577E2,3.7712872E2,3.6834357E2,8.785144E0,3.3769128E2,3.0652283E1,2.9541178E1,1.1111051E0],"tree_param":{"num_deleted":"0","num_feature":"24","num_nodes":"9","size_leaf_vector":"1"}},{"base_weights":[8.696335E-3,-4.9978707E-2,9.026015E-1,-3.8161047E-2,4.998194E-2,2.6768103E-1,-4.4892848E-2,2.2714143E-3,3.8166262E-2],"categories":[],"categories_nodes":[],"categories_segments":[],"categories_sizes":[],"default_left":[0,0,0,0,0,0,0,0,0],"id":105,"left_children":[1,-1,3,5,-1,7,-1,-1,-1],"loss_changes":[6.276278E2,0E0,3.3733734E1,9.568077E0,0E0,2.9326854E0,0E0,0E0,0E0],"parents":[2147483647,0,0,2,2,3,3,5,5],"right_children":[2,-1,4,6,-1,8,-1,-1,-1],"split_conditions":[9.782823E-7,-4.9978707E-2,5.211047E-4,2.069E3,4.998194E-2,1E0,-4.4892848E-2,2.2714143E-3,3.8166262E-2],"split_indices":[1,0,16,0,0,10,0,0,0],"split_type":[0,0,0,0,0,0,0,0,0],"sum_hessian":[6.943589E2,3.2625027E2,3.681086E2,3.4475964E1,3.3363266E2,2.5937258E1,8.538706E0,1.8661068E1,7.2761903E0],"tree_param":{"num_deleted":"0","num_feature":"24","num_nodes":"9","size_leaf_vector":"1"}},{"base_weights":[-1.5801818E-3,-4.9963903E-2,9.056063E-1,-4.4650055E-2,9.521707E-1,4.9329442E-1,9.959018E-1,1.6251834E-2,4.041942E-2,2.0959606E-2,4.995869E-2],"categories":[],"categories_nodes":[],"categories_segments":[],"categories_sizes":[],"default_left":[0,0,0,0,0,0,0,0,0,0,0],"id":106,"left_children":[1,-1,3,-1,5,7,9,-1,-1,-1,-1],"loss_changes":[5.896934E2,0E0,2.9429688E1,0E0,6.1933594E0,1.3789277E0,1.5319824E-1,0E0,0E0,0E0,0E0],"parents":[2147483647,0,0,2,2,4,4,5,5,6,6],"right_children":[2,-1,4,-1,6,8,10,-1,-1,-1,-1],"split_conditions":[9.782823E-7,-4.9963903E-2,4.8379294E-4,-4.4650055E-2,5.211047E-4,1E0,1.055286E-6,1.6251834E-2,4.041942E-2,2.0959606E-2,4.995869E-2],"split_indices":[1,0,16,0,16,10,1,0,0,0,0],"split_type":[0,0,0,0,0,0,0,0,0,0,0],"sum_hessian":[6.4952466E2,3.0928278E2,3.4024188E2,8.127545E0,3.3211432E2,2.9965242E1,3.0214908E2,2.0858513E1,9.10673E0,2.4329913E0,2.997161E2],"tree_param":{"num_deleted":"0","num_feature":"24","num_nodes":"11","size_leaf_vector":"1"}},{"base_weights":[4.982915E-3,-4.9949672E-2,8.954399E-1,9.4154567E-1,-4.450223E-2,4.9781717E-2,3.6612725E-1,2.4395654E-2,-1.17762815E-2],"categories":[],"categories_nodes":[],"categories_segments":[],"categories_sizes":[],"default_left":[0,0,0,0,0,0,0,0,0],"id":107,"left_children":[1,-1,3,5,-1,-1,7,-1,-1],"loss_changes":[5.6178955E2,0E0,2.8253052E1,9.754639E0,0E0,0E0,2.277736E0,0E0,0E0],"parents":[2147483647,0,0,2,2,3,3,6,6],"right_children":[2,-1,4,6,-1,-1,8,-1,-1],"split_conditions":[9.782823E-7,-4.9949672E-2,2.069E3,1.917E3,-4.450223E-2,4.9781717E-2,6.3480274E1,2.4395654E-2,-1.17762815E-2],"split_indices":[1,0,0,0,0,0,14,0,0],"split_type":[0,0,0,0,0,0,0,0,0],"sum_hessian":[6.2640094E2,2.943754E2,3.3202554E2,3.241284E2,7.897157E0,2.9561102E2,2.8517363E1,2.3873886E1,4.6434765E0],"tree_param":{"num_deleted":"0","num_feature":"24","num_nodes":"9","size_leaf_vector":"1"}},{"base_weights":[-4.2727734E-3,-4.993546E-2,8.9671886E-1,9.435232E-1,-4.4213336E-2,3.2970518E-1,4.9754936E-2,8.158493E-3,3.6208145E-2],"categories":[],"categories_nodes":[],"categories_segments":[],"categories_sizes":[],"default_left":[0,0,0,0,0,0,0,0,0],"id":108,"left_children":[1,-1,3,5,-1,7,-1,-1,-1],"loss_changes":[5.3048224E2,0E0,2.6727936E1,9.269409E0,0E0,1.5237172E0,0E0,0E0,0E0],"parents":[2147483647,0,0,2,2,3,3,5,5],"right_children":[2,-1,4,6,-1,8,-1,-1,-1],"split_conditions":[9.782818E-7,-4.993546E-2,2.069E3,5.211047E-4,-4.4213336E-2,1E0,4.9754936E-2,8.158493E-3,3.6208145E-2],"split_indices":[15,0,0,16,0,10,0,0,0],"split_type":[0,0,0,0,0,0,0,0,0],"sum_hessian":[5.9007043E2,2.804384E2,3.0963202E2,3.0216144E2,7.470593E0,2.3993916E1,2.781675E2,1.786513E1,6.128787E0],"tree_param":{"num_deleted":"0","num_feature":"24","num_nodes":"9","size_leaf_vector":"1"}},{"base_weights":[4.401947E-3,-4.992077E-2,8.890117E-1,6.712697E-2,9.947095E-1,3.4035423E-1,-4.4051576E-2,4.8528728E-1,4.9919482E-2,2.2356633E-2,-1.607803E-2,3.2187663E-2,1.920981E-3],"categories":[],"categories_nodes":[],"categories_segments":[],"categories_sizes":[],"default_left":[0,0,0,0,0,0,0,0,0,0,0,0,0],"id":109,"left_children":[1,-1,3,5,7,9,-1,11,-1,-1,-1,-1,-1],"loss_changes":[5.0654874E2,0E0,2.6288788E1,9.533669E0,1.9317627E-2,2.1504056E0,0E0,2.4954748E-1,0E0,0E0,0E0,0E0,0E0],"parents":[2147483647,0,0,2,2,3,3,4,4,5,5,7,7],"right_children":[2,-1,4,6,8,10,-1,12,-1,-1,-1,-1,-1],"split_conditions":[9.782823E-7,-4.992077E-2,5.211047E-4,2.069E3,1.055286E-6,6.3480274E1,-4.4051576E-2,3.1225105E1,4.9919482E-2,2.2356633E-2,-1.607803E-2,3.2187663E-2,1.920981E-3],"split_indices":[1,0,16,0,1,14,0,14,0,0,0,0,0],"split_type":[0,0,0,0,0,0,0,0,0,0,0,0,0],"sum_hessian":[5.690146E2,2.666286E2,3.02386E2,3.4643127E1,2.6774286E2,2.7391E1,7.2521257E0,2.8732872E0,2.648696E2,2.3865557E1,3.5254447E0,1.7958586E0,1.0774286E0],"tree_param":{"num_deleted":"0","num_feature":"24","num_nodes":"13","size_leaf_vector":"1"}},{"base_weights":[-1.1553356E-2,-4.990159E-2,8.5785747E-1,2.3055747E-1,9.214329E-1,3.6526784E-1,-4.203349E-1,4.7587648E-2,8.171294E-1,-4.458974E-3,2.3069285E-2,-5.9268374E-2,9.35862E-3,4.357086E-2,-5.8245338E-3],"categories":[],"categories_nodes":[],"categories_segments":[],"categories_sizes":[],"default_left":[0,0,0,0,0,0,0,0,0,0,0,0,0,0,0],"id":110,"left_children":[1,-1,3,5,7,9,11,-1,13,-1,-1,-1,-1,-1,-1],"loss_changes":[4.58976E2,0E0,1.1132111E1,2.5656943E0,3.807068E-2,1.0601282E0,2.6303887E0,0E0,3.4043922E0,0E0,0E0,0E0,0E0,0E0,0E0],"parents":[2147483647,0,0,2,2,3,3,4,4,5,5,6,6,8,8],"right_children":[2,-1,4,6,8,10,12,-1,14,-1,-1,-1,-1,-1,-1],"split_conditions":[4.8379294E-4,-4.990159E-2,5.211047E-4,6.3480274E1,1.196E3,1.3064182E1,9.64796E1,4.7587648E-2,1E0,-4.458974E-3,2.3069285E-2,-5.9268374E-2,9.35862E-3,4.357086E-2,-5.8245338E-3],"split_indices":[16,0,16,14,0,14,14,0,11,0,0,0,0,0,0],"split_type":[0,0,0,0,0,0,0,0,0,0,0,0,0,0,0],"sum_hessian":[5.3315393E2,2.4969226E2,2.8346167E2,2.6510332E1,2.5695135E2,2.2328075E1,4.1822567E0,1.9278558E2,6.416577E1,3.9106457E0,1.841743E1,1.4301159E0,2.7521405E0,6.0702675E1,3.4630973E0],"tree_param":{"num_deleted":"0","num_feature":"24","num_nodes":"15","size_leaf_vector":"1"}},{"base_weights":[-8.194416E-3,-4.989275E-2,8.8324636E-1,-2.1842256E-1,4.9690988E-2,1.831943E-1,-7.713793E-1,3.826342E-2,-1.3714827E-3,2.6264329E-2,-7.727546E-2],"categories":[],"categories_nodes":[],"categories_segments":[],"categories_sizes":[],"default_left":[0,0,0,0,0,0,0,0,0,0,0],"id":111,"left_children":[1,-1,3,5,-1,7,9,-1,-1,-1,-1],"loss_changes":[4.5336142E2,0E0,3.315146E1,5.799989E0,0E0,1.9296494E0,1.1765564E1,0E0,0E0,0E0,0E0],"parents":[2147483647,0,0,2,2,3,3,5,5,6,6],"right_children":[2,-1,4,6,-1,8,10,-1,-1,-1,-1],"split_conditions":[9.782823E-7,-4.989275E-2,5.211047E-4,5.8257473E1,4.9690988E-2,3.919439E1,6.028475E0,3.826342E-2,-1.3714827E-3,2.6264329E-2,-7.727546E-2],"split_indices":[1,0,16,22,0,14,14,0,0,0,0],"split_type":[0,0,0,0,0,0,0,0,0,0,0],"sum_hessian":[5.1188583E2,2.4252255E2,2.6936328E2,2.4480726E1,2.4488257E2,1.4568332E1,9.912395E0,3.1711884E0,1.1397143E1,3.8257391E0,6.086655E0],"tree_param":{"num_deleted":"0","num_feature":"24","num_nodes":"11","size_leaf_vector":"1"}},{"base_weights":[2.0780426E-3,-4.9877364E-2,8.968916E-1,9.4332266E-1,-4.3122027E-2,5.2829117E-1,4.964741E-2,3.2670707E-2,-1.1600471E-2],"categories":[],"categories_nodes":[],"categories_segments":[],"categories_sizes":[],"default_left":[0,0,0,0,0,0,0,0,0],"id":112,"left_children":[1,-1,3,5,-1,7,-1,-1,-1],"loss_changes":[4.3847574E2,0E0,2.1942947E1,4.675705E0,0E0,2.920168E0,0E0,0E0,0E0],"parents":[2147483647,0,0,2,2,3,3,5,5],"right_children":[2,-1,4,6,-1,8,-1,-1,-1],"split_conditions":[9.782823E-7,-4.9877364E-2,2.069E3,5.211047E-4,-4.3122027E-2,6.3480274E1,4.964741E-2,3.2670707E-2,-1.1600471E-2],"split_indices":[1,0,0,16,0,14,0,0,0],"split_type":[0,0,0,0,0,0,0,0,0],"sum_hessian":[4.8820255E2,2.305419E2,2.5766068E2,2.514874E2,6.173259E0,2.810268E1,2.2338472E2,2.4252089E1,3.8505917E0],"tree_param":{"num_deleted":"0","num_feature":"24","num_nodes":"9","size_leaf_vector":"1"}},{"base_weights":[-3.86046E-3,-4.986165E-2,8.719659E-1,-2.7192414E-2,4.986044E-2,1.9263084E-1,-4.273201E-2,4.9991364E-4,3.0855432E-2],"categories":[],"categories_nodes":[],"categories_segments":[],"categories_sizes":[],"default_left":[0,0,0,0,0,0,0,0,0],"id":113,"left_children":[1,-1,3,5,-1,7,-1,-1,-1],"loss_changes":[4.0885895E2,0E0,2.8152176E1,5.895636E0,0E0,1.9869785E0,0E0,0E0,0E0],"parents":[2147483647,0,0,2,2,3,3,5,5],"right_children":[2,-1,4,6,-1,8,-1,-1,-1],"split_conditions":[9.782823E-7,-4.986165E-2,5.211047E-4,2.069E3,4.986044E-2,1E0,-4.273201E-2,4.9991364E-4,3.0855432E-2],"split_indices":[1,0,16,0,0,10,0,0,0],"split_type":[0,0,0,0,0,0,0,0,0],"sum_hessian":[4.6794156E2,2.1919237E2,2.4874919E2,3.0507692E1,2.182415E2,2.4710258E1,5.797432E0,1.7992498E1,6.7177606E0],"tree_param":{"num_deleted":"0","num_feature":"24","num_nodes":"9","size_leaf_vector":"1"}},{"base_weights":[-2.9753721E-3,-4.984603E-2,8.71471E-1,-6.5279074E-2,4.984649E-2,-1.0446132E0,1.4811027E-1,-8.754387E-2,2.4733037E-2,-4.461398E-3,3.5681285E-2],"categories":[],"categories_nodes":[],"categories_segments":[],"categories_sizes":[],"default_left":[0,0,0,0,0,0,0,0,0,0,0],"id":114,"left_children":[1,-1,3,5,-1,7,9,-1,-1,-1,-1],"loss_changes":[3.8957135E2,0E0,2.8088058E1,6.2363634E0,0E0,6.66131E0,3.3883872E0,0E0,0E0,0E0,0E0],"parents":[2147483647,0,0,2,2,3,3,5,5,6,6],"right_children":[2,-1,4,6,-1,8,10,-1,-1,-1,-1],"split_conditions":[9.782823E-7,-4.984603E-2,5.211047E-4,2.715786E-6,4.984649E-2,6.689423E1,1E0,-8.754387E-2,2.4733037E-2,-4.461398E-3,3.5681285E-2],"split_indices":[1,0,16,1,0,14,10,0,0,0,0],"split_type":[0,0,0,0,0,0,0,0,0,0,0],"sum_hessian":[4.4622058E2,2.0877501E2,2.3744556E2,2.8101639E1,2.0934392E2,4.330732E0,2.3770906E1,2.8744023E0,1.4563297E0,1.7337034E1,6.4338717E0],"tree_param":{"num_deleted":"0","num_feature":"24","num_nodes":"11","size_leaf_vector":"1"}},