{"learner":{"attributes":{"scikit_learn":"{\"_estimator_type\": \"classifier\"}"},"feature_names":["SAT1_CDM_TYPE","SAT2_CDM_TYPE","rso1_objectType","rso2_objectType","org1_displayName","org2_displayName","condition_24H_tca_72H","condition_Radial_100m","condition_InTrack_500m","condition_CrossTrack_500m","condition_sat2posUnc_1km","condition_sat2Obs_25","hours_to_tca","tca_bin","same_sat_type","is_debris_pair","close_all_axes","risky_uncertainty","distance_ratio","object_type_match"],"feature_types":["c","c","c","c","c","c","i","i","i","i","i","i","float","int","int","int","int","int","float","int"],"gradient_booster":{"model":{"cats":{"enc":[{"offsets":[0,5,8],"values":[69,80,72,69,77,72,65,67]},{"offsets":[0,3],"values":[72,65,67]},{"offsets":[0,7,18,25],"values":[80,65,89,76,79,65,68,82,79,67,75,69,84,32,66,79,68,89,85,78,75,78,79,87,78]},{"offsets":[0,6,17],"values":[68,69,66,82,73,83,82,79,67,75,69,84,32,66,79,68,89]},{"offsets":[0,10,23,29,39,50,56,62,68,80,85],"values":[65,115,116,114,111,115,99,97,108,101,67,97,112,101,108,108,97,32,83,112,97,99,101,71,72,71,83,97,116,71,108,111,98,97,108,115,116,97,114,72,97,119,107,69,121,101,32,51,54,48,79,110,101,87,101,98,80,108,97,110,101,116,83,112,97,99,101,88,83,112,105,114,101,32,71,108,111,98,97,108,85,109,98,114,97]},{"offsets":[0,28,32],"values":[45,32,87,104,105,116,101,108,105,115,116,45,83,104,111,119,32,112,117,98,108,105,99,32,67,68,77,115,78,79,78,69]},{"offsets":[],"values":[]},{"offsets":[],"values":[]},{"offsets":[],"values":[]},{"offsets":[],"values":[]},{"offsets":[],"values":[]},{"offsets":[],"values":[]},{"offsets":[],"values":[]},{"offsets":[],"values":[]},{"offsets":[],"values":[]},{"offsets":[],"values":[]},{"offsets":[],"values":[]},{"offsets":[],"values":[]},{"offsets":[],"values":[]},{"offsets":[],"values":[]}],"feature_segments":[0,2,3,6,8,18,20,20,20,20,20,20,20,20,20,20,20,20,20,20,20],"sorted_idx":[0,1,0,0,1,2,0,1,0,1,2,3,4,5,6,7,8,9,0,1]},"gbtree_model_param":{"num_parallel_tree":"1","num_trees":"400"},"iteration_indptr":[0,1,2,3,4,5,6,7,8,9,10,11,12,13,14,15,16,17,18,19,20,21,22,23,24,25,26,27,28,29,30,31,32,33,34,35,36,37,38,39,40,41,42,43,44,45,46,47,48,49,50,51,52,53,54,55,56,57,58,59,60,61,62,63,64,65,66,67,68,69,70,71,72,73,74,75,76,77,78,79,80,81,82,83,84,85,86,87,88,89,90,91,92,93,94,95,96,97,98,99,100,101,102,103,104,105,106,107,108,109,110,111,112,113,114,115,116,117,118,119,120,121,122,123,124,125,126,127,128,129,130,131,132,133,134,135,136,137,138,139,140,141,142,143,144,145,146,147,148,149,150,151,152,153,154,155,156,157,158,159,160,161,162,163,164,165,166,167,168,169,170,171,172,173,174,175,176,177,178,179,180,181,182,183,184,185,186,187,188,189,190,191,192,193,194,195,196,197,198,199,200,201,202,203,204,205,206,207,208,209,210,211,212,213,214,215,216,217,218,219,220,221,222,223,224,225,226,227,228,229,230,231,232,233,234,235,236,237,238,239,240,241,242,243,244,245,246,247,248,249,250,251,252,253,254,255,256,257,258,259,260,261,262,263,264,265,266,267,268,269,270,271,272,273,274,275,276,277,278,279,280,281,282,283,284,285,286,287,288,289,290,291,292,293,294,295,296,297,298,299,300,301,302,303,304,305,306,307,308,309,310,311,312,313,314,315,316,317,318,319,320,321,322,323,324,325,326,327,328,329,330,331,332,333,334,335,336,337,338,339,340,341,342,343,344,345,346,347,348,349,350,351,352,353,354,355,356,357,358,359,360,361,362,363,364,365,366,367,368,369,370,371,372,373,374,375,376,377,378,379,380,381,382,383,384,385,386,387,388,389,390,391,392,393,394,395,396,397,398,399,400],"tree_info":[0,0,0,0,0,0,0,0,0,0,0,0,0,0,0,0,0,0,0,0,0,0,0,0,0,0,0,0,0,0,0,0,0,0,0,0,0,0,0,0,0,0,0,0,0,0,0,0,0,0,0,0,0,0,0,0,0,0,0,0,0,0,0,0,0,0,0,0,0,0,0,0,0,0,0,0,0,0,0,0,0,0,0,0,0,0,0,0,0,0,0,0,0,0,0,0,0,0,0,0,0,0,0,0,0,0,0,0,0,0,0,0,0,0,0,0,0,0,0,0,0,0,0,0,0,0,0,0,0,0,0,0,0,0,0,0,0,0,0,0,0,0,0,0,0,0,0,0,0,0,0,0,0,0,0,0,0,0,0,0,0,0,0,0,0,0,0,0,0,0,0,0,0,0,0,0,0,0,0,0,0,0,0,0,0,0,0,0,0,0,0,0,0,0,0,0,0,0,0,0,0,0,0,0,0,0,0,0,0,0,0,0,0,0,0,0,0,0,0,0,0,0,0,0,0,0,0,0,0,0,0,0,0,0,0,0,0,0,0,0,0,0,0,0,0,0,0,0,0,0,0,0,0,0,0,0,0,0,0,0,0,0,0,0,0,0,0,0,0,0,0,0,0,0,0,0,0,0,0,0,0,0,0,0,0,0,0,0,0,0,0,0,0,0,0,0,0,0,0,0,0,0,0,0,0,0,0,0,0,0,0,0,0,0,0,0,0,0,0,0,0,0,0,0,0,0,0,0,0,0,0,0,0,0,0,0,0,0,0,0,0,0,0,0,0,0,0,0,0,0,0,0,0,0,0,0,0,0,0,0,0,0,0,0,0,0,0,0,0,0,0,0,0,0,0,0,0,0,0,0,0,0,0,0,0,0,0,0,0,0,0,0,0,0,0,0,0,0,0,0],"trees":[{"base_weights":[2.218802E-3,1.671294E0,-1.7539331E0,1.8561543E0,8.2627994E-1,1.735469E0,-1.870134E0,1.9101142E0,1.6042494E0,1.7093103E0,-9.992848E-2,1.965034E0,-9.8305084E-2,-1.9120506E0,8.172341E-1,9.55965E-2,-9.1111116E-2,8.865402E-2,-9.953052E-2,9.505285E-2,5.72886E-2,9.925454E-2,-8.260869E-2,-5.697086E-2,-9.768107E-2,7.2580986E-2,-9.883721E-2],"categories":[0,0,2,4,5,6,9],"categories_nodes":[2,5],"categories_segments":[0,1],"categories_sizes":[1,6],"default_left":[0,0,1,0,0,1,0,0,0,0,0,0,0,0,0,0,0,0,0,0,0,0,0,0,0,0,0],"id":0,"left_children":[1,3,5,7,9,11,13,15,17,19,-1,21,-1,23,25,-1,-1,-1,-1,-1,-1,-1,-1,-1,-1,-1,-1],"loss_changes":[1.868805E5,5.1047656E3,1.260043E4,3.615E2,1.464414E4,8.551211E2,3.3884922E3,1.5314844E2,2.8790322E3,4.8106543E2,0E0,7.1750244E1,0E0,9.486875E2,8.225883E2,0E0,0E0,0E0,0E0,0E0,0E0,0E0,0E0,0E0,0E0,0E0,0E0],"parents":[2147483647,0,0,1,1,2,2,3,3,4,4,5,5,6,6,7,7,8,8,9,9,11,11,13,13,14,14],"right_children":[2,4,6,8,10,12,14,16,18,20,-1,22,-1,24,26,-1,-1,-1,-1,-1,-1,-1,-1,-1,-1,-1,-1],"split_conditions":[1.26843094E2,5.301298E1,1E-45,3.3060555E1,3.1225105E1,1E-45,1E0,1.3E1,5.607632E1,1.7934538E1,-9.992848E-2,6.5978146E0,-9.8305084E-2,1.807417E2,8.017501E0,9.55965E-2,-9.1111116E-2,8.865402E-2,-9.953052E-2,9.505285E-2,5.72886E-2,9.925454E-2,-8.260869E-2,-5.697086E-2,-9.768107E-2,7.2580986E-2,-9.883721E-2],"split_indices":[18,18,0,18,12,4,17,13,12,12,0,12,0,18,12,0,0,0,0,0,0,0,0,0,0,0,0],"split_type":[0,0,1,0,0,1,0,0,0,0,0,0,0,0,0,0,0,0,0,0,0,0,0,0,0,0,0],"sum_hessian":[6.375473E4,3.2687781E4,3.106695E4,2.681941E4,5.8683726E3,1.0007727E3,3.0066176E4,2.2082578E4,4.736832E3,4.4711226E3,1.39725E3,9.427727E2,5.8E1,2.9604701E4,4.6147528E2,2.2072328E4,1.025E1,4.524832E3,2.12E2,3.334253E3,1.1368695E3,9.380227E2,4.75E0,1.5129753E3,2.8091725E4,3.7647528E2,8.5E1],"tree_param":{"num_deleted":"0","num_feature":"20","num_nodes":"27","size_leaf_vector":"1"}},{"base_weights":[1.5962282E-2,1.5590335E0,-1.6768918E0,1.730543E0,5.004485E-1,1.6490341E0,-1.7791741E0,1.8088324E0,1.3614098E0,1.6385354E0,-9.6000366E-2,1.880089E0,-9.3642384E-2,-1.8194873E0,8.7960666E-1,9.052911E-2,-8.777588E-2,8.2352705E-2,-9.620046E-2,8.895226E-2,3.4727443E-2,9.489135E-2,-7.6802224E-2,-7.133825E-2,-9.540805E-2,7.067115E-2,-9.398147E-2],"categories":[0,0,2,4,5,6,9],"categories_nodes":[2,5],"categories_segments":[0,1],"categories_sizes":[1,6],"default_left":[0,0,1,0,0,1,0,0,0,0,0,0,0,0,0,0,0,0,0,0,0,0,0,0,0,0,0],"id":1,"left_children":[1,3,5,7,9,11,13,15,17,19,-1,21,-1,23,25,-1,-1,-1,-1,-1,-1,-1,-1,-1,-1,-1,-1],"loss_changes":[1.6799492E5,6.1075156E3,1.0435492E4,8.3425E2,1.2929151E4,7.485061E2,3.1906562E3,1.52125E2,4.7613438E3,4.221748E2,0E0,5.500464E1,0E0,1.0179375E3,6.5819604E2,0E0,0E0,0E0,0E0,0E0,0E0,0E0,0E0,0E0,0E0,0E0,0E0],"parents":[2147483647,0,0,1,1,2,2,3,3,4,4,5,5,6,6,7,7,8,8,9,9,11,11,13,13,14,14],"right_children":[2,4,6,8,10,12,14,16,18,20,-1,22,-1,24,26,-1,-1,-1,-1,-1,-1,-1,-1,-1,-1,-1,-1],"split_conditions":[1.4250446E2,6.843568E1,1E-45,3.7715046E1,2.6462488E1,1E-45,1E0,1.3E1,4.920317E1,1.8821903E1,-9.6000366E-2,6.8688054E0,-9.3642384E-2,1.05871725E1,8.017501E0,9.052911E-2,-8.777588E-2,8.2352705E-2,-9.620046E-2,8.895226E-2,3.4727443E-2,9.489135E-2,-7.6802224E-2,-7.133825E-2,-9.540805E-2,7.067115E-2,-9.398147E-2],"split_indices":[18,18,0,18,12,4,17,13,12,12,0,12,0,12,12,0,0,0,0,0,0,0,0,0,0,0,0],"split_type":[0,0,1,0,0,1,0,0,0,0,0,0,0,0,0,0,0,0,0,0,0,0,0,0,0,0,0],"sum_hessian":[6.43098E4,3.3643312E4,3.0666488E4,2.8951947E4,4.6913647E3,9.144986E2,2.975199E4,2.388276E4,5.0691865E3,3.1912004E3,1.5001642E3,8.5863367E2,5.586492E1,2.930793E4,4.4405957E2,2.3871533E4,1.1226085E1,4.664168E3,4.050184E2,2.7769714E3,4.1422913E2,8.546405E2,3.9931839E0,5.4017007E3,2.3906229E4,3.724845E2,7.157506E1],"tree_param":{"num_deleted":"0","num_feature":"20","num_nodes":"27","size_leaf_vector":"1"}},{"base_weights":[-1.6704107E-2,1.5007874E0,-1.5936399E0,1.686493E0,6.902259E-1,1.6261348E0,-1.7139566E0,1.7381097E0,1.4473361E0,1.5314269E0,-1.7325977E0,1.8035752E0,-8.9650854E-2,-1.7574897E0,8.5804737E-1,8.699871E-2,-8.426015E-2,8.084866E-2,-9.35791E-2,8.646657E-2,4.2166382E-2,-3.779344E-2,-9.156993E-2,9.091289E-2,-7.485737E-2,-8.841203E-2,3.5323672E-2,6.827501E-2,-9.038502E-2],"categories":[0,0,2,4,5,6,9],"categories_nodes":[2,5],"categories_segments":[0,1],"categories_sizes":[1,6],"default_left":[0,0,1,0,0,1,0,0,0,0,0,0,0,0,0,0,0,0,0,0,0,0,0,0,0,0,0,0,0],"id":2,"left_children":[1,3,5,7,9,11,13,15,17,19,21,23,-1,25,27,-1,-1,-1,-1,-1,-1,-1,-1,-1,-1,-1,-1,-1,-1],"loss_changes":[1.5025989E5,4.8155156E3,1.193168E4,3.1885156E2,1.2162577E4,6.765022E2,3.3251484E3,1.395664E2,2.6082686E3,6.0170605E2,1.470459E2,5.3874268E1,0E0,7.744844E2,6.717148E2,0E0,0E0,0E0,0E0,0E0,0E0,0E0,0E0,0E0,0E0,0E0,0E0,0E0,0E0],"parents":[2147483647,0,0,1,1,2,2,3,3,4,4,5,5,6,6,7,7,8,8,9,9,10,10,11,11,13,13,14,14],"right_children":[2,4,6,8,10,12,14,16,18,20,22,24,-1,26,28,-1,-1,-1,-1,-1,-1,-1,-1,-1,-1,-1,-1,-1,-1],"split_conditions":[1.320446E2,5.301298E1,1E-45,3.3060555E1,3.1225105E1,1E-45,1E0,1.3E1,5.435278E1,1.7934538E1,5.8257473E1,6.8688054E0,-8.9650854E-2,1E0,8.017501E0,8.699871E-2,-8.426015E-2,8.084866E-2,-9.35791E-2,8.646657E-2,4.2166382E-2,-3.779344E-2,-9.156993E-2,9.091289E-2,-7.485737E-2,-8.841203E-2,3.5323672E-2,6.827501E-2,-9.038502E-2],"split_indices":[18,18,0,18,12,4,17,13,12,12,18,12,0,9,12,0,0,0,0,0,0,0,0,0,0,0,0,0,0],"split_type":[0,0,1,0,0,1,0,0,0,0,0,0,0,0,0,0,0,0,0,0,0,0,0,0,0,0,0,0,0],"sum_hessian":[6.278978E4,3.1998014E4,3.0791766E4,2.6032656E4,5.9653574E3,1.1087299E3,2.9683037E4,2.1406318E4,4.6263374E3,4.4282446E3,1.5371125E3,1.0544791E3,5.4250786E1,2.9189303E4,4.9373346E2,2.1395158E4,1.1160477E1,4.401862E3,2.2447578E2,3.4379434E3,9.9030133E2,1.4199762E2,1.395115E3,1.0502563E3,4.222712E0,2.9062777E4,1.26526146E2,4.1518622E2,7.8547264E1],"tree_param":{"num_deleted":"0","num_feature":"20","num_nodes":"29","size_leaf_vector":"1"}},{"base_weights":[-7.0091304E-3,1.4770535E0,-1.4987856E0,1.6187398E0,7.4428654E-1,1.5699756E0,-1.6070603E0,1.6663024E0,1.4060415E0,1.5017105E0,-1.6383785E0,1.7306969E0,-8.606764E-2,-6.431901E-1,-1.6800519E0,8.369159E-2,4.4239875E-2,7.741129E-2,-8.899686E-2,8.0740355E-2,4.0821873E-2,-2.7516296E-2,-8.81698E-2,8.725683E-2,-7.0749655E-2,8.293385E-2,-8.963918E-2,-8.497005E-2,2.5358988E-2],"categories":[0,0,1,3,4,5,8,9],"categories_nodes":[2,11],"categories_segments":[0,1],"categories_sizes":[1,7],"default_left":[0,0,1,0,0,0,0,0,0,0,0,1,0,0,0,0,0,0,0,0,0,0,0,0,0,0,0,0,0],"id":3,"left_children":[1,3,5,7,9,11,13,15,17,19,21,23,-1,25,27,-1,-1,-1,-1,-1,-1,-1,-1,-1,-1,-1,-1,-1,-1],"loss_changes":[1.3784094E5,3.2392812E3,1.0319555E4,2.622422E2,9.132418E3,5.630227E2,2.1090312E3,1.2425391E2,2.1707773E3,2.9623145E2,1.650852E2,4.8342285E1,0E0,5.594412E3,1.1807891E3,0E0,0E0,0E0,0E0,0E0,0E0,0E0,0E0,0E0,0E0,0E0,0E0,0E0,0E0],"parents":[2147483647,0,0,1,1,2,2,3,3,4,4,5,5,6,6,7,7,8,8,9,9,10,10,11,11,13,13,14,14],"right_children":[2,4,6,8,10,12,14,16,18,20,22,24,-1,26,28,-1,-1,-1,-1,-1,-1,-1,-1,-1,-1,-1,-1,-1,-1],"split_conditions":[1.1604901E2,5.301298E1,1E-45,3.3060555E1,3.1225105E1,1.3334151E1,1.807417E2,1.235038E2,5.607632E1,2.3030973E1,3.5508957E1,1E-45,-8.606764E-2,1.4199644E1,1E0,8.369159E-2,4.4239875E-2,7.741129E-2,-8.899686E-2,8.0740355E-2,4.0821873E-2,-2.7516296E-2,-8.81698E-2,8.725683E-2,-7.0749655E-2,8.293385E-2,-8.963918E-2,-8.497005E-2,2.5358988E-2],"split_indices":[18,18,0,18,12,12,18,12,12,12,12,4,0,12,17,0,0,0,0,0,0,0,0,0,0,0,0,0,0],"split_type":[0,0,1,0,0,0,0,0,0,0,0,1,0,0,0,0,0,0,0,0,0,0,0,0,0,0,0,0,0],"sum_hessian":[6.225988E4,3.1210639E4,3.1049242E4,2.6152615E4,5.0580234E3,1.0577104E3,2.9991531E4,2.1367646E4,4.784969E3,3.838253E3,1.2197703E3,1.0089174E3,4.879304E1,2.1119976E3,2.7879533E4,2.1162615E4,2.0503079E2,4.5810405E3,2.039291E2,3.2933643E3,5.448888E2,1.2626462E2,1.0935057E3,1.0047506E3,4.1668477E0,7.0330505E2,1.4086925E3,2.7635285E4,2.442493E2],"tree_param":{"num_deleted":"0","num_feature":"20","num_nodes":"29","size_leaf_vector":"1"}},{"base_weights":[-9.007097E-3,1.3700695E0,-1.5141567E0,1.5239221E0,4.9725446E-1,1.4446433E0,-1.601644E0,1.5826445E0,1.1320173E0,1.4890403E0,-1.5418551E0,1.6570467E0,-8.3531916E-2,-1.6237348E0,1.1537013E-1,7.955476E-2,4.074966E-2,7.821059E-2,-4.622036E-2,6.7155086E-2,8.5700445E-2,-3.804547E-2,-8.610077E-2,8.353415E-2,-6.602507E-2,-8.171465E-2,4.8461605E-2,2.8731292E-2,-9.6188374E-2],"categories":[0,0,2,4,5,6,9],"categories_nodes":[2,5],"categories_segments":[0,1],"categories_sizes":[1,6],"default_left":[0,0,1,0,0,1,0,0,0,0,0,0,0,0,0,0,0,0,0,0,0,0,0,0,0,0,0,0,0],"id":4,"left_children":[1,3,5,7,9,11,13,15,17,19,21,23,-1,25,27,-1,-1,-1,-1,-1,-1,-1,-1,-1,-1,-1,-1,-1,-1],"loss_changes":[1.2785656E5,4.315746E3,7.626172E3,6.2710547E2,9.747084E3,5.628059E2,1.0852422E3,1.5285547E2,3.1695308E3,1.0414795E2,2.2059937E2,3.439795E1,0E0,7.748047E2,3.422728E2,0E0,0E0,0E0,0E0,0E0,0E0,0E0,0E0,0E0,0E0,0E0,0E0,0E0,0E0],"parents":[2147483647,0,0,1,1,2,2,3,3,4,4,5,5,6,6,7,7,8,8,9,9,10,10,11,11,13,13,14,14],"right_children":[2,4,6,8,10,12,14,16,18,20,22,24,-1,26,28,-1,-1,-1,-1,-1,-1,-1,-1,-1,-1,-1,-1,-1,-1],"split_conditions":[1.4250446E2,6.843568E1,1E-45,4.3129635E1,2E0,1E-45,1E0,1E1,3E0,1E0,7.869122E1,1E0,-8.3531916E-2,1E0,3.2269913E2,7.955476E-2,4.074966E-2,7.821059E-2,-4.622036E-2,6.7155086E-2,8.5700445E-2,-3.804547E-2,-8.610077E-2,8.353415E-2,-6.602507E-2,-8.171465E-2,4.8461605E-2,2.8731292E-2,-9.6188374E-2],"split_indices":[18,18,0,18,13,4,8,13,13,7,18,13,0,9,18,0,0,0,0,0,0,0,0,0,0,0,0,0,0],"split_type":[0,0,1,0,0,1,0,0,0,0,0,0,0,0,0,0,0,0,0,0,0,0,0,0,0,0,0,0,0],"sum_hessian":[6.159435E4,3.2143404E4,2.9450947E4,2.732588E4,4.8175234E3,8.4536597E2,2.860558E4,2.376233E4,3.5635496E3,3.2412893E3,1.5762343E3,7.9184515E2,5.3520817E1,2.8242275E4,3.6330603E2,2.350253E4,2.5980157E2,2.944871E3,6.186784E2,1.9701874E3,1.2711018E3,2.9644598E2,1.2797883E3,7.886722E2,3.1729903E0,2.8128111E4,1.1416323E2,2.9710916E2,6.619689E1],"tree_param":{"num_deleted":"0","num_feature":"20","num_nodes":"29","size_leaf_vector":"1"}},{"base_weights":[-7.372273E-3,1.3217169E0,-1.4741347E0,1.5053092E0,5.8289105E-1,1.3399547E0,-1.5418968E0,1.5530114E0,1.2817702E0,1.2738798E0,-8.254542E-2,1.5941325E0,-8.0891766E-2,-1.5738174E0,6.879801E-1,7.7736735E-2,-8.396747E-2,6.986644E-2,-8.627154E-2,7.251338E-2,2.0870611E-2,8.059885E-2,-6.516155E-2,-6.569336E-2,-8.19894E-2,5.2794844E-2,-8.598083E-2],"categories":[0,0,2,4,5,6,9],"categories_nodes":[2,5],"categories_segments":[0,1],"categories_sizes":[1,6],"default_left":[0,0,1,0,0,1,0,0,0,0,0,0,0,0,0,0,0,0,0,0,0,0,0,0,0,0,0],"id":5,"left_children":[1,3,5,7,9,11,13,15,17,19,-1,21,-1,23,25,-1,-1,-1,-1,-1,-1,-1,-1,-1,-1,-1,-1],"loss_changes":[1.181863E5,4.3132734E3,5.497699E3,2.6965234E2,9.77566E3,5.124448E2,2.00425E3,1.1953125E2,1.5612617E3,7.300571E2,0E0,3.4416138E1,0E0,4.7367188E2,3.5424927E2,0E0,0E0,0E0,0E0,0E0,0E0,0E0,0E0,0E0,0E0,0E0,0E0],"parents":[2147483647,0,0,1,1,2,2,3,3,4,4,5,5,6,6,7,7,8,8,9,9,11,11,13,13,14,14],"right_children":[2,4,6,8,10,12,14,16,18,20,-1,22,-1,24,26,-1,-1,-1,-1,-1,-1,-1,-1,-1,-1,-1,-1],"split_conditions":[1.4250446E2,5.301298E1,1E-45,3.3060555E1,3E0,1E-45,1E0,1.3E1,5E0,1E0,-8.254542E-2,1E0,-8.0891766E-2,1E0,1E0,7.7736735E-2,-8.396747E-2,6.986644E-2,-8.627154E-2,7.251338E-2,2.0870611E-2,8.059885E-2,-6.516155E-2,-6.569336E-2,-8.19894E-2,5.2794844E-2,-8.598083E-2],"split_indices":[18,18,0,18,13,4,17,13,13,6,0,13,0,13,13,0,0,0,0,0,0,0,0,0,0,0,0],"split_type":[0,0,1,0,0,1,0,0,0,0,0,0,0,0,0,0,0,0,0,0,0,0,0,0,0,0,0],"sum_hessian":[6.0623203E4,3.1804258E4,2.8818947E4,2.5473309E4,6.330949E3,6.7718933E2,2.8141758E4,2.0988508E4,4.484801E3,4.835574E3,1.4953749E3,6.240248E2,5.316456E1,2.7744885E4,3.9687253E2,2.0977842E4,1.0665148E1,4.319355E3,1.6544574E2,4.0091956E3,8.263787E2,6.206459E2,3.378854E0,5.62016E3,2.2124725E4,3.447509E2,5.2121647E1],"tree_param":{"num_deleted":"0","num_feature":"20","num_nodes":"27","size_leaf_vector":"1"}},{"base_weights":[2.5555724E-2,-7.388676E-1,1.4575549E0,1.4927198E0,-9.3165326E-1,1.5714301E0,1.348634E0,1.5449975E0,2.8901166E-1,-1.0934144E0,4.5352745E-1,1.5523548E0,7.969983E-2,1.2680078E0,7.931607E-2,7.788356E-2,6.59297E-2,-7.95785E-2,7.182912E-2,-5.761693E-2,5.5215526E-2,1.2592147E-2,7.9033606E-2,7.9127096E-2,7.519254E-2,6.419952E-2,-1.0673084E-1],"categories":[0,0,0,2,3,4,6,8,9,0,2,3,4,5,6,8,9],"categories_nodes":[1,2,3,7],"categories_segments":[0,1,2,9],"categories_sizes":[1,1,7,8],"default_left":[0,1,1,1,0,0,0,1,0,0,0,0,0,0,0,0,0,0,0,0,0,0,0,0,0,0,0],"id":6,"left_children":[1,3,5,7,9,11,13,15,17,19,21,23,-1,25,-1,-1,-1,-1,-1,-1,-1,-1,-1,-1,-1,-1,-1],"loss_changes":[6.646853E4,1.7032977E4,2.599961E2,1.976753E2,8.1657363E3,1.9707031E0,2.0511719E2,6.604004E0,2.877533E2,4.22691E3,8.660077E2,5.8671875E0,0E0,4.419209E2,0E0,0E0,0E0,0E0,0E0,0E0,0E0,0E0,0E0,0E0,0E0,0E0,0E0],"parents":[2147483647,0,0,1,1,2,2,3,3,4,4,5,5,6,6,7,7,8,8,9,9,10,10,11,11,13,13],"right_children":[2,4,6,8,10,12,14,16,18,20,22,24,-1,26,-1,-1,-1,-1,-1,-1,-1,-1,-1,-1,-1,-1,-1],"split_conditions":[1E0,1E-45,1E-45,1E-45,1E0,1E0,1E0,1E-45,1E0,1E0,1E0,4.4041077E1,7.969983E-2,1E1,7.931607E-2,7.788356E-2,6.59297E-2,-7.95785E-2,7.182912E-2,-5.761693E-2,5.5215526E-2,1.2592147E-2,7.9033606E-2,7.9127096E-2,7.519254E-2,6.419952E-2,-1.0673084E-1],"split_indices":[17,0,0,4,7,7,7,4,9,9,9,12,0,13,0,0,0,0,0,0,0,0,0,0,0,0,0],"split_type":[0,1,1,1,0,0,0,1,0,0,0,0,0,0,0,0,0,0,0,0,0,0,0,0,0,0,0],"sum_hessian":[6.0719074E4,3.9587266E4,2.1131809E4,3.147435E3,3.643983E4,1.0324391E4,1.0807418E4,3.0161582E3,1.3127693E2,3.2629564E4,3.8102654E3,5.6328086E3,4.6915825E3,8.074718E3,2.7327004E3,2.850701E3,1.6545723E2,4.960304E1,8.167389E1,3.1778025E4,8.515399E2,3.2329958E3,5.772695E2,3.452487E3,2.1803218E3,8.037587E3,3.7130997E1],"tree_param":{"num_deleted":"0","num_feature":"20","num_nodes":"27","size_leaf_vector":"1"}},{"base_weights":[-2.2672417E-3,1.2476563E0,-1.3608298E0,1.3750768E0,1.0549764E-1,-1.4317482E0,9.294255E-1,1.4565291E0,1.0723357E0,1.2521411E0,-1.5965871E0,-9.766181E-1,-7.7926666E-2,1.1269177E0,-8.4688894E-2,7.291462E-2,-7.88738E-2,6.697227E-2,-7.167155E-2,4.9545076E-2,7.940713E-2,-8.884655E-2,-7.785808E-2,6.857084E-2,-7.6568566E-2,6.5806285E-2,-9.5031284E-2],"categories":[],"categories_nodes":[],"categories_segments":[],"categories_sizes":[],"default_left":[0,0,0,0,0,0,0,0,0,0,0,0,0,0,0,0,0,0,0,0,0,0,0,0,0,0,0],"id":7,"left_children":[1,3,5,7,9,11,13,15,17,19,21,23,-1,25,-1,-1,-1,-1,-1,-1,-1,-1,-1,-1,-1,-1,-1],"loss_changes":[9.999046E4,4.4631133E3,4.5841484E3,6.7878125E2,6.011362E3,1.57775E3,4.4126166E2,1.1860156E2,3.9194927E3,1.5995947E2,6.0480957E0,7.7728096E3,0E0,4.5463623E2,0E0,0E0,0E0,0E0,0E0,0E0,0E0,0E0,0E0,0E0,0E0,0E0,0E0],"parents":[2147483647,0,0,1,1,2,2,3,3,4,4,5,5,6,6,7,7,8,8,9,9,10,10,11,11,13,13],"right_children":[2,4,6,8,10,12,14,16,18,20,22,24,-1,26,-1,-1,-1,-1,-1,-1,-1,-1,-1,-1,-1,-1,-1],"split_conditions":[1.4250446E2,7.869122E1,1E0,3.7715046E1,2E0,1E0,1E0,1.3E1,4E0,1E0,3E0,5.860055E2,-7.7926666E-2,4.2676093E2,-8.4688894E-2,7.291462E-2,-7.88738E-2,6.697227E-2,-7.167155E-2,4.9545076E-2,7.940713E-2,-8.884655E-2,-7.785808E-2,6.857084E-2,-7.6568566E-2,6.5806285E-2,-9.5031284E-2],"split_indices":[18,18,8,18,13,13,13,13,13,7,13,18,0,18,0,0,0,0,0,0,0,0,0,0,0,0,0],"split_type":[0,0,0,0,0,0,0,0,0,0,0,0,0,0,0,0,0,0,0,0,0,0,0,0,0,0,0],"sum_hessian":[5.888175E4,3.066708E4,2.821467E4,2.7589016E4,3.0780647E3,2.73676E4,8.4706995E2,2.1736904E4,5.852113E3,1.8392688E3,1.238796E3,5.96463E3,2.140297E4,7.882925E2,5.8777504E1,2.1724797E4,1.2107561E1,5.2888027E3,5.633102E2,1.0369745E3,8.022942E2,2.1432649E2,1.0244695E3,1.139622E3,4.825008E3,7.4245746E2,4.5835007E1],"tree_param":{"num_deleted":"0","num_feature":"20","num_nodes":"27","size_leaf_vector":"1"}},{"base_weights":[-2.3271734E-2,1.2238888E0,-1.3244653E0,1.3275483E0,2.1099156E-1,1.3435543E0,-1.4213771E0,1.4010464E0,9.698985E-1,1.2514702E0,-1.552323E0,1.4785677E0,-7.477131E-2,-1.4393264E0,6.7442185E-1,7.041485E-2,6.0014436E-3,6.291132E-2,-7.9587184E-2,5.2981902E-2,7.60515E-2,-8.654179E-2,-7.558078E-2,7.507749E-2,-6.775093E-2,-5.6886293E-2,-7.587927E-2,-1.0276046E-1,4.585428E-2],"categories":[0,0,4,5,6,9],"categories_nodes":[2,5],"categories_segments":[0,1],"categories_sizes":[1,5],"default_left":[0,0,1,0,0,1,0,0,0,0,0,0,0,0,0,0,0,0,0,0,0,0,0,0,0,0,0,0,0],"id":8,"left_children":[1,3,5,7,9,11,13,15,17,19,21,23,-1,25,27,-1,-1,-1,-1,-1,-1,-1,-1,-1,-1,-1,-1,-1,-1],"loss_changes":[9.257455E4,3.0580508E3,7.220547E3,6.9322656E2,4.9654854E3,3.774862E2,1.01441797E3,2.0340234E2,3.3313506E3,8.639795E1,4.682373E0,6.2930664E1,0E0,6.287539E2,1.538691E2,0E0,0E0,0E0,0E0,0E0,0E0,0E0,0E0,0E0,0E0,0E0,0E0,0E0,0E0],"parents":[2147483647,0,0,1,1,2,2,3,3,4,4,5,5,6,6,7,7,8,8,9,9,10,10,11,11,13,13,14,14],"right_children":[2,4,6,8,10,12,14,16,18,20,22,24,-1,26,28,-1,-1,-1,-1,-1,-1,-1,-1,-1,-1,-1,-1,-1,-1],"split_conditions":[1.320446E2,7.869122E1,1E-45,4.3129635E1,2E0,1E-45,1E0,1.1E1,4E0,1E0,3E0,2E0,-7.477131E-2,1E0,1.75699E2,7.041485E-2,6.0014436E-3,6.291132E-2,-7.9587184E-2,5.2981902E-2,7.60515E-2,-8.654179E-2,-7.558078E-2,7.507749E-2,-6.775093E-2,-5.6886293E-2,-7.587927E-2,-1.0276046E-1,4.585428E-2],"split_indices":[18,18,0,18,13,4,9,13,13,7,13,13,0,13,18,0,0,0,0,0,0,0,0,0,0,0,0,0,0],"split_type":[0,0,1,0,0,1,0,0,0,0,0,0,0,0,0,0,0,0,0,0,0,0,0,0,0,0,0,0,0],"sum_hessian":[5.704428E4,2.9126928E4,2.7917352E4,2.6422545E4,2.7043828E3,9.780617E2,2.6939291E4,2.1915854E4,4.506692E3,1.7009775E3,1.0034053E3,9.3411707E2,4.3944637E1,2.671084E4,2.2845096E2,2.1792408E4,1.2344452E2,4.0512131E3,4.5547882E2,9.9664557E2,7.0433203E2,1.7861392E2,8.247914E2,9.270681E2,7.0489473E0,5.5061807E3,2.1204658E4,1.8041353E1,2.104096E2],"tree_param":{"num_deleted":"0","num_feature":"20","num_nodes":"29","size_leaf_vector":"1"}},{"base_weights":[-1.8223068E-2,1.1470886E0,-1.3364307E0,1.2994013E0,2.421573E-1,-1.3909019E0,1.1736706E0,1.3763027E0,9.675546E-1,1.3924768E0,-1.4925231E0,-8.162602E-1,-1.4709561E0,1.4427383E0,-7.322858E-2,6.8905E-2,-7.6784655E-2,6.253175E-2,-8.0838725E-2,7.241378E-2,5.657897E-2,-7.80799E-2,-2.911751E-2,9.0394996E-2,-7.555347E-2,-2.934114E-2,-7.414079E-2,7.315545E-2,-6.347528E-2],"categories":[0,2,4,5,6,9],"categories_nodes":[6],"categories_segments":[0],"categories_sizes":[6],"default_left":[0,0,0,0,0,0,1,0,0,0,0,0,0,0,0,0,0,0,0,0,0,0,0,0,0,0,0,0,0],"id":9,"left_children":[1,3,5,7,9,11,13,15,17,19,21,23,25,27,-1,-1,-1,-1,-1,-1,-1,-1,-1,-1,-1,-1,-1,-1,-1],"loss_changes":[8.588607E4,4.0900742E3,3.588625E3,6.468828E2,8.535761E3,1.1800312E3,3.980468E2,1.1003906E2,3.500604E3,3.5802734E1,1.0632617E2,5.7315693E3,2.354414E2,2.9849243E1,0E0,0E0,0E0,0E0,0E0,0E0,0E0,0E0,0E0,0E0,0E0,0E0,0E0,0E0,0E0],"parents":[2147483647,0,0,1,1,2,2,3,3,4,4,5,5,6,6,7,7,8,8,9,9,10,10,11,11,12,12,13,13],"right_children":[2,4,6,8,10,12,14,16,18,20,22,24,26,28,-1,-1,-1,-1,-1,-1,-1,-1,-1,-1,-1,-1,-1,-1,-1],"split_conditions":[1.5848961E2,7.355231E1,1E0,3.7715046E1,1.8223892E1,6.028475E0,1E-45,1.3E1,4.6910618E1,1.4199644E1,1E0,5.860055E2,1.7024268E2,6.028475E0,-7.322858E-2,6.8905E-2,-7.6784655E-2,6.253175E-2,-8.0838725E-2,7.241378E-2,5.657897E-2,-7.80799E-2,-2.911751E-2,9.0394996E-2,-7.555347E-2,-2.934114E-2,-7.414079E-2,7.315545E-2,-6.347528E-2],"split_indices":[18,18,14,18,12,12,4,13,12,12,7,18,18,12,0,0,0,0,0,0,0,0,0,0,0,0,0,0,0],"split_type":[0,0,0,0,0,0,1,0,0,0,0,0,0,0,0,0,0,0,0,0,0,0,0,0,0,0,0,0,0],"sum_hessian":[5.590895E4,2.9675537E4,2.6233412E4,2.5399938E4,4.2755996E3,2.5676652E4,5.5675867E2,2.0618662E4,4.7812773E3,2.5709329E3,1.7046666E3,3.1410327E3,2.2535621E4,5.056426E2,5.1116077E1,2.0606469E4,1.2191907E1,4.3097188E3,4.7155856E2,2.1142104E3,4.5672235E2,1.5837565E3,1.2091018E2,6.572237E2,2.483809E3,2.9895557E2,2.2236664E4,5.0233038E2,3.3122334E0],"tree_param":{"num_deleted":"0","num_feature":"20","num_nodes":"29","size_leaf_vector":"1"}},{"base_weights":[8.214155E-4,1.1733814E0,-1.2301733E0,1.3088188E0,5.72788E-1,1.2774732E0,-1.3200374E0,1.3511416E0,1.1309253E0,1.1559812E0,-5.7065547E-1,1.4087447E0,-7.1196094E-2,-1.360892E0,7.0455486E-1,6.987686E-2,6.572986E-2,5.849873E-2,-8.537047E-2,6.348514E-2,-7.374452E-2,5.254459E-3,-7.395502E-2,7.107227E-2,-5.857032E-2,-3.34198E-2,-7.05904E-2,4.332777E-2,-9.740867E-2],"categories":[0,0,4,5,6,9,0,0,1,2,3,4,5,6,8,9,0,1,2,3,5,8,9],"categories_nodes":[2,5,7,8,9],"categories_segments":[0,1,6,7,16],"categories_sizes":[1,5,1,9,7],"default_left":[0,0,1,0,0,1,0,1,1,1,0,0,0,0,0,0,0,0,0,0,0,0,0,0,0,0,0,0,0],"id":10,"left_children":[1,3,5,7,9,11,13,15,17,19,21,23,-1,25,27,-1,-1,-1,-1,-1,-1,-1,-1,-1,-1,-1,-1,-1,-1],"loss_changes":[7.954135E4,2.2949922E3,6.0597734E3,1.7185938E2,3.4650146E3,3.3200073E2,2.1476953E3,2.9691406E1,4.9321777E2,1.0312944E3,1.0777456E3,3.0763428E1,0E0,8.960703E2,2.2258743E2,0E0,0E0,0E0,0E0,0E0,0E0,0E0,0E0,0E0,0E0,0E0,0E0,0E0,0E0],"parents":[2147483647,0,0,1,1,2,2,3,3,4,4,5,5,6,6,7,7,8,8,9,9,10,10,11,11,13,13,14,14],"right_children":[2,4,6,8,10,12,14,16,18,20,22,24,-1,26,28,-1,-1,-1,-1,-1,-1,-1,-1,-1,-1,-1,-1,-1,-1],"split_conditions":[1.26843094E2,5.301298E1,1E-45,3.3060555E1,1E0,1E-45,1E0,1E-45,1E-45,1E-45,7.869122E1,1E0,-7.1196094E-2,1.964913E2,3.9159628E2,6.987686E-2,6.572986E-2,5.849873E-2,-8.537047E-2,6.348514E-2,-7.374452E-2,5.254459E-3,-7.395502E-2,7.107227E-2,-5.857032E-2,-3.34198E-2,-7.05904E-2,4.332777E-2,-9.740867E-2],"split_indices":[18,18,0,18,6,4,17,0,4,4,18,6,0,18,18,0,0,0,0,0,0,0,0,0,0,0,0,0,0],"split_type":[0,0,1,0,0,1,0,1,1,1,0,0,0,0,0,0,0,0,0,0,0,0,0,0,0,0,0,0,0],"sum_hessian":[5.5104363E4,2.8222049E4,2.6882314E4,2.3027932E4,5.1941157E3,9.295695E2,2.5952744E4,1.8596928E4,4.4310044E3,3.4397307E3,1.754385E3,8.8694775E2,4.262179E1,2.5439719E4,5.13026E2,8.17764E3,1.0419288E4,4.3714507E3,5.9553757E1,3.2977021E3,1.420285E2,1.0065497E3,7.4783527E2,8.8305E2,3.8977532E0,1.7433186E3,2.36964E4,4.8413358E2,2.8892414E1],"tree_param":{"num_deleted":"0","num_feature":"20","num_nodes":"29","size_leaf_vector":"1"}},{"base_weights":[-2.249997E-2,-6.877549E-1,1.2479556E0,1.306571E0,-8.3376807E-1,1.3817228E0,1.1281633E0,1.3107437E0,-6.3615985E-2,-9.630807E-1,3.2535738E-1,1.356395E0,7.053886E-2,1.0285748E0,7.013963E-2,6.831818E-2,5.8218103E-2,-1.774764E-2,-5.215102E-2,2.1629421E-2,-1.2894164E-2,6.926696E-2,6.417998E-2,5.2296456E-2,-1.09105386E-1],"categories":[0,0,0,0],"categories_nodes":[1,2,3,9],"categories_segments":[0,1,2,3],"categories_sizes":[1,1,1,1],"default_left":[0,1,1,1,0,0,0,0,0,1,0,0,0,0,0,0,0,0,0,0,0,0,0,0,0],"id":11,"left_children":[1,3,5,7,9,11,13,15,-1,17,19,21,-1,23,-1,-1,-1,-1,-1,-1,-1,-1,-1,-1,-1],"loss_changes":[4.46093E4,1.0088619E4,2.8911328E2,2.7102295E1,4.838576E3,4.390625E0,2.6043555E2,1.7625732E1,0E0,1.4113438E3,2.0276968E2,7.9179688E0,0E0,3.940249E2,0E0,0E0,0E0,0E0,0E0,0E0,0E0,0E0,0E0,0E0,0E0],"parents":[2147483647,0,0,1,1,2,2,3,3,4,4,5,5,6,6,7,7,9,9,10,10,11,11,13,13],"right_children":[2,4,6,8,10,12,14,16,-1,18,20,22,-1,24,-1,-1,-1,-1,-1,-1,-1,-1,-1,-1,-1],"split_conditions":[1E0,1E-45,1E-45,1E-45,1E0,1E0,1E0,4.5767223E1,-6.3615985E-2,1E-45,5.55254E1,5.866931E1,7.053886E-2,1E1,7.013963E-2,6.831818E-2,5.8218103E-2,-1.774764E-2,-5.215102E-2,2.1629421E-2,-1.2894164E-2,6.926696E-2,6.417998E-2,5.2296456E-2,-1.09105386E-1],"split_indices":[8,0,0,5,7,7,7,12,0,3,12,12,0,13,0,0,0,0,0,0,0,0,0,0,0],"split_type":[0,1,1,1,0,0,0,0,0,1,0,0,0,0,0,0,0,0,0,0,0,0,0,0,0],"sum_hessian":[5.2779008E4,3.4640492E4,1.8138516E4,2.3626199E3,3.2277873E4,8.56442E3,9.574097E3,2.3592942E3,3.3256269E0,2.9038494E4,3.23938E3,4.6011255E3,3.963294E3,7.029676E3,2.5444207E3,1.7036364E3,6.5565784E2,3.3743235E3,2.566417E4,2.7365188E3,5.0286118E2,3.2792385E3,1.3218871E3,6.992554E3,3.712168E1],"tree_param":{"num_deleted":"0","num_feature":"20","num_nodes":"25","size_leaf_vector":"1"}},{"base_weights":[-1.9364727E-3,1.077427E0,-1.2568762E0,1.2101376E0,1.7663568E-1,1.0858963E0,-1.3034103E0,1.2856337E0,9.556923E-1,1.1650087E0,-1.4293709E0,1.344534E0,-7.145537E-2,-9.6575725E-1,-1.3971043E0,6.471547E-2,2.8452856E-2,5.958829E-2,-6.497445E-2,6.892312E-2,4.2648237E-2,-7.656041E-2,-7.031036E-2,6.814047E-2,-5.976347E-2,5.5777784E-2,-7.105492E-2,-6.970985E-2,-7.2417095E-2],"categories":[0,0,2,4,5,6,9],"categories_nodes":[2,5],"categories_segments":[0,1],"categories_sizes":[1,6],"default_left":[0,0,1,0,0,1,0,0,0,0,0,0,0,0,0,0,0,0,0,0,0,0,0,0,0,0,0,0,0],"id":12,"left_children":[1,3,5,7,9,11,13,15,17,19,21,23,-1,25,27,-1,-1,-1,-1,-1,-1,-1,-1,-1,-1,-1,-1,-1,-1],"loss_changes":[7.1368836E4,3.3859883E3,2.6574297E3,4.7303125E2,5.777117E3,3.1092102E2,7.5439844E2,1.1760742E2,3.011149E3,1.4888159E2,1.1179199E0,2.1645996E1,0E0,4.9222603E3,7.65625E-1,0E0,0E0,0E0,0E0,0E0,0E0,0E0,0E0,0E0,0E0,0E0,0E0,0E0,0E0],"parents":[2147483647,0,0,1,1,2,2,3,3,4,4,5,5,6,6,7,7,8,8,9,9,10,10,11,11,13,13,14,14],"right_children":[2,4,6,8,10,12,14,16,18,20,22,24,-1,26,28,-1,-1,-1,-1,-1,-1,-1,-1,-1,-1,-1,-1,-1,-1],"split_conditions":[1.5848961E2,7.869122E1,1E-45,3.7715046E1,2E0,1E-45,1E0,1E1,4E0,1E0,3E0,1E0,-7.145537E-2,5.860055E2,1E0,6.471547E-2,2.8452856E-2,5.958829E-2,-6.497445E-2,6.892312E-2,4.2648237E-2,-7.656041E-2,-7.031036E-2,6.814047E-2,-5.976347E-2,5.5777784E-2,-7.105492E-2,-6.970985E-2,-7.2417095E-2],"split_indices":[18,18,0,18,13,4,13,13,13,13,13,13,0,18,7,0,0,0,0,0,0,0,0,0,0,0,0,0,0],"split_type":[0,0,1,0,0,1,0,0,0,0,0,0,0,0,0,0,0,0,0,0,0,0,0,0,0,0,0,0,0],"sum_hessian":[5.268676E4,2.8324893E4,2.436187E4,2.4687432E4,3.6374614E3,4.740369E2,2.3887832E4,1.9035416E4,5.6520146E3,2.2518787E3,1.3855829E3,4.3025568E2,4.3781216E1,5.1911885E3,1.8696645E4,1.8806912E4,2.2850555E2,5.1168516E3,5.35163E2,1.3351509E3,9.1672784E2,2.4469446E2,1.1408883E3,4.2764197E2,2.6137145E0,9.31582E2,4.2596064E3,1.7719441E4,9.772031E2],"tree_param":{"num_deleted":"0","num_feature":"20","num_nodes":"29","size_leaf_vector":"1"}},{"base_weights":[1.0653466E-2,1.0799572E0,-1.2104114E0,1.202911E0,3.5907266E-1,1.1339077E0,-1.2759262E0,1.1130842E0,1.3601817E0,1.147114E0,-1.4196436E0,1.3263184E0,-7.005725E-2,-1.2982816E0,7.6800376E-1,5.6413975E-2,-9.8159276E-2,6.898701E-2,6.703954E-2,6.392235E-2,1.2013724E-2,-8.281921E-2,-6.995875E-2,6.712387E-2,-6.3753866E-2,-4.909534E-2,-6.858239E-2,6.9653966E-2,-9.859087E-2],"categories":[0,0,2,4,5,6,9],"categories_nodes":[2,5],"categories_segments":[0,1],"categories_sizes":[1,6],"default_left":[0,0,1,0,0,1,0,0,0,0,0,0,0,0,0,0,0,0,0,0,0,0,0,0,0,0,0,0,0],"id":13,"left_children":[1,3,5,7,9,11,13,15,17,19,21,23,-1,25,27,-1,-1,-1,-1,-1,-1,-1,-1,-1,-1,-1,-1,-1,-1],"loss_changes":[6.743328E4,2.4400527E3,3.7047227E3,3.3077734E2,5.627121E3,3.2185785E2,1.0728047E3,7.022793E2,1.3896484E0,3.309895E2,3.6552734E0,2.7365234E1,0E0,5.3723047E2,4.3844702E2,0E0,0E0,0E0,0E0,0E0,0E0,0E0,0E0,0E0,0E0,0E0,0E0,0E0,0E0],"parents":[2147483647,0,0,1,1,2,2,3,3,4,4,5,5,6,6,7,7,8,8,9,9,10,10,11,11,13,13,14,14],"right_children":[2,4,6,8,10,12,14,16,18,20,22,24,-1,26,28,-1,-1,-1,-1,-1,-1,-1,-1,-1,-1,-1,-1,-1,-1],"split_conditions":[1.4250446E2,6.843568E1,1E-45,1E0,2.6462488E1,1E-45,1E0,1.235038E2,4.2021347E1,1.8821903E1,3.1225105E1,6.8688054E0,-7.005725E-2,1.05871725E1,2.649579E0,5.6413975E-2,-9.8159276E-2,6.898701E-2,6.703954E-2,6.392235E-2,1.2013724E-2,-8.281921E-2,-6.995875E-2,6.712387E-2,-6.3753866E-2,-4.909534E-2,-6.858239E-2,6.9653966E-2,-9.859087E-2],"split_indices":[18,18,0,7,12,4,9,12,12,12,12,12,0,12,12,0,0,0,0,0,0,0,0,0,0,0,0,0,0],"split_type":[0,0,1,0,0,1,0,0,0,0,0,0,0,0,0,0,0,0,0,0,0,0,0,0,0,0,0,0,0],"sum_hessian":[5.164373E4,2.75329E4,2.4110832E4,2.352057E4,4.0123293E3,6.5504456E2,2.3455787E4,1.4975332E4,8.545238E3,2.780717E3,1.2316122E3,6.0927716E2,4.5767365E1,2.3202379E4,2.5340929E2,1.4902355E4,7.2977036E1,4.219309E3,4.3259297E3,2.4285874E3,3.5212964E2,9.1651726E1,1.1399604E3,6.059969E2,3.2803068E0,4.3704033E3,1.8831975E4,2.0673529E2,4.6674004E1],"tree_param":{"num_deleted":"0","num_feature":"20","num_nodes":"29","size_leaf_vector":"1"}},{"base_weights":[-5.746693E-4,-6.3165814E-1,1.1711663E0,-8.1614536E-1,5.7967246E-1,1.3027301E0,1.0594099E0,1.1008548E0,-8.8012695E-1,1.2901201E0,3.434316E-1,1.272483E0,6.672798E-2,9.666136E-1,6.61615E-2,5.802157E-2,-7.883645E-2,-4.569516E-2,3.6347125E-2,6.600069E-2,-6.461109E-2,1.037881E-2,6.677751E-2,6.579685E-2,6.054122E-2,5.040374E-2,-1.25117665E-2],"categories":[0,0,0,0,2,5,9,0,1,2,3,4,6,8,9,0,1,2,3,4,5,8,9],"categories_nodes":[2,3,4,7,9,13],"categories_segments":[0,1,2,3,7,15],"categories_sizes":[1,1,1,4,8,8],"default_left":[0,0,1,1,1,0,0,1,0,1,0,0,0,1,0,0,0,0,0,0,0,0,0,0,0,0,0],"id":14,"left_children":[1,3,5,7,9,11,13,15,17,19,21,23,-1,25,-1,-1,-1,-1,-1,-1,-1,-1,-1,-1,-1,-1,-1],"loss_changes":[3.699516E4,7.2671104E3,2.5611328E2,3.4621328E3,7.209772E2,6.0410156E0,2.3067578E2,1.4729199E2,1.4829844E3,8.447986E1,4.346836E2,9.508789E0,0E0,3.5406934E2,0E0,0E0,0E0,0E0,0E0,0E0,0E0,0E0,0E0,0E0,0E0,0E0,0E0],"parents":[2147483647,0,0,1,1,2,2,3,3,4,4,5,5,6,6,7,7,8,8,9,9,10,10,11,11,13,13],"right_children":[2,4,6,8,10,12,14,16,18,20,22,24,-1,26,-1,-1,-1,-1,-1,-1,-1,-1,-1,-1,-1,-1,-1],"split_conditions":[1E0,1E0,1E-45,1E-45,1E-45,1E0,1E0,1E-45,1E0,1E-45,1E0,4.2865337E1,6.672798E-2,1E-45,6.61615E-2,5.802157E-2,-7.883645E-2,-4.569516E-2,3.6347125E-2,6.600069E-2,-6.461109E-2,1.037881E-2,6.677751E-2,6.579685E-2,6.054122E-2,5.040374E-2,-1.25117665E-2],"split_indices":[8,7,0,0,0,7,7,4,9,4,9,12,0,4,0,0,0,0,0,0,0,0,0,0,0,0,0],"split_type":[0,0,1,1,1,0,0,1,0,1,0,0,0,1,0,0,0,0,0,0,0,0,0,0,0,0,0],"sum_hessian":[5.002753E4,3.251556E4,1.7511969E4,2.8218217E4,4.297344E3,8.0383174E3,9.473652E3,9.108669E2,2.730735E4,1.071265E3,3.2260793E3,4.1426284E3,3.8956892E3,7.011932E3,2.4617202E3,8.9159534E2,1.9271511E1,2.674566E4,5.616894E2,1.059489E3,1.1775978E1,2.8385876E3,3.8749176E2,2.4181147E3,1.7245135E3,6.781055E3,2.3087668E2],"tree_param":{"num_deleted":"0","num_feature":"20","num_nodes":"27","size_leaf_vector":"1"}},{"base_weights":[1.5600116E-2,1.0557328E0,-1.1361504E0,1.1920485E0,4.4238248E-1,1.1371485E0,-1.2165432E0,1.2335399E0,1.0133985E0,1.0972339E0,-1.247617E0,1.2756952E0,-6.836367E-2,-5.6240815E-1,-1.2982641E0,6.1764307E-2,-7.321491E-2,5.8005657E-2,-8.468244E-2,6.187907E-2,3.439778E-2,-7.6874527E-3,-7.0754156E-2,6.49338E-2,-6.3497715E-2,8.6618744E-2,-6.809019E-2,-3.184356E-2,-6.6416696E-2],"categories":[0,0,4,5,6],"categories_nodes":[2,11],"categories_segments":[0,1],"categories_sizes":[1,4],"default_left":[0,0,1,0,0,0,0,0,0,0,0,1,0,0,0,0,0,0,0,0,0,0,0,0,0,0,0,0,0],"id":15,"left_children":[1,3,5,7,9,11,13,15,17,19,21,23,-1,25,27,-1,-1,-1,-1,-1,-1,-1,-1,-1,-1,-1,-1,-1,-1],"loss_changes":[5.9323184E4,2.175039E3,4.2959824E3,1.5655273E2,5.2394434E3,2.804203E2,1.2125664E3,8.3171875E1,1.5977632E3,1.95125E2,2.4200537E2,4.6201538E1,0E0,4.629505E3,4.0040234E2,0E0,0E0,0E0,0E0,0E0,0E0,0E0,0E0,0E0,0E0,0E0,0E0,0E0,0E0],"parents":[2147483647,0,0,1,1,2,2,3,3,4,4,5,5,6,6,7,7,8,8,9,9,10,10,11,11,13,13,14,14],"right_children":[2,4,6,8,10,12,14,16,18,20,22,24,-1,26,28,-1,-1,-1,-1,-1,-1,-1,-1,-1,-1,-1,-1,-1,-1],"split_conditions":[1.320446E2,5.301298E1,1E-45,3.3060555E1,2.8983992E1,1.3334151E1,5.1648173E0,1.3E1,5.435278E1,1.8223892E1,5.8257473E1,1E-45,-6.836367E-2,5.860055E2,1.7024268E2,6.1764307E-2,-7.321491E-2,5.8005657E-2,-8.468244E-2,6.187907E-2,3.439778E-2,-7.6874527E-3,-7.0754156E-2,6.49338E-2,-6.3497715E-2,8.6618744E-2,-6.809019E-2,-3.184356E-2,-6.6416696E-2],"split_indices":[18,18,0,18,12,12,12,13,12,12,18,4,0,18,18,0,0,0,0,0,0,0,0,0,0,0,0,0,0],"split_type":[0,0,1,0,0,0,0,0,0,0,0,1,0,0,0,0,0,0,0,0,0,0,0,0,0,0,0,0,0],"sum_hessian":[4.9517617E4,2.601965E4,2.3497967E4,2.1287588E4,4.7320635E3,8.021488E2,2.2695818E4,1.7270598E4,4.0169893E3,3.4107832E3,1.3212805E3,7.605644E2,4.1584435E1,2.5213755E3,2.0174443E4,1.7259969E4,1.0629166E1,3.811014E3,2.0597522E2,2.5383289E3,8.7245435E2,1.7567982E2,1.1456007E3,7.542453E2,6.319078E0,6.511078E2,1.8702677E3,8.7829205E2,1.929615E4],"tree_param":{"num_deleted":"0","num_feature":"20","num_nodes":"29","size_leaf_vector":"1"}},{"base_weights":[3.7921793E-3,1.0555822E0,-1.0953292E0,1.18467E0,6.365519E-1,-1.1694168E0,1.1062229E0,1.1900246E0,-3.5939097E-1,1.0178381E0,-1.4482627E0,-6.9769377E-1,-1.3003526E0,1.2496333E0,-6.6979595E-2,5.665746E-2,6.456339E-2,-9.870853E-2,6.1721075E-2,5.732975E-2,1.8891238E-2,-9.108126E-2,-6.855985E-2,6.2995784E-2,-6.67932E-2,-2.4013748E-2,-6.5685466E-2,6.3795395E-2,-6.261726E-2],"categories":[0,4,5,6],"categories_nodes":[13],"categories_segments":[0],"categories_sizes":[4],"default_left":[0,0,0,0,0,0,0,0,0,0,0,0,0,1,0,0,0,0,0,0,0,0,0,0,0,0,0,0,0],"id":16,"left_children":[1,3,5,7,9,11,13,15,17,19,21,23,25,27,-1,-1,-1,-1,-1,-1,-1,-1,-1,-1,-1,-1,-1,-1,-1],"loss_changes":[5.4922434E4,1.3124375E3,3.7905684E3,1.5386523E2,4.548127E3,1.3873223E3,2.6714838E2,1.0503711E2,1.694784E2,3.980791E2,2.2959229E1,6.1048896E3,1.9205664E2,4.8631348E1,0E0,0E0,0E0,0E0,0E0,0E0,0E0,0E0,0E0,0E0,0E0,0E0,0E0,0E0,0E0],"parents":[2147483647,0,0,1,1,2,2,3,3,4,4,5,5,6,6,7,7,8,8,9,9,10,10,11,11,12,12,13,13],"right_children":[2,4,6,8,10,12,14,16,18,20,22,24,26,28,-1,-1,-1,-1,-1,-1,-1,-1,-1,-1,-1,-1,-1,-1,-1],"split_conditions":[1.1604901E2,4.3129635E1,1E0,1.4282199E2,4.2021347E1,1.1418442E1,1.3334151E1,1E0,1E0,2.8983992E1,5.301298E1,5.860055E2,1.26843094E2,1E-45,-6.6979595E-2,5.665746E-2,6.456339E-2,-9.870853E-2,6.1721075E-2,5.732975E-2,1.8891238E-2,-9.108126E-2,-6.855985E-2,6.2995784E-2,-6.67932E-2,-2.4013748E-2,-6.5685466E-2,6.3795395E-2,-6.261726E-2],"split_indices":[18,18,14,12,12,12,12,7,16,12,18,18,18,4,0,0,0,0,0,0,0,0,0,0,0,0,0,0,0],"split_type":[0,0,0,0,0,0,0,0,0,0,0,0,0,1,0,0,0,0,0,0,0,0,0,0,0,0,0,0,0],"sum_hessian":[4.750691E4,2.4276176E4,2.3230734E4,1.8557477E4,5.7187007E3,2.247487E4,7.558653E2,1.8493572E4,6.3904343E1,4.8349595E3,8.837411E2,4.8843467E3,1.7590523E4,7.144619E2,4.140341E1,1.1849224E4,6.6443477E3,3.1624828E1,3.227951E1,4.0245212E3,8.104384E2,1.4733005E2,7.364111E2,1.2005731E3,3.6837737E3,2.82498E2,1.7308025E4,7.0752185E2,6.9400206E0],"tree_param":{"num_deleted":"0","num_feature":"20","num_nodes":"29","size_leaf_vector":"1"}},{"base_weights":[-7.7372133E-3,1.0076475E0,-1.1191374E0,1.1405435E0,4.3420735E-1,1.0631129E0,-1.183862E0,1.1874584E0,9.312301E-1,1.0493789E0,-1.1978844E0,1.2362055E0,-6.714363E-2,-1.2168225E0,2.7468234E-1,5.9763428E-2,2.9134765E-2,5.3584147E-2,-8.104428E-2,6.095612E-2,3.8173806E-2,-6.649991E-3,-6.864294E-2,6.276218E-2,-6.6730544E-2,-3.0250419E-2,-6.292888E-2,5.0116956E-2,-5.545444E-2],"categories":[0],"categories_nodes":[2],"categories_segments":[0],"categories_sizes":[1],"default_left":[0,0,1,0,0,0,0,0,0,0,0,0,0,0,0,0,0,0,0,0,0,0,0,0,0,0,0,0,0],"id":17,"left_children":[1,3,5,7,9,11,13,15,17,19,21,23,-1,25,27,-1,-1,-1,-1,-1,-1,-1,-1,-1,-1,-1,-1,-1,-1],"loss_changes":[5.1664383E4,1.8227148E3,3.088498E3,1.896211E2,4.5222515E3,2.6408374E2,1.0208711E3,7.422656E1,1.2781204E3,1.5780127E2,2.2957849E2,3.047168E1,0E0,5.295586E2,4.7429404E2,0E0,0E0,0E0,0E0,0E0,0E0,0E0,0E0,0E0,0E0,0E0,0E0,0E0,0E0],"parents":[2147483647,0,0,1,1,2,2,3,3,4,4,5,5,6,6,7,7,8,8,9,9,10,10,11,11,13,13,14,14],"right_children":[2,4,6,8,10,12,14,16,18,20,22,24,-1,26,28,-1,-1,-1,-1,-1,-1,-1,-1,-1,-1,-1,-1,-1,-1],"split_conditions":[1.320446E2,5.301298E1,1E-45,3.3060555E1,2.9567266E1,6.8688054E0,1E0,1E1,5.607632E1,1.5919858E1,5.8257473E1,2.1298928E3,-6.714363E-2,1.964913E2,3.7469697E0,5.9763428E-2,2.9134765E-2,5.3584147E-2,-8.104428E-2,6.095612E-2,3.8173806E-2,-6.649991E-3,-6.864294E-2,6.276218E-2,-6.6730544E-2,-3.0250419E-2,-6.292888E-2,5.0116956E-2,-5.545444E-2],"split_indices":[18,18,0,18,12,12,8,13,12,12,18,18,0,18,12,0,0,0,0,0,0,0,0,0,0,0,0,0,0],"split_type":[0,0,1,0,0,0,0,0,0,0,0,0,0,0,0,0,0,0,0,0,0,0,0,0,0,0,0,0,0],"sum_hessian":[4.5779516E4,2.3923184E4,2.185633E4,1.9421275E4,4.5019087E3,6.291318E2,2.12272E4,1.5861452E4,3.559823E3,3.2698042E3,1.2321046E3,5.873617E2,4.1770084E1,2.0758264E4,4.6893484E2,1.5658261E4,2.0319077E2,3.3746812E3,1.8514165E2,2.049644E3,1.2201604E3,1.7412836E2,1.0579762E3,5.8355194E2,3.8097377E0,1.3271877E3,1.9431076E4,3.075075E2,1.6142734E2],"tree_param":{"num_deleted":"0","num_feature":"20","num_nodes":"29","size_leaf_vector":"1"}},{"base_weights":[7.3239226E-3,9.538117E-1,-1.1303545E0,1.1196451E0,3.677638E-1,-3.483857E-1,-1.2776271E0,1.045995E0,1.2562948E0,1.011101E0,-1.2727175E0,1.4471138E0,-1.2638817E0,-1.276137E0,-8.1085734E-2,5.298316E-2,-9.92345E-2,6.370696E-2,6.2035233E-2,6.053696E-2,2.8194765E-2,-6.780268E-2,-3.4359112E-2,8.6332485E-2,4.977136E-2,-6.494407E-2,6.2816255E-2,-6.36523E-2,-6.637647E-2],"categories":[],"categories_nodes":[],"categories_segments":[],"categories_sizes":[],"default_left":[0,0,0,0,0,0,0,0,0,0,0,0,0,0,0,0,0,0,0,0,0,0,0,0,0,0,0,0,0],"id":18,"left_children":[1,3,5,7,9,11,13,15,17,19,21,23,25,27,-1,-1,-1,-1,-1,-1,-1,-1,-1,-1,-1,-1,-1,-1,-1],"loss_changes":[4.837107E4,2.3826934E3,2.3488926E3,1.9103906E2,5.7106875E3,5.318673E3,6.7304688E0,5.1678613E2,2.7929688E-1,3.462964E2,7.345068E1,1.362561E2,1.9063867E2,1.0273438E0,0E0,0E0,0E0,0E0,0E0,0E0,0E0,0E0,0E0,0E0,0E0,0E0,0E0,0E0,0E0],"parents":[2147483647,0,0,1,1,2,2,3,3,4,4,5,5,6,6,7,7,8,8,9,9,10,10,11,11,12,12,13,13],"right_children":[2,4,6,8,10,12,14,16,18,20,22,24,26,28,-1,-1,-1,-1,-1,-1,-1,-1,-1,-1,-1,-1,-1,-1,-1],"split_conditions":[1.5848961E2,5.301298E1,6.5978146E0,1E0,3.0407396E1,5.860055E2,1E0,1.235038E2,4.2021347E1,1.677808E1,1E0,1E0,1E0,1E0,-8.1085734E-2,5.298316E-2,-9.92345E-2,6.370696E-2,6.2035233E-2,6.053696E-2,2.8194765E-2,-6.780268E-2,-3.4359112E-2,8.6332485E-2,4.977136E-2,-6.494407E-2,6.2816255E-2,-6.36523E-2,-6.637647E-2],"split_indices":[18,18,12,7,12,18,8,12,12,12,11,8,16,7,0,0,0,0,0,0,0,0,0,0,0,0,0,0,0],"split_type":[0,0,0,0,0,0,0,0,0,0,0,0,0,0,0,0,0,0,0,0,0,0,0,0,0,0,0,0,0],"sum_hessian":[4.491918E4,2.4520004E4,2.0399174E4,1.911121E4,5.408793E3,3.2335374E3,1.7165637E4,1.2423805E4,6.6874062E3,3.8854458E3,1.5233472E3,1.091761E3,2.1417764E3,1.7096307E4,6.933042E1,1.2368673E4,5.5131294E1,3.0806472E3,3.606759E3,2.685084E3,1.2003618E3,1.332398E3,1.9094913E2,6.726527E2,4.1910828E2,2.1129175E3,2.8858814E1,1.615066E4,9.4564716E2],"tree_param":{"num_deleted":"0","num_feature":"20","num_nodes":"29","size_leaf_vector":"1"}},{"base_weights":[1.5923975E-2,9.383698E-1,-1.1088649E0,1.054656E0,1.5620446E-1,9.8044163E-1,-1.1563388E0,1.1430802E0,8.4637237E-1,1.0046892E0,-1.302349E0,1.2113936E0,-6.418737E-2,-1.1879765E0,3.646196E-1,5.739324E-2,-8.955012E-3,5.233362E-2,-2.741344E-2,6.196059E-2,3.503515E-2,-7.163314E-2,-6.351377E-2,6.1366048E-2,-5.1285233E-2,-4.688458E-2,-6.280499E-2,3.3445258E-2,-8.564866E-2],"categories":[0,0,2,4,5,6,9],"categories_nodes":[2,5],"categories_segments":[0,1],"categories_sizes":[1,6],"default_left":[0,0,1,0,0,1,0,0,0,0,0,0,0,0,0,0,0,0,0,0,0,0,0,0,0,0,0,0,0],"id":19,"left_children":[1,3,5,7,9,11,13,15,17,19,21,23,-1,25,27,-1,-1,-1,-1,-1,-1,-1,-1,-1,-1,-1,-1,-1,-1],"loss_changes":[4.5377684E4,2.1853848E3,1.955748E3,3.8430078E2,3.8516335E3,2.3078409E2,9.276387E2,9.308203E1,1.7431338E3,1.39401E2,2.9643555E0,1.5450806E1,0E0,3.2067188E2,2.4985345E2,0E0,0E0,0E0,0E0,0E0,0E0,0E0,0E0,0E0,0E0,0E0,0E0,0E0,0E0],"parents":[2147483647,0,0,1,1,2,2,3,3,4,4,5,5,6,6,7,7,8,8,9,9,10,10,11,11,13,13,14,14],"right_children":[2,4,6,8,10,12,14,16,18,20,22,24,-1,26,28,-1,-1,-1,-1,-1,-1,-1,-1,-1,-1,-1,-1,-1,-1],"split_conditions":[1.5848961E2,7.869122E1,1E-45,3.3060555E1,2E0,1E-45,1E0,1.2E1,4E0,1E0,3E0,1E0,-6.418737E-2,1E0,3.9159628E2,5.739324E-2,-8.955012E-3,5.233362E-2,-2.741344E-2,6.196059E-2,3.503515E-2,-7.163314E-2,-6.351377E-2,6.1366048E-2,-5.1285233E-2,-4.688458E-2,-6.280499E-2,3.3445258E-2,-8.564866E-2],"split_indices":[18,18,0,18,13,4,8,13,13,13,13,13,0,13,18,0,0,0,0,0,0,0,0,0,0,0,0,0,0],"split_type":[0,0,1,0,0,1,0,0,0,0,0,0,0,0,0,0,0,0,0,0,0,0,0,0,0,0,0,0,0],"sum_hessian":[4.373313E4,2.4027887E4,1.9705242E4,2.0917664E4,3.1102222E3,4.373642E2,1.9267877E4,1.4680678E4,6.2369863E3,1.9665382E3,1.1436838E3,3.9730338E2,4.0060802E1,1.8875467E4,3.924118E2,1.4627876E4,5.280166E1,5.4539355E3,7.8305096E2,1.1083671E3,8.581711E2,2.1726688E2,9.26417E2,3.949429E2,2.3604705E0,4.0415542E3,1.4833912E4,3.4287253E2,4.953928E1],"tree_param":{"num_deleted":"0","num_feature":"20","num_nodes":"29","size_leaf_vector":"1"}},{"base_weights":[4.847307E-4,-5.4558843E-1,1.0477986E0,1.1001105E0,-6.6073924E-1,1.1939855E0,9.1768795E-1,1.1326182E0,-6.464581E-2,-2.9059935E-1,-7.056054E-1,1.223933E0,1.1576287E0,8.676611E-1,6.1101504E-2,5.7595547E-2,1.8139794E-2,-5.006042E-2,1.4207351E-2,-6.355894E-2,-3.463638E-2,5.0995965E-2,6.1326843E-2,5.624732E-2,6.107981E-2,4.4082318E-2,-2.2889707E-2],"categories":[0,0,0,2,6,9,0,0,1,2,3,4,6,8,9,0],"categories_nodes":[1,2,3,4,7,11],"categories_segments":[0,1,2,6,7,15],"categories_sizes":[1,1,4,1,8,1],"default_left":[0,1,1,1,1,0,0,1,0,0,0,1,0,0,0,0,0,0,0,0,0,0,0,0,0,0,0],"id":20,"left_children":[1,3,5,7,9,11,13,15,-1,17,19,21,23,25,-1,-1,-1,-1,-1,-1,-1,-1,-1,-1,-1,-1,-1],"loss_changes":[2.4003572E4,5.2285537E3,2.7249316E2,1.4183398E2,4.279756E2,5.955078E0,1.1487598E2,2.603003E1,0E0,1.1394283E3,1.6660352E2,7.109375E-1,5.057129E0,1.2169336E2,0E0,0E0,0E0,0E0,0E0,0E0,0E0,0E0,0E0,0E0,0E0,0E0,0E0],"parents":[2147483647,0,0,1,1,2,2,3,3,4,4,5,5,6,6,7,7,9,9,10,10,11,11,12,12,13,13],"right_children":[2,4,6,8,10,12,14,16,-1,18,20,22,24,26,-1,-1,-1,-1,-1,-1,-1,-1,-1,-1,-1,-1,-1],"split_conditions":[1E0,1E-45,1E-45,1E-45,1E-45,4.2865337E1,1E0,1E-45,-6.464581E-2,4.5466072E1,1.5226003E0,1E-45,1E0,1E1,6.1101504E-2,5.7595547E-2,1.8139794E-2,-5.006042E-2,1.4207351E-2,-6.355894E-2,-3.463638E-2,5.0995965E-2,6.1326843E-2,5.624732E-2,6.107981E-2,4.4082318E-2,-2.2889707E-2],"split_indices":[17,0,0,4,3,12,16,4,0,12,12,3,16,13,0,0,0,0,0,0,0,0,0,0,0,0,0],"split_type":[0,1,1,1,1,0,0,1,0,0,0,1,0,0,0,0,0,0,0,0,0,0,0,0,0,0,0],"sum_hessian":[4.196889E4,2.7585955E4,1.4382935E4,1.803425E3,2.578253E4,6.769188E3,7.613747E3,1.7797747E3,2.3650396E1,2.7881482E3,2.299438E4,3.6938467E3,3.075341E3,6.5422104E3,1.0715369E3,1.7357777E3,4.3996933E1,1.2463881E3,1.5417601E3,5.097405E2,2.248464E4,5.149866E1,3.6423481E3,2.0477117E3,1.0276295E3,6.474234E3,6.7976265E1],"tree_param":{"num_deleted":"0","num_feature":"20","num_nodes":"27","size_leaf_vector":"1"}},{"base_weights":[7.5716972E-3,9.2335933E-1,-1.0424362E0,1.0655386E0,4.0497676E-1,-3.9903384E-1,-1.2353675E0,9.867685E-1,1.2134596E0,9.701554E-1,-1.2243284E0,1.3437591E0,-1.2088484E0,-6.407355E-2,-6.1643578E-2,5.0097086E-2,-9.860664E-2,6.0719907E-2,-5.7783425E-2,5.7727367E-2,3.1009419E-2,-6.6456765E-2,-2.6287181E-2,5.3978004E-2,9.6718155E-2,5.0951477E-2,-6.275446E-2],"categories":[0],"categories_nodes":[12],"categories_segments":[0],"categories_sizes":[1],"default_left":[0,0,0,0,0,0,0,0,0,0,0,0,1,0,0,0,0,0,0,0,0,0,0,0,0,0,0],"id":21,"left_children":[1,3,5,7,9,11,13,15,17,19,21,23,25,-1,-1,-1,-1,-1,-1,-1,-1,-1,-1,-1,-1,-1,-1],"loss_changes":[3.9515145E4,1.6173398E3,2.3758965E3,1.995E2,4.353196E3,6.236564E3,1.19140625E-1,5.0682324E2,1.4702148E1,2.2575317E2,8.845117E1,2.1667603E2,3.1206055E2,0E0,0E0,0E0,0E0,0E0,0E0,0E0,0E0,0E0,0E0,0E0,0E0,0E0,0E0],"parents":[2147483647,0,0,1,1,2,2,3,3,4,4,5,5,6,6,7,7,8,8,9,9,10,10,11,11,12,12],"right_children":[2,4,6,8,10,12,14,16,18,20,22,24,26,-1,-1,-1,-1,-1,-1,-1,-1,-1,-1,-1,-1,-1,-1],"split_conditions":[1.4250446E2,5.301298E1,1.05871725E1,1E0,3.0407396E1,5.860055E2,1.9139471E2,1E1,1.3E1,1.621082E1,1E0,1E0,1E-45,-6.407355E-2,-6.1643578E-2,5.0097086E-2,-9.860664E-2,6.0719907E-2,-5.7783425E-2,5.7727367E-2,3.1009419E-2,-6.6456765E-2,-2.6287181E-2,5.3978004E-2,9.6718155E-2,5.0951477E-2,-6.275446E-2],"split_indices":[18,18,12,7,12,18,18,13,13,12,11,11,0,0,0,0,0,0,0,0,0,0,0,0,0,0,0],"split_type":[0,0,0,0,0,0,0,0,0,0,0,0,1,0,0,0,0,0,0,0,0,0,0,0,0,0,0],"sum_hessian":[4.109179E4,2.194879E4,1.9143E4,1.7223703E4,4.725085E3,4.4167476E3,1.4726253E4,1.1243853E4,5.979851E3,3.5084626E3,1.2166222E3,1.4010038E3,3.015744E3,7.2999457E2,1.3996258E4,1.1187146E4,5.6705917E1,5.97797E3,1.8805562E0,2.2962874E3,1.2121753E3,1.0571223E3,1.5949991E2,9.699412E2,4.3106256E2,6.0892803E1,2.954851E3],"tree_param":{"num_deleted":"0","num_feature":"20","num_nodes":"27","size_leaf_vector":"1"}},{"base_weights":[6.752454E-3,9.2058694E-1,-1.019586E0,1.0453838E0,4.2418164E-1,1.0134223E0,-1.0825298E0,1.0929697E0,8.508191E-1,9.487176E-1,-1.3135214E0,1.1613718E0,-6.172793E-2,-6.058215E-1,-1.2221394E0,5.4787584E-2,-8.114354E-2,4.9534865E-2,-8.0507524E-2,5.6387503E-2,3.1799365E-2,-7.507305E-2,-6.240982E-2,5.9306998E-2,-5.7219643E-2,7.135683E-2,-5.81487E-2,-6.104202E-2,-7.419019E-2],"categories":[0,0,1,3,4,5,6,8,9],"categories_nodes":[2,11],"categories_segments":[0,1],"categories_sizes":[1,8],"default_left":[0,0,1,0,0,0,0,0,0,0,0,1,0,0,0,0,0,0,0,0,0,0,0,0,0,0,0,0,0],"id":22,"left_children":[1,3,5,7,9,11,13,15,17,19,21,23,-1,25,27,-1,-1,-1,-1,-1,-1,-1,-1,-1,-1,-1,-1,-1,-1],"loss_changes":[3.734298E4,1.3043477E3,2.4008691E3,1.5489062E2,3.8595386E3,1.8891315E2,1.2099004E3,1.0392285E2,1.1416543E3,1.813623E2,1.0180908E1,3.1591553E1,0E0,4.671148E3,2.96875E0,0E0,0E0,0E0,0E0,0E0,0E0,0E0,0E0,0E0,0E0,0E0,0E0,0E0,0E0],"parents":[2147483647,0,0,1,1,2,2,3,3,4,4,5,5,6,6,7,7,8,8,9,9,10,10,11,11,13,13,14,14],"right_children":[2,4,6,8,10,12,14,16,18,20,22,24,-1,26,28,-1,-1,-1,-1,-1,-1,-1,-1,-1,-1,-1,-1,-1,-1],"split_conditions":[1.320446E2,5.301298E1,1E-45,3.3060555E1,3.1225105E1,1.3334151E1,1.1418442E1,1.5261296E2,5.607632E1,1.677808E1,6.843568E1,1E-45,-6.172793E-2,3.9159628E2,1E0,5.4787584E-2,-8.114354E-2,4.9534865E-2,-8.0507524E-2,5.6387503E-2,3.1799365E-2,-7.507305E-2,-6.240982E-2,5.9306998E-2,-5.7219643E-2,7.135683E-2,-5.81487E-2,-6.104202E-2,-7.419019E-2],"split_indices":[18,18,0,18,12,12,12,12,12,12,18,4,0,18,8,0,0,0,0,0,0,0,0,0,0,0,0,0,0],"split_type":[0,0,1,0,0,0,0,0,0,0,0,1,0,0,0,0,0,0,0,0,0,0,0,0,0,0,0,0,0],"sum_hessian":[3.9813375E4,2.1061062E4,1.8752312E4,1.6829102E4,4.231962E3,5.6269904E2,1.8189613E4,1.3518246E4,3.3108545E3,3.2510635E3,9.808987E2,5.284057E2,3.4293343E1,4.1215576E3,1.4068056E4,1.3505009E4,1.323742E1,3.1333562E3,1.7749825E2,2.0658152E3,1.1852482E3,2.4733452E2,7.3356415E2,5.232704E2,5.135317E0,8.862425E2,3.2353152E3,1.4004199E4,6.385672E1],"tree_param":{"num_deleted":"0","num_feature":"20","num_nodes":"29","size_leaf_vector":"1"}},{"base_weights":[-7.911103E-3,9.1906303E-1,-9.9456155E-1,1.0234519E0,4.1706982E-1,1.0244958E0,-1.0644492E0,9.370155E-1,1.186471E0,9.2744344E-1,-1.3153311E0,1.1495956E0,-6.085774E-2,-6.4674884E-1,-1.2120261E0,4.7642566E-2,-9.6383E-2,5.9366148E-2,-5.347696E-2,3.8677983E-2,6.185347E-2,-7.3991336E-2,-6.192861E-2,5.8147825E-2,-6.361559E-2,4.411363E-2,-6.114247E-2,-6.8466626E-2,-6.0359813E-2],"categories":[0],"categories_nodes":[2],"categories_segments":[0],"categories_sizes":[1],"default_left":[0,0,1,0,0,0,0,0,0,0,0,0,0,0,0,0,0,0,0,0,0,0,0,0,0,0,0,0,0],"id":23,"left_children":[1,3,5,7,9,11,13,15,17,19,21,23,-1,25,27,-1,-1,-1,-1,-1,-1,-1,-1,-1,-1,-1,-1,-1,-1],"loss_changes":[3.4926625E4,1.0313496E3,2.6113613E3,2.2855664E2,2.999645E3,1.7509607E2,1.1014004E3,4.852539E2,1.2118164E1,1.238811E2,7.916382E0,2.0479553E1,0E0,4.1148325E3,8.3828125E0,0E0,0E0,0E0,0E0,0E0,0E0,0E0,0E0,0E0,0E0,0E0,0E0,0E0,0E0],"parents":[2147483647,0,0,1,1,2,2,3,3,4,4,5,5,6,6,7,7,8,8,9,9,10,10,11,11,13,13,14,14],"right_children":[2,4,6,8,10,12,14,16,18,20,22,24,-1,26,28,-1,-1,-1,-1,-1,-1,-1,-1,-1,-1,-1,-1,-1,-1],"split_conditions":[1.1604901E2,5.301298E1,1E-45,1E0,3.1225105E1,1.3334151E1,1.3633867E1,1E1,1.3E1,1E0,6.843568E1,3.9381558E3,-6.085774E-2,5.860055E2,1.4250446E2,4.7642566E-2,-9.6383E-2,5.9366148E-2,-5.347696E-2,3.8677983E-2,6.185347E-2,-7.3991336E-2,-6.192861E-2,5.8147825E-2,-6.361559E-2,4.411363E-2,-6.114247E-2,-6.8466626E-2,-6.0359813E-2],"split_indices":[18,18,0,7,12,12,12,13,13,7,18,18,0,18,18,0,0,0,0,0,0,0,0,0,0,0,0,0,0],"split_type":[0,0,1,0,0,0,0,0,0,0,0,0,0,0,0,0,0,0,0,0,0,0,0,0,0,0,0,0,0],"sum_hessian":[3.8185895E4,1.9688396E4,1.84975E4,1.6298171E4,3.3902246E3,6.183946E2,1.7879105E4,1.0655254E4,5.642917E3,2.619092E3,7.7113245E2,5.8616943E2,3.2225193E1,4.669103E3,1.3210001E4,1.0597339E4,5.791453E1,5.6412603E3,1.6568067E0,1.7518983E3,8.671937E2,2.3953221E2,5.316003E2,5.8347046E2,2.6989715E0,1.2776298E3,3.3914734E3,3.8510358E2,1.2824897E4],"tree_param":{"num_deleted":"0","num_feature":"20","num_nodes":"29","size_leaf_vector":"1"}},{"base_weights":[2.1713585E-2,8.6382383E-1,-1.0140216E0,9.672423E-1,1.6700648E-1,-2.3534824E-1,-1.1670799E0,1.0628039E0,7.31181E-1,1.0380759E0,-1.2596649E0,1.3594006E0,-1.1823629E0,-3.5590807E-1,-1.1985207E0,5.0138246E-2,5.8590826E-2,4.3912128E-2,-7.1227424E-2,5.5602904E-2,1.6585112E-2,-1.2239846E-1,-5.9021182E-2,-4.2709517E-3,7.3377594E-2,-6.074254E-2,5.8039363E-2,9.182114E-2,-6.1864447E-2,-5.9850127E-2,-7.852281E-2],"categories":[],"categories_nodes":[],"categories_segments":[],"categories_sizes":[],"default_left":[0,0,0,0,0,0,0,0,0,0,0,0,0,0,0,0,0,0,0,0,0,0,0,0,0,0,0,0,0,0,0],"id":24,"left_children":[1,3,5,7,9,11,13,15,17,19,21,23,25,27,29,-1,-1,-1,-1,-1,-1,-1,-1,-1,-1,-1,-1,-1,-1,-1,-1],"loss_changes":[3.2881938E4,1.4982988E3,2.0146602E3,4.0766602E2,3.342337E3,4.1978413E3,3.5991602E2,8.316699E1,1.6563469E3,8.689404E1,9.312256E1,1.619602E2,1.341565E2,1.0237068E3,5.798828E0,0E0,0E0,0E0,0E0,0E0,0E0,0E0,0E0,0E0,0E0,0E0,0E0,0E0,0E0,0E0,0E0],"parents":[2147483647,0,0,1,1,2,2,3,3,4,4,5,5,6,6,7,7,8,8,9,9,10,10,11,11,12,12,13,13,14,14],"right_children":[2,4,6,8,10,12,14,16,18,20,22,24,26,28,30,-1,-1,-1,-1,-1,-1,-1,-1,-1,-1,-1,-1,-1,-1,-1,-1],"split_conditions":[1.5341975E2,7.869122E1,6.5978146E0,3.3060555E1,1.8821903E1,5.860055E2,1.807417E2,1E0,5.607632E1,1.5061812E1,2.2735518E1,1E0,1E0,9.736109E0,1E0,5.0138246E-2,5.8590826E-2,4.3912128E-2,-7.1227424E-2,5.5602904E-2,1.6585112E-2,-1.2239846E-1,-5.9021182E-2,-4.2709517E-3,7.3377594E-2,-6.074254E-2,5.8039363E-2,9.182114E-2,-6.1864447E-2,-5.9850127E-2,-7.852281E-2],"split_indices":[18,18,12,18,12,18,18,7,12,12,12,10,16,12,8,0,0,0,0,0,0,0,0,0,0,0,0,0,0,0,0],"split_type":[0,0,0,0,0,0,0,0,0,0,0,0,0,0,0,0,0,0,0,0,0,0,0,0,0,0,0,0,0,0,0],"sum_hessian":[3.7697848E4,2.0792531E4,1.6905316E4,1.8105072E4,2.68746E3,2.777502E3,1.4127814E4,1.2885357E4,5.2197144E3,1.6688177E3,1.0186422E3,1.0346843E3,1.7428177E3,5.276167E2,1.3600197E4,8.315671E3,4.569686E3,4.8869263E3,3.3278824E2,1.5100847E3,1.5873302E2,6.181219E1,9.5683E2,7.207154E1,9.6261273E2,1.7194589E3,2.3358833E1,1.5098236E2,3.7663437E2,1.3549109E4,5.1087753E1],"tree_param":{"num_deleted":"0","num_feature":"20","num_nodes":"31","size_leaf_vector":"1"}},{"base_weights":[5.016934E-3,8.5699826E-1,-1.0130098E0,9.4934225E-1,9.4234094E-2,-1.0641574E0,9.537191E-1,1.0474694E0,7.092384E-1,8.158981E-1,-1.2351868E0,-6.7425066E-1,-5.9196033E-2,1.1405282E0,-6.0067315E-2,5.2830882E-2,2.460423E-2,5.154699E-2,-7.281109E-3,5.362323E-2,2.716413E-2,-7.051876E-2,-5.9352852E-2,5.1106542E-2,-6.01348E-2,5.782553E-2,-4.7665995E-2],"categories":[0,2,4,5,6,9],"categories_nodes":[6],"categories_segments":[0],"categories_sizes":[6],"default_left":[0,0,0,0,0,0,1,0,0,0,0,0,0,0,0,0,0,0,0,0,0,0,0,0,0,0,0],"id":25,"left_children":[1,3,5,7,9,11,13,15,17,19,21,23,-1,25,-1,-1,-1,-1,-1,-1,-1,-1,-1,-1,-1,-1,-1],"loss_changes":[3.1191686E4,1.3789102E3,1.6491973E3,4.1070996E2,2.0304578E3,7.449336E2,1.6877817E2,6.2456055E1,1.3943374E3,9.5357605E1,4.6046143E0,3.3673203E3,0E0,1.39253235E1,0E0,0E0,0E0,0E0,0E0,0E0,0E0,0E0,0E0,0E0,0E0,0E0,0E0],"parents":[2147483647,0,0,1,1,2,2,3,3,4,4,5,5,6,6,7,7,8,8,9,9,10,10,11,11,13,13],"right_children":[2,4,6,8,10,12,14,16,18,20,22,24,-1,26,-1,-1,-1,-1,-1,-1,-1,-1,-1,-1,-1,-1,-1],"split_conditions":[1.4250446E2,7.869122E1,1E0,3.3060555E1,2E0,1E0,1E-45,1E1,3E0,1E0,3E0,5.237296E2,-5.9196033E-2,1E0,-6.0067315E-2,5.2830882E-2,2.460423E-2,5.154699E-2,-7.281109E-3,5.362323E-2,2.716413E-2,-7.051876E-2,-5.9352852E-2,5.1106542E-2,-6.01348E-2,5.782553E-2,-4.7665995E-2],"split_indices":[18,18,14,18,13,13,4,13,13,13,13,18,0,13,0,0,0,0,0,0,0,0,0,0,0,0,0],"split_type":[0,0,0,0,0,0,1,0,0,0,0,0,0,0,0,0,0,0,0,0,0,0,0,0,0,0,0],"sum_hessian":[3.5960473E4,1.957686E4,1.6383613E4,1.7462516E4,2.1143428E3,1.5968781E4,4.1483157E2,1.2393926E4,5.0685894E3,1.3706722E3,7.436706E2,3.753934E3,1.2214848E4,3.8217404E2,3.265752E1,1.2192195E4,2.0173128E2,3.682561E3,1.3860283E3,7.046096E2,6.660626E2,1.5417673E2,5.894939E2,8.9142E2,2.8625142E3,3.7972327E2,2.4507735E0],"tree_param":{"num_deleted":"0","num_feature":"20","num_nodes":"27","size_leaf_vector":"1"}},{"base_weights":[5.1916856E-3,7.9789007E-1,-1.031536E0,9.890663E-1,2.749052E-1,-3.0415595E-1,-1.1770374E0,1.0300108E0,8.0293125E-1,8.8664436E-1,-1.0250727E0,1.2820973E0,-1.1230522E0,-1.1754917E0,-1.5522766E0,5.19265E-2,8.062219E-3,4.7769446E-2,-8.4440924E-2,5.7456642E-2,2.435958E-2,-1.0034971E-2,-6.2185753E-2,-4.764091E-3,7.0107855E-2,4.4195022E-2,-5.9456643E-2,-6.0486972E-2,-5.857591E-2,-9.031139E-2,-6.466239E-2],"categories":[0],"categories_nodes":[12],"categories_segments":[0],"categories_sizes":[1],"default_left":[0,0,0,0,0,0,0,0,0,0,0,0,1,0,0,0,0,0,0,0,0,0,0,0,0,0,0,0,0,0,0],"id":26,"left_children":[1,3,5,7,9,11,13,15,17,19,21,23,25,27,29,-1,-1,-1,-1,-1,-1,-1,-1,-1,-1,-1,-1,-1,-1,-1,-1],"loss_changes":[2.8505586E4,1.9650332E3,1.5903076E3,1.08875E2,4.186544E3,3.2575364E3,5.4375E0,8.713086E1,9.8929724E2,3.747693E2,3.0340466E2,1.4134534E2,2.203706E2,2.8125E-1,8.382492E-1,0E0,0E0,0E0,0E0,0E0,0E0,0E0,0E0,0E0,0E0,0E0,0E0,0E0,0E0,0E0,0E0],"parents":[2147483647,0,0,1,1,2,2,3,3,4,4,5,5,6,6,7,7,8,8,9,9,10,10,11,11,12,12,13,13,14,14],"right_children":[2,4,6,8,10,12,14,16,18,20,22,24,26,28,30,-1,-1,-1,-1,-1,-1,-1,-1,-1,-1,-1,-1,-1,-1,-1,-1],"split_conditions":[1.807417E2,4.791969E1,6.5978146E0,3.3060555E1,2.8983992E1,5.731936E2,1E0,1.1E1,5.435278E1,1.4199644E1,5.8257473E1,1E0,1E-45,1E0,1.1698272E1,5.19265E-2,8.062219E-3,4.7769446E-2,-8.4440924E-2,5.7456642E-2,2.435958E-2,-1.0034971E-2,-6.2185753E-2,-4.764091E-3,7.0107855E-2,4.4195022E-2,-5.9456643E-2,-6.0486972E-2,-5.857591E-2,-9.031139E-2,-6.466239E-2],"split_indices":[18,18,12,18,12,18,8,13,12,12,18,10,0,13,12,0,0,0,0,0,0,0,0,0,0,0,0,0,0,0,0],"split_type":[0,0,0,0,0,0,0,0,0,0,0,0,1,0,0,0,0,0,0,0,0,0,0,0,0,0,0,0,0,0,0],"sum_hessian":[3.4684246E4,1.965554E4,1.5028706E4,1.4393228E4,5.2623115E3,2.505662E3,1.2523044E4,1.1794282E4,2.598946E3,3.5786165E3,1.6836952E3,8.529258E2,1.6527362E3,1.247579E4,4.7253643E1,1.1679557E4,1.1472552E2,2.449679E3,1.4926695E2,2.1584067E3,1.4202096E3,3.5334692E2,1.3303483E3,6.8401306E1,7.845245E2,5.2288593E1,1.6004476E3,1.2654646E3,1.1210325E4,2.0844595E1,2.6409048E1],"tree_param":{"num_deleted":"0","num_feature":"20","num_nodes":"31","size_leaf_vector":"1"}},{"base_weights":[7.445433E-3,7.8607726E-1,-1.0165908E0,9.115851E-1,1.1990307E-1,-2.7362278E-1,-1.1669712E0,7.9206085E-1,1.142491E0,1.0408512E0,-1.2137678E0,1.2608848E0,-1.0715237E0,-1.1655302E0,-1.5100574E0,4.499828E-2,1.829815E-2,5.8688372E-2,5.549055E-2,5.668599E-2,2.6635585E-2,-6.440682E-2,-1.8363068E-2,-2.9765535E-2,6.878906E-2,4.9863845E-2,-5.8871936E-2,-5.9929725E-2,-5.8094215E-2,-8.668282E-2,-6.3687645E-2],"categories":[0],"categories_nodes":[12],"categories_segments":[0],"categories_sizes":[1],"default_left":[0,0,0,0,0,0,0,0,0,0,0,0,1,0,0,0,0,0,0,0,0,0,0,0,0,0,0,0,0,0,0],"id":27,"left_children":[1,3,5,7,9,11,13,15,17,19,21,23,25,27,29,-1,-1,-1,-1,-1,-1,-1,-1,-1,-1,-1,-1,-1,-1,-1,-1],"loss_changes":[2.6722033E4,1.5916611E3,1.6170156E3,4.4121973E2,3.7097017E3,2.986456E3,4.1914062E0,4.8515088E2,4.279297E0,8.370361E1,7.719678E1,1.7879248E2,3.527577E2,5.2734375E-2,2.7353668E-1,0E0,0E0,0E0,0E0,0E0,0E0,0E0,0E0,0E0,0E0,0E0,0E0,0E0,0E0,0E0,0E0],"parents":[2147483647,0,0,1,1,2,2,3,3,4,4,5,5,6,6,7,7,8,8,9,9,10,10,11,11,12,12,13,13,14,14],"right_children":[2,4,6,8,10,12,14,16,18,20,22,24,26,28,30,-1,-1,-1,-1,-1,-1,-1,-1,-1,-1,-1,-1,-1,-1,-1,-1],"split_conditions":[1.807417E2,7.869122E1,6.5978146E0,1E0,1.8821903E1,5.860055E2,1E0,4.3129635E1,4.1175034E1,1.4199644E1,1E0,1E0,1E-45,1.1698272E1,1.1698272E1,4.499828E-2,1.829815E-2,5.8688372E-2,5.549055E-2,5.668599E-2,2.6635585E-2,-6.440682E-2,-1.8363068E-2,-2.9765535E-2,6.878906E-2,4.9863845E-2,-5.8871936E-2,-5.9929725E-2,-5.8094215E-2,-8.668282E-2,-6.3687645E-2],"split_indices":[18,18,12,7,12,18,8,18,12,12,7,10,0,12,12,0,0,0,0,0,0,0,0,0,0,0,0,0,0,0,0],"split_type":[0,0,0,0,0,0,0,0,0,0,0,0,1,0,0,0,0,0,0,0,0,0,0,0,0,0,0,0,0,0,0],"sum_hessian":[3.351167E4,1.9037006E4,1.4474664E4,1.6018699E4,3.0183071E3,2.4370444E3,1.203762E4,1.0557981E4,5.460718E3,1.7855438E3,1.2327633E3,8.334976E2,1.6035468E3,1.1991649E4,4.5970284E1,8.423667E3,2.1343152E3,2.7724297E3,2.6882883E3,1.508598E3,2.769457E2,1.1327274E3,1.0003586E2,4.834147E1,7.851562E2,7.768759E1,1.5258593E3,1.1584014E3,1.0833248E4,2.0364344E1,2.560594E1],"tree_param":{"num_deleted":"0","num_feature":"20","num_nodes":"31","size_leaf_vector":"1"}},{"base_weights":[-2.1680236E-2,7.601967E-1,-1.0541304E0,9.493124E-1,2.8159052E-1,8.692353E-1,-1.0948595E0,8.52514E-1,1.1326779E0,7.6325375E-1,-1.1519239E0,1.0930094E0,-5.8333814E-2,-1.1104409E0,-9.993735E-3,4.348017E-2,-9.9987954E-2,5.6684073E-2,-5.2497126E-2,4.6081845E-2,5.7545425E-3,-6.0164172E-2,-2.4366228E-2,5.547021E-2,-4.121795E-2,-3.905598E-2,-5.742788E-2,-9.969679E-2,1.3001162E-2],"categories":[0,0,1,2,3,4,5,6,8,9],"categories_nodes":[2,5],"categories_segments":[0,1],"categories_sizes":[1,9],"default_left":[0,0,1,0,0,1,0,0,0,0,0,0,0,0,0,0,0,0,0,0,0,0,0,0,0,0,0,0,0],"id":28,"left_children":[1,3,5,7,9,11,13,15,17,19,21,23,-1,25,27,-1,-1,-1,-1,-1,-1,-1,-1,-1,-1,-1,-1,-1,-1],"loss_changes":[2.5595504E4,1.6328447E3,1.0713477E3,2.2857715E2,3.5303403E3,1.3061792E2,2.2617969E2,4.145088E2,1.0970215E1,3.9273535E2,4.330835E1,8.971588E0,0E0,1.6469043E2,1.02554924E2,0E0,0E0,0E0,0E0,0E0,0E0,0E0,0E0,0E0,0E0,0E0,0E0,0E0,0E0],"parents":[2147483647,0,0,1,1,2,2,3,3,4,4,5,5,6,6,7,7,8,8,9,9,10,10,11,11,13,13,14,14],"right_children":[2,4,6,8,10,12,14,16,18,20,22,24,-1,26,28,-1,-1,-1,-1,-1,-1,-1,-1,-1,-1,-1,-1,-1,-1],"split_conditions":[1.807417E2,4.791969E1,1E-45,1E0,3E0,1E-45,1E0,1E1,1.3E1,2E0,1E0,1E0,-5.8333814E-2,2.9461124E2,2.3990375E2,4.348017E-2,-9.9987954E-2,5.6684073E-2,-5.2497126E-2,4.6081845E-2,5.7545425E-3,-6.0164172E-2,-2.4366228E-2,5.547021E-2,-4.121795E-2,-3.905598E-2,-5.742788E-2,-9.969679E-2,1.3001162E-2],"split_indices":[18,18,0,7,13,4,17,13,13,13,7,13,0,18,18,0,0,0,0,0,0,0,0,0,0,0,0,0,0],"split_type":[0,0,1,0,0,1,0,0,0,0,0,0,0,0,0,0,0,0,0,0,0,0,0,0,0,0,0,0,0],"sum_hessian":[3.170508E4,1.8042055E4,1.3663026E4,1.2931385E4,5.1106704E3,2.8290524E2,1.3380121E4,8.467207E3,4.4641777E3,3.8256973E3,1.284973E3,2.5530673E2,2.7598505E1,1.3190646E4,1.8947383E2,8.417469E3,4.9737926E1,4.4626064E3,1.571197E0,3.074098E3,7.5159937E2,1.1920428E3,9.293016E1,2.5356E2,1.7467322E0,1.3705808E3,1.1820066E4,2.193351E1,1.6754031E2],"tree_param":{"num_deleted":"0","num_feature":"20","num_nodes":"29","size_leaf_vector":"1"}},{"base_weights":[4.1358448E-3,7.7931184E-1,-1.0095459E0,9.4085085E-1,3.2375574E-1,-2.4987479E-1,-1.121222E0,8.5515034E-1,1.1191427E0,8.081583E-1,-1.0654572E0,1.2571094E0,-1.0606415E0,-5.236488E-1,-1.1514018E0,4.354416E-2,-9.6195295E-2,5.6003608E-2,-5.030138E-2,5.314265E-2,2.4116237E-2,-1.7924568E-2,-6.2941894E-2,7.845472E-2,3.3192154E-2,4.944541E-2,-5.7954427E-2,7.1541354E-2,-5.896567E-2,-5.745247E-2,-8.972918E-2],"categories":[0],"categories_nodes":[12],"categories_segments":[0],"categories_sizes":[1],"default_left":[0,0,0,0,0,0,0,0,0,0,0,0,1,0,0,0,0,0,0,0,0,0,0,0,0,0,0,0,0,0,0],"id":29,"left_children":[1,3,5,7,9,11,13,15,17,19,21,23,25,27,29,-1,-1,-1,-1,-1,-1,-1,-1,-1,-1,-1,-1,-1,-1,-1,-1],"loss_changes":[2.4576422E4,1.3039473E3,1.1495332E3,1.9895215E2,3.1239602E3,2.125246E3,2.1249121E2,3.881914E2,9.510254E0,2.8510596E2,1.6364697E2,1.1159271E2,2.2930823E2,7.319918E2,1.4955078E1,0E0,0E0,0E0,0E0,0E0,0E0,0E0,0E0,0E0,0E0,0E0,0E0,0E0,0E0,0E0,0E0],"parents":[2147483647,0,0,1,1,2,2,3,3,4,4,5,5,6,6,7,7,8,8,9,9,10,10,11,11,12,12,13,13,14,14],"right_children":[2,4,6,8,10,12,14,16,18,20,22,24,26,28,30,-1,-1,-1,-1,-1,-1,-1,-1,-1,-1,-1,-1,-1,-1,-1,-1],"split_conditions":[1.5848961E2,4.791969E1,4.875483E0,1E0,3.1519417E1,5.731936E2,1.964913E2,1E1,1.3E1,1.4499336E1,3.8606323E1,1E0,1E-45,9.736109E0,1E0,4.354416E-2,-9.6195295E-2,5.6003608E-2,-5.030138E-2,5.314265E-2,2.4116237E-2,-1.7924568E-2,-6.2941894E-2,7.845472E-2,3.3192154E-2,4.944541E-2,-5.7954427E-2,7.1541354E-2,-5.896567E-2,-5.745247E-2,-8.972918E-2],"split_indices":[18,18,12,7,12,18,18,13,13,12,12,8,0,12,17,0,0,0,0,0,0,0,0,0,0,0,0,0,0,0,0],"split_type":[0,0,0,0,0,0,0,0,0,0,0,0,1,0,0,0,0,0,0,0,0,0,0,0,0,0,0,0,0,0,0],"sum_hessian":[3.1274398E4,1.7722215E4,1.3552184E4,1.3082226E4,4.639989E3,1.7373293E3,1.1814854E4,8.839222E3,4.243004E3,3.4406814E3,1.1993076E3,6.075383E2,1.129791E3,5.6889105E2,1.1245963E4,8.7901455E3,4.90763E1,4.2416216E3,1.3821831E0,1.9298845E3,1.5107968E3,2.5820584E2,9.411018E2,3.9707895E2,2.104594E2,5.1366005E1,1.0784249E3,1.4260786E2,4.262832E2,1.1207758E4,3.8205425E1],"tree_param":{"num_deleted":"0","num_feature":"20","num_nodes":"31","size_leaf_vector":"1"}},{"base_weights":[4.2252867E-3,8.195931E-1,-8.9306194E-1,9.717656E-1,5.37391E-1,9.768646E-1,-9.704022E-1,9.0264827E-1,5.542476E-2,7.542605E-1,-6.551362E-1,1.0627812E0,-5.581972E-2,-4.9883643E-1,-1.1240454E0,4.6066795E-2,-1.0160867E-1,2.8576598E-2,5.7367064E-2,2.0079082E-2,-5.9288114E-2,5.441264E-2,-5.525275E-2,4.4189207E-2,-5.7435304E-2,-3.255144E-2,-5.701843E-2],"categories":[0,0,1,3,4,5,8,9],"categories_nodes":[2,11],"categories_segments":[0,1],"categories_sizes":[1,7],"default_left":[0,0,1,0,0,0,0,0,0,0,0,1,0,0,0,0,0,0,0,0,0,0,0,0,0,0,0],"id":30,"left_children":[1,3,5,7,9,11,13,15,-1,17,19,21,-1,23,25,-1,-1,-1,-1,-1,-1,-1,-1,-1,-1,-1,-1],"loss_changes":[2.2009182E4,6.7630273E2,2.0721973E3,9.575391E1,1.4290419E3,1.0357782E2,9.959297E2,3.7514014E2,0E0,3.3507764E2,4.773619E2,3.1428772E1,0E0,3.03956E3,7.934961E1,0E0,0E0,0E0,0E0,0E0,0E0,0E0,0E0,0E0,0E0,0E0,0E0],"parents":[2147483647,0,0,1,1,2,2,3,3,4,4,5,5,6,6,7,7,9,9,10,10,11,11,13,13,14,14],"right_children":[2,4,6,8,10,12,14,16,-1,18,20,22,-1,24,26,-1,-1,-1,-1,-1,-1,-1,-1,-1,-1,-1,-1],"split_conditions":[1.1103358E2,3.3060555E1,1E-45,1E0,4E0,2E0,1E0,1E1,5.542476E-2,1E0,3.7715046E1,1E-45,-5.581972E-2,5.860055E2,1.320446E2,4.6066795E-2,-1.0160867E-1,2.8576598E-2,5.7367064E-2,2.0079082E-2,-5.9288114E-2,5.441264E-2,-5.525275E-2,4.4189207E-2,-5.7435304E-2,-3.255144E-2,-5.701843E-2],"split_indices":[18,18,0,7,13,13,13,13,0,7,18,4,0,18,18,0,0,0,0,0,0,0,0,0,0,0,0],"split_type":[0,0,1,0,0,0,0,0,0,0,0,1,0,0,0,0,0,0,0,0,0,0,0,0,0,0,0],"sum_hessian":[3.0080842E4,1.5759877E4,1.4320964E4,1.0237202E4,5.5226753E3,5.683286E2,1.3752636E4,6.804905E3,3.4322974E3,4.6731904E3,8.494849E2,5.463944E2,2.1934164E1,3.3807104E3,1.0371925E4,6.7625303E3,4.2374516E1,3.1918655E3,1.4813248E3,2.8405182E2,5.654331E2,5.405412E2,5.85324E0,1.0808352E3,2.2998752E3,3.4734827E2,1.0024576E4],"tree_param":{"num_deleted":"0","num_feature":"20","num_nodes":"27","size_leaf_vector":"1"}},{"base_weights":[7.4482383E-3,7.8517747E-1,-9.223212E-1,8.9819044E-1,3.2659605E-1,-2.9449242E-1,-1.127975E0,7.9421216E-1,1.102594E0,7.544355E-1,-1.0739276E0,1.0094507E0,-1.057672E0,-7.7912694E-1,-1.1349229E0,4.043922E-2,-8.721615E-2,5.616383E-2,5.3648796E-2,2.5813637E-2,5.766812E-2,-1.4896913E-2,-6.0871016E-2,5.96438E-2,2.659887E-2,4.8215415E-2,-5.7315003E-2,6.3811556E-2,-5.8602687E-2,-6.5645844E-2,-5.656845E-2],"categories":[0],"categories_nodes":[12],"categories_segments":[0],"categories_sizes":[1],"default_left":[0,0,0,0,0,0,0,0,0,0,0,0,1,0,0,0,0,0,0,0,0,0,0,0,0,0,0,0,0,0,0],"id":31,"left_children":[1,3,5,7,9,11,13,15,17,19,21,23,25,27,29,-1,-1,-1,-1,-1,-1,-1,-1,-1,-1,-1,-1,-1,-1,-1,-1],"loss_changes":[2.1100508E4,8.2317773E2,1.7157383E3,2.700459E2,1.8841671E3,3.2659087E3,2.338086E1,3.140957E2,1.4257812E0,2.2820776E2,8.157971E1,1.05493164E2,3.7205884E2,1.6195755E2,4.7226562E0,0E0,0E0,0E0,0E0,0E0,0E0,0E0,0E0,0E0,0E0,0E0,0E0,0E0,0E0,0E0,0E0],"parents":[2147483647,0,0,1,1,2,2,3,3,4,4,5,5,6,6,7,7,8,8,9,9,10,10,11,11,12,12,13,13,14,14],"right_children":[2,4,6,8,10,12,14,16,18,20,22,24,26,28,30,-1,-1,-1,-1,-1,-1,-1,-1,-1,-1,-1,-1,-1,-1,-1,-1],"split_conditions":[1.26843094E2,5.301298E1,1.05871725E1,1E0,3.1225105E1,5.237296E2,1.1418442E1,1.235038E2,5.2083023E1,1E0,5.8257473E1,6.5978146E0,1E-45,1.4250446E2,1.4250446E2,4.043922E-2,-8.721615E-2,5.616383E-2,5.3648796E-2,2.5813637E-2,5.766812E-2,-1.4896913E-2,-6.0871016E-2,5.96438E-2,2.659887E-2,4.8215415E-2,-5.7315003E-2,6.3811556E-2,-5.8602687E-2,-6.5645844E-2,-5.656845E-2],"split_indices":[18,18,12,7,12,18,12,12,12,7,18,12,0,18,18,0,0,0,0,0,0,0,0,0,0,0,0,0,0,0,0],"split_type":[0,0,0,0,0,0,0,0,0,0,0,0,1,0,0,0,0,0,0,0,0,0,0,0,0,0,0,0,0,0,0],"sum_hessian":[2.9178262E4,1.58882705E4,1.3289991E4,1.2746147E4,3.1421228E3,3.2797764E3,1.0010215E4,8.451719E3,4.2944287E3,2.407215E3,7.349076E2,1.210771E3,2.0690054E3,1.976884E2,9.812526E3,8.404156E3,4.756196E1,2.5069067E3,1.7875221E3,1.508764E3,8.984511E2,1.15168396E2,6.197392E2,8.7365204E2,3.37119E2,8.646612E1,1.9825393E3,3.1366348E1,1.6632205E2,1.8487679E2,9.627649E3],"tree_param":{"num_deleted":"0","num_feature":"20","num_nodes":"31","size_leaf_vector":"1"}},{"base_weights":[9.513209E-3,7.203864E-1,-9.9066657E-1,9.077671E-1,3.266096E-1,-3.1933463E-1,-1.1267196E0,9.8597324E-1,7.729397E-1,7.186503E-1,-1.1742519E0,1.0981417E0,-1.0795847E0,-5.6272596E-2,-6.976088E-2,4.946106E-2,-7.328641E-2,4.062178E-2,-1.3401507E-1,5.3024895E-2,2.0917285E-2,-2.3083068E-2,-6.305038E-2,6.1685354E-2,1.334206E-2,3.7840765E-2,-5.691771E-2],"categories":[0],"categories_nodes":[12],"categories_segments":[0],"categories_sizes":[1],"default_left":[0,0,0,0,0,0,0,0,0,0,0,0,1,0,0,0,0,0,0,0,0,0,0,0,0,0,0],"id":32,"left_children":[1,3,5,7,9,11,13,15,17,19,21,23,25,-1,-1,-1,-1,-1,-1,-1,-1,-1,-1,-1,-1,-1,-1],"loss_changes":[1.9979988E4,1.2117373E3,1.0659893E3,1.1658984E2,3.118085E3,2.1227766E3,1.7333984E0,5.7510254E1,5.6005225E2,4.3084668E2,6.72738E1,7.718158E1,1.3921545E2,0E0,0E0,0E0,0E0,0E0,0E0,0E0,0E0,0E0,0E0,0E0,0E0,0E0,0E0],"parents":[2147483647,0,0,1,1,2,2,3,3,4,4,5,5,6,6,7,7,8,8,9,9,10,10,11,11,12,12],"right_children":[2,4,6,8,10,12,14,16,18,20,22,24,26,-1,-1,-1,-1,-1,-1,-1,-1,-1,-1,-1,-1,-1,-1],"split_conditions":[1.807417E2,4.3129635E1,6.5978146E0,2.2642311E1,3.919439E1,5.237296E2,1E0,1.5261296E2,6.943018E1,1.4499336E1,4.2021347E1,3.976277E2,1E-45,-5.6272596E-2,-6.976088E-2,4.946106E-2,-7.328641E-2,4.062178E-2,-1.3401507E-1,5.3024895E-2,2.0917285E-2,-2.3083068E-2,-6.305038E-2,6.1685354E-2,1.334206E-2,3.7840765E-2,-5.691771E-2],"split_indices":[18,18,12,18,12,18,8,12,12,12,12,18,0,0,0,0,0,0,0,0,0,0,0,0,0,0,0],"split_type":[0,0,0,0,0,0,0,0,0,0,0,0,1,0,0,0,0,0,0,0,0,0,0,0,0,0,0],"sum_hessian":[2.8099207E4,1.642529E4,1.1673918E4,1.1128451E4,5.2968374E3,1.9677445E3,9.706174E3,7.039124E3,4.0893274E3,4.2002183E3,1.0966195E3,6.867897E2,1.2809548E3,9.66573E3,4.0443344E1,7.0304067E3,8.717118E0,4.0438413E3,4.548601E1,1.963062E3,2.237156E3,1.19705765E2,9.769138E2,5.9007794E2,9.6711754E1,3.935423E1,1.2416006E3],"tree_param":{"num_deleted":"0","num_feature":"20","num_nodes":"27","size_leaf_vector":"1"}},{"base_weights":[-1.1128578E-2,7.20788E-1,-9.3509495E-1,9.256471E-1,3.9503875E-1,-2.805069E-1,-1.1086589E0,9.315679E-1,-2.5325415E-1,7.8705066E-1,-4.2909953E-1,9.862756E-1,-1.0704489E0,-6.466937E-1,-1.1193117E0,5.463586E-2,4.4607352E-2,-8.383542E-2,5.438534E-2,4.972127E-2,2.7793208E-2,5.7913223E-3,-6.0683496E-2,-1.0031942E-2,5.5497047E-2,3.8659595E-2,-5.6293514E-2,7.263606E-2,-5.925868E-2,-5.590983E-2,-6.6887826E-2],"categories":[0,0],"categories_nodes":[7,12],"categories_segments":[0,1],"categories_sizes":[1,1],"default_left":[0,0,0,0,0,0,0,1,0,0,0,0,1,0,0,0,0,0,0,0,0,0,0,0,0,0,0,0,0,0,0],"id":33,"left_children":[1,3,5,7,9,11,13,15,17,19,21,23,25,27,29,-1,-1,-1,-1,-1,-1,-1,-1,-1,-1,-1,-1,-1,-1,-1,-1],"loss_changes":[1.8161225E4,9.996177E2,1.3482988E3,6.444336E1,1.8700103E3,2.4918596E3,4.5448242E1,5.71709E1,9.106832E1,1.8748145E2,7.9794855E2,1.4062189E2,1.575664E2,2.43468E2,7.3828125E-1,0E0,0E0,0E0,0E0,0E0,0E0,0E0,0E0,0E0,0E0,0E0,0E0,0E0,0E0,0E0,0E0],"parents":[2147483647,0,0,1,1,2,2,3,3,4,4,5,5,6,6,7,7,8,8,9,9,10,10,11,11,12,12,13,13,14,14],"right_children":[2,4,6,8,10,12,14,16,18,20,22,24,26,28,30,-1,-1,-1,-1,-1,-1,-1,-1,-1,-1,-1,-1,-1,-1,-1,-1],"split_conditions":[1.4250446E2,3.3060555E1,8.589646E0,1.4282199E2,3.1817379E1,5.860055E2,1.5848961E2,1E-45,1E0,1.5919858E1,5.301298E1,1E0,1E-45,1.05871725E1,1E0,5.463586E-2,4.4607352E-2,-8.383542E-2,5.438534E-2,4.972127E-2,2.7793208E-2,5.7913223E-3,-6.0683496E-2,-1.0031942E-2,5.5497047E-2,3.8659595E-2,-5.6293514E-2,7.263606E-2,-5.925868E-2,-5.590983E-2,-6.6887826E-2],"split_indices":[18,18,12,12,12,18,18,3,16,12,18,10,0,12,8,0,0,0,0,0,0,0,0,0,0,0,0,0,0,0,0],"split_type":[0,0,0,0,0,0,0,1,0,0,0,0,1,0,0,0,0,0,0,0,0,0,0,0,0,0,0,0,0,0,0],"sum_hessian":[2.685314E4,1.498391E4,1.18692295E4,9.19774E3,5.78617E3,2.4880994E3,9.381131E3,9.151986E3,4.5754356E1,3.9210957E3,1.8650743E3,9.5552795E2,1.5325714E3,2.1284152E2,9.168289E3,1.793517E3,7.358469E3,2.2073044E1,2.3681313E1,2.0652559E3,1.8558396E3,1.1011318E3,7.6394244E2,9.0104126E1,8.654238E2,4.4347923E1,1.4882235E3,4.3101284E1,1.6974025E2,9.1278125E3,4.0476543E1],"tree_param":{"num_deleted":"0","num_feature":"20","num_nodes":"31","size_leaf_vector":"1"}},{"base_weights":[8.402694E-3,7.131712E-1,-9.340366E-1,8.823851E-1,3.3051252E-1,-3.3814943E-1,-5.560441E-2,7.8953105E-1,1.0768212E0,6.442361E-1,-1.2812885E0,9.3870145E-1,-1.0643678E0,4.021714E-2,-8.424586E-2,5.4834515E-2,5.2705128E-2,2.195651E-2,5.5150222E-2,-9.563004E-2,-5.731064E-2,-2.7050486E-2,5.404774E-2,3.9274517E-2,-5.595086E-2],"categories":[0],"categories_nodes":[12],"categories_segments":[0],"categories_sizes":[1],"default_left":[0,0,0,0,0,0,0,0,0,0,0,0,1,0,0,0,0,0,0,0,0,0,0,0,0],"id":34,"left_children":[1,3,5,7,9,11,-1,13,15,17,19,21,23,-1,-1,-1,-1,-1,-1,-1,-1,-1,-1,-1,-1],"loss_changes":[1.7391807E4,9.6976514E2,1.1882715E3,1.8668115E2,2.3244E3,2.392287E3,0E0,2.5914795E2,3.5839844E-1,3.6151453E2,6.167993E1,1.9750116E2,1.6711182E2,0E0,0E0,0E0,0E0,0E0,0E0,0E0,0E0,0E0,0E0,0E0,0E0],"parents":[2147483647,0,0,1,1,2,2,3,3,4,4,5,5,7,7,8,8,9,9,10,10,11,11,12,12],"right_children":[2,4,6,8,10,12,-1,14,16,18,20,22,24,-1,-1,-1,-1,-1,-1,-1,-1,-1,-1,-1,-1],"split_conditions":[1.5341975E2,4.3129635E1,9.736109E0,1E0,4.2021347E1,5.860055E2,-5.560441E-2,1.235038E2,5.2083023E1,1E0,5.301298E1,1E0,1E-45,4.021714E-2,-8.424586E-2,5.4834515E-2,5.2705128E-2,2.195651E-2,5.5150222E-2,-9.563004E-2,-5.731064E-2,-2.7050486E-2,5.404774E-2,3.9274517E-2,-5.595086E-2],"split_indices":[18,18,12,7,12,18,0,12,12,7,18,10,0,0,0,0,0,0,0,0,0,0,0,0,0],"split_type":[0,0,0,0,0,0,0,0,0,0,0,0,1,0,0,0,0,0,0,0,0,0,0,0,0],"sum_hessian":[2.6182531E4,1.4980306E4,1.1202226E4,1.0386174E4,4.5941323E3,2.5778406E3,8.624386E3,7.03272E3,3.3534534E3,3.8461182E3,7.4801434E2,9.3449725E2,1.6433433E3,6.9915444E3,4.11756E1,1.7636964E3,1.5897571E3,2.6592012E3,1.1869167E3,1.2951797E2,6.184964E2,8.1713585E1,8.527836E2,4.6771664E1,1.5965717E3],"tree_param":{"num_deleted":"0","num_feature":"20","num_nodes":"25","size_leaf_vector":"1"}},{"base_weights":[-1.3690488E-2,7.081321E-1,-9.075075E-1,9.019638E-1,3.9716482E-1,-2.6416057E-1,-1.110464E0,8.1015277E-1,5.3647973E-2,7.239355E-1,-4.0848082E-1,8.9177597E-1,-1.0667282E0,-1.1080139E0,-1.4773126E0,4.136592E-2,-8.949989E-2,2.7276218E-2,5.5457987E-2,8.602177E-3,-5.757239E-2,2.9876009E-2,7.11911E-2,-5.566111E-2,3.2293465E-2,-6.0302574E-2,-5.524345E-2,-9.456583E-2,-6.1155606E-2],"categories":[],"categories_nodes":[],"categories_segments":[],"categories_sizes":[],"default_left":[0,0,0,0,0,0,0,0,0,0,0,0,0,0,0,0,0,0,0,0,0,0,0,0,0,0,0,0,0],"id":35,"left_children":[1,3,5,7,9,11,13,15,-1,17,19,21,23,25,27,-1,-1,-1,-1,-1,-1,-1,-1,-1,-1,-1,-1,-1,-1],"loss_changes":[1.6060006E4,8.297031E2,1.4518193E3,1.3230127E2,1.3928472E3,2.4764253E3,5.9609375E0,2.4800293E2,0E0,2.5806104E2,6.5881506E2,1.7042279E2,1.2615686E2,1.2587891E0,3.2734299E0,0E0,0E0,0E0,0E0,0E0,0E0,0E0,0E0,0E0,0E0,0E0,0E0,0E0,0E0],"parents":[2147483647,0,0,1,1,2,2,3,3,4,4,5,5,6,6,7,7,9,9,10,10,11,11,12,12,13,13,14,14],"right_children":[2,4,6,8,10,12,14,16,-1,18,20,22,24,26,28,-1,-1,-1,-1,-1,-1,-1,-1,-1,-1,-1,-1,-1,-1],"split_conditions":[1.320446E2,3.3060555E1,9.736109E0,1E0,3.5808468E1,5.731936E2,1E0,1E1,5.3647973E-2,1E0,4.791969E1,1E0,1E0,1.5848961E2,1.4199644E1,4.136592E-2,-8.949989E-2,2.7276218E-2,5.5457987E-2,8.602177E-3,-5.757239E-2,2.9876009E-2,7.11911E-2,-5.566111E-2,3.2293465E-2,-6.0302574E-2,-5.524345E-2,-9.456583E-2,-6.1155606E-2],"split_indices":[18,18,12,7,12,18,8,13,0,7,18,11,14,18,12,0,0,0,0,0,0,0,0,0,0,0,0,0,0],"split_type":[0,0,0,0,0,0,0,0,0,0,0,0,0,0,0,0,0,0,0,0,0,0,0,0,0,0,0,0,0],"sum_hessian":[2.4890395E4,1.3770178E4,1.1120217E4,8.481562E3,5.2886167E3,2.6673499E3,8.452867E3,5.5222773E3,2.959284E3,3.7626025E3,1.5260139E3,1.0929971E3,1.5743527E3,8.400781E3,5.2085617E1,5.486737E3,3.5540462E1,2.5732532E3,1.1893494E3,8.5708826E2,6.6892566E2,7.05135E2,3.8786206E2,1.5330823E3,4.1270424E1,2.4922522E2,8.151556E3,1.7364553E1,3.4721066E1],"tree_param":{"num_deleted":"0","num_feature":"20","num_nodes":"29","size_leaf_vector":"1"}},{"base_weights":[7.1666557E-3,6.659598E-1,-9.694596E-1,7.7339643E-1,4.771412E-2,-2.463098E-1,-1.0901539E0,6.416849E-1,1.0631194E0,9.035916E-1,-1.2011943E0,1.0333478E0,-1.0182419E0,-3.9124164E-1,-1.1061615E0,3.8558897E-2,1.618979E-2,5.3210396E-2,-5.1754173E-2,5.0647434E-2,1.8686289E-2,-6.433094E-2,-1.6589643E-2,-2.716901E-3,5.789038E-2,4.2595226E-2,-5.5346645E-2,7.1453504E-2,-5.6724694E-2,-5.5169035E-2,-8.898801E-2],"categories":[0],"categories_nodes":[12],"categories_segments":[0],"categories_sizes":[1],"default_left":[0,0,0,0,0,0,0,0,0,0,0,0,1,0,0,0,0,0,0,0,0,0,0,0,0,0,0,0,0,0,0],"id":36,"left_children":[1,3,5,7,9,11,13,15,17,19,21,23,25,27,29,-1,-1,-1,-1,-1,-1,-1,-1,-1,-1,-1,-1,-1,-1,-1,-1],"loss_changes":[1.5742343E4,9.704839E2,8.599863E2,4.7433545E2,2.314498E3,1.3948744E3,9.40625E1,3.5212622E2,9.983887E0,7.406702E1,6.4966064E1,7.2001465E1,1.4700629E2,2.5958078E2,1.3501953E1,0E0,0E0,0E0,0E0,0E0,0E0,0E0,0E0,0E0,0E0,0E0,0E0,0E0,0E0,0E0,0E0],"parents":[2147483647,0,0,1,1,2,2,3,3,4,4,5,5,6,6,7,7,8,8,9,9,10,10,11,11,12,12,13,13,14,14],"right_children":[2,4,6,8,10,12,14,16,18,20,22,24,26,28,30,-1,-1,-1,-1,-1,-1,-1,-1,-1,-1,-1,-1,-1,-1,-1,-1],"split_conditions":[1.807417E2,8.429344E1,5.1648173E0,1E0,1.8223892E1,5.731936E2,1.964913E2,3.7715046E1,1.3E1,1.3633867E1,1E0,1E0,1E-45,6.5978146E0,1E0,3.8558897E-2,1.618979E-2,5.3210396E-2,-5.1754173E-2,5.0647434E-2,1.8686289E-2,-6.433094E-2,-1.6589643E-2,-2.716901E-3,5.789038E-2,4.2595226E-2,-5.5346645E-2,7.1453504E-2,-5.6724694E-2,-5.5169035E-2,-8.898801E-2],"split_indices":[18,18,12,7,12,18,18,18,13,12,7,10,0,12,17,0,0,0,0,0,0,0,0,0,0,0,0,0,0,0,0],"split_type":[0,0,0,0,0,0,0,0,0,0,0,0,1,0,0,0,0,0,0,0,0,0,0,0,0,0,0,0,0,0,0],"sum_hessian":[2.4465629E4,1.4610372E4,9.855257E3,1.24471045E4,2.1632673E3,1.4100243E3,8.445232E3,8.559202E3,3.8879033E3,1.2837734E3,8.7949396E2,5.3040894E2,8.7961536E2,1.896644E2,8.255568E3,6.0807603E3,2.4784412E3,3.88638E3,1.5235082E0,1.0633922E3,2.2038129E2,8.003721E2,7.9121864E1,5.4518784E1,4.7589017E2,3.9437046E1,8.4017834E2,5.4721737E1,1.3494267E2,8.224254E3,3.131392E1],"tree_param":{"num_deleted":"0","num_feature":"20","num_nodes":"31","size_leaf_vector":"1"}},{"base_weights":[1.2043141E-2,6.497406E-1,-9.3811125E-1,8.6006737E-1,2.9079565E-1,8.6695737E-1,-9.916252E-1,7.69136E-1,5.2863657E-2,6.631637E-1,-7.8209466E-1,1.0438513E0,-5.700452E-2,-6.8599284E-1,-5.4609723E-2,3.977183E-2,-6.256803E-2,2.4616739E-2,5.3839333E-2,9.323044E-3,-5.2146E-2,5.298349E-2,-3.8630266E-2,2.3650168E-2,-5.5004038E-2],"categories":[0,0,1,2,3,4,5,6,8,9],"categories_nodes":[2,5],"categories_segments":[0,1],"categories_sizes":[1,9],"default_left":[0,0,1,0,0,1,0,0,0,0,0,0,0,0,0,0,0,0,0,0,0,0,0,0,0],"id":37,"left_children":[1,3,5,7,9,11,13,15,-1,17,19,21,-1,23,-1,-1,-1,-1,-1,-1,-1,-1,-1,-1,-1],"loss_changes":[1.4352553E4,1.069855E3,9.197959E2,1.5944531E2,2.09334E3,9.862755E1,2.8325488E2,3.2622583E2,0E0,2.7428503E2,3.4127203E2,8.08078E0,0E0,1.099697E3,0E0,0E0,0E0,0E0,0E0,0E0,0E0,0E0,0E0,0E0,0E0],"parents":[2147483647,0,0,1,1,2,2,3,3,4,4,5,5,6,6,7,7,9,9,10,10,11,11,13,13],"right_children":[2,4,6,8,10,12,14,16,-1,18,20,22,-1,24,-1,-1,-1,-1,-1,-1,-1,-1,-1,-1,-1],"split_conditions":[1.807417E2,3.7715046E1,1E-45,1E0,3E0,1E-45,1E0,9E0,5.2863657E-2,1E0,4.3129635E1,1E0,-5.700452E-2,5.860055E2,-5.4609723E-2,3.977183E-2,-6.256803E-2,2.4616739E-2,5.3839333E-2,9.323044E-3,-5.2146E-2,5.298349E-2,-3.8630266E-2,2.3650168E-2,-5.5004038E-2],"split_indices":[18,18,0,7,13,4,13,13,0,7,18,13,0,18,0,0,0,0,0,0,0,0,0,0,0],"split_type":[0,0,1,0,0,1,0,0,0,0,0,0,0,0,0,0,0,0,0,0,0,0,0,0,0],"sum_hessian":[2.368555E4,1.4173382E4,9.512169E3,8.935913E3,5.237469E3,2.7344498E2,9.238725E3,6.119239E3,2.8166743E3,3.8883286E3,1.3491405E3,2.5173764E2,2.1707333E1,2.2893032E3,6.949421E3,6.0412075E3,7.803129E1,2.7533623E3,1.1349664E3,2.86294E2,1.0628466E3,2.4997734E2,1.7602907E0,6.0258307E2,1.6867201E3],"tree_param":{"num_deleted":"0","num_feature":"20","num_nodes":"25","size_leaf_vector":"1"}},{"base_weights":[4.3783644E-3,7.247202E-1,-8.371184E-1,5.927481E-1,1.0402323E0,-2.8874943E-1,-1.0889257E0,6.339166E-1,-5.918781E-1,1.0422604E0,-5.422346E-2,6.830471E-1,-1.056912E0,-1.0830683E0,-1.8153831E0,3.911E-2,1.6663387E-2,1.0363583E-2,-8.167511E-2,5.2182715E-2,-5.2334722E-2,5.2241754E-2,1.1745049E-2,2.823984E-2,-5.4698016E-2,-3.1193128E-2,-5.4802127E-2,-1.3140093E-1,-6.1347168E-2],"categories":[0,2,3,4,5,9,0],"categories_nodes":[3,12],"categories_segments":[0,6],"categories_sizes":[6,1],"default_left":[0,0,0,1,0,0,0,0,0,0,0,0,1,0,0,0,0,0,0,0,0,0,0,0,0,0,0,0,0],"id":38,"left_children":[1,3,5,7,9,11,13,15,17,19,-1,21,23,25,27,-1,-1,-1,-1,-1,-1,-1,-1,-1,-1,-1,-1,-1,-1],"loss_changes":[1.3793409E4,5.098828E2,1.4488735E3,4.2207056E2,1.6705566E1,2.4671772E3,2.8636719E1,3.722964E2,2.4250375E2,1.1608887E1,0E0,2.3635388E2,1.1151343E2,4.1835938E1,2.3576508E1,0E0,0E0,0E0,0E0,0E0,0E0,0E0,0E0,0E0,0E0,0E0,0E0,0E0,0E0],"parents":[2147483647,0,0,1,1,2,2,3,3,4,4,5,5,6,6,7,7,8,8,9,9,11,11,12,12,13,13,14,14],"right_children":[2,4,6,8,10,12,14,16,18,20,-1,22,24,26,28,-1,-1,-1,-1,-1,-1,-1,-1,-1,-1,-1,-1,-1,-1],"split_conditions":[9.994397E1,1E0,1.3633867E1,1E-45,9.446201E1,5.860055E2,1E0,3.7715046E1,2.2642311E1,1.3E1,-5.422346E-2,6.028475E0,1E-45,1.1604901E2,1.320446E2,3.911E-2,1.6663387E-2,1.0363583E-2,-8.167511E-2,5.2182715E-2,-5.2334722E-2,5.2241754E-2,1.1745049E-2,2.823984E-2,-5.4698016E-2,-3.1193128E-2,-5.4802127E-2,-1.3140093E-1,-6.1347168E-2],"split_indices":[18,7,12,4,18,18,8,18,18,13,0,12,0,18,18,0,0,0,0,0,0,0,0,0,0,0,0,0,0],"split_type":[0,0,0,1,0,0,0,0,0,0,0,0,1,0,0,0,0,0,0,0,0,0,0,0,0,0,0,0,0],"sum_hessian":[2.2753195E4,1.2259179E4,1.0494018E4,8.6457295E3,3.6134485E3,3.3030361E3,7.1909814E3,8.355811E3,2.8991925E2,3.6105115E3,2.9368916E0,1.4582834E3,1.8447526E3,7.1359346E3,5.5046993E1,5.594794E3,2.7610168E3,1.6450757E2,1.2541169E2,3.6086038E3,1.9076923E0,8.061488E2,6.521347E2,4.0884346E1,1.8038683E3,1.974248E2,6.93851E3,2.1663546E1,3.3383446E1],"tree_param":{"num_deleted":"0","num_feature":"20","num_nodes":"29","size_leaf_vector":"1"}},{"base_weights":[5.7168645E-3,6.5497607E-1,-8.845422E-1,5.0039166E-1,1.0291818E0,-8.7570935E-2,-1.0684865E0,7.0757705E-1,6.1096076E-2,1.0305532E0,-5.1363077E-2,1.0106422E0,-9.789812E-1,-5.6353915E-1,-1.0896436E0,3.7414975E-2,-2.3543144E-2,1.9855043E-2,-6.4449586E-2,5.376599E-2,4.8847314E-2,6.312288E-2,2.1485845E-2,4.2250007E-2,-5.4471314E-2,5.3499307E-2,-5.843845E-2,-5.4379728E-2,-7.108663E-2],"categories":[0,2,3,4,5,9,0],"categories_nodes":[7,12],"categories_segments":[0,6],"categories_sizes":[6,1],"default_left":[0,0,0,0,0,0,0,1,0,0,0,0,1,0,0,0,0,0,0,0,0,0,0,0,0,0,0,0,0],"id":39,"left_children":[1,3,5,7,9,11,13,15,17,19,-1,21,23,25,27,-1,-1,-1,-1,-1,-1,-1,-1,-1,-1,-1,-1,-1,-1],"loss_changes":[1.2680139E4,7.333174E2,1.3561943E3,8.1721216E2,1.1514404E1,1.700462E3,7.968848E1,2.9315747E2,1.306436E3,7.842285E0,0E0,1.133078E2,1.9405646E2,3.0215268E2,3.3623047E0,0E0,0E0,0E0,0E0,0E0,0E0,0E0,0E0,0E0,0E0,0E0,0E0,0E0,0E0],"parents":[2147483647,0,0,1,1,2,2,3,3,4,4,5,5,6,6,7,7,8,8,9,9,11,11,12,12,13,13,14,14],"right_children":[2,4,6,8,10,12,14,16,18,20,-1,22,24,26,28,-1,-1,-1,-1,-1,-1,-1,-1,-1,-1,-1,-1,-1,-1],"split_conditions":[1.4250446E2,1E0,6.5978146E0,4.3129635E1,1.3E1,5.860055E2,1.7024268E2,1E-45,4.146437E1,4.2021347E1,-5.1363077E-2,1E0,1E-45,9.736109E0,1E0,3.7414975E-2,-2.3543144E-2,1.9855043E-2,-6.4449586E-2,5.376599E-2,4.8847314E-2,6.312288E-2,2.1485845E-2,4.2250007E-2,-5.4471314E-2,5.3499307E-2,-5.843845E-2,-5.4379728E-2,-7.108663E-2],"split_indices":[18,7,12,18,13,18,18,4,12,12,0,8,0,12,8,0,0,0,0,0,0,0,0,0,0,0,0,0,0],"split_type":[0,0,0,0,0,0,0,1,0,0,0,0,1,0,0,0,0,0,0,0,0,0,0,0,0,0,0,0,0],"sum_hessian":[2.1935613E4,1.2684886E4,9.250728E3,8.978291E3,3.7065952E3,1.7350011E3,7.515726E3,6.1004976E3,2.8777935E3,3.7046238E3,1.9716284E0,7.7727203E2,9.5772906E2,3.0335397E2,7.212372E3,5.897081E3,2.034161E2,2.3048716E3,5.729219E2,2.0083872E3,1.6962365E3,5.414115E2,2.358605E2,5.4301346E1,9.0342773E2,8.180177E1,2.2155222E2,7.1723896E3,3.9982327E1],"tree_param":{"num_deleted":"0","num_feature":"20","num_nodes":"29","size_leaf_vector":"1"}},{"base_weights":[6.387418E-3,6.0535586E-1,-9.1741115E-1,7.3871666E-1,4.4094983E-2,-4.8984268E-1,-5.391682E-2,6.0569876E-1,1.0346874E0,6.358508E-1,-1.0193112E0,5.8714867E-1,-1.0426543E0,3.6889013E-2,1.718629E-2,5.1806223E-2,-5.2503504E-2,4.8770558E-2,1.2623741E-2,-2.4082428E-2,-5.7944085E-2,1.8182814E-2,7.0209205E-2,-5.4415192E-2,2.9452471E-2],"categories":[],"categories_nodes":[],"categories_segments":[],"categories_sizes":[],"default_left":[0,0,0,0,0,0,0,0,0,0,0,0,0,0,0,0,0,0,0,0,0,0,0,0,0],"id":40,"left_children":[1,3,5,7,9,11,-1,13,15,17,19,21,23,-1,-1,-1,-1,-1,-1,-1,-1,-1,-1,-1,-1],"loss_changes":[1.1758334E4,9.649092E2,5.746006E2,4.0946484E2,1.5588236E3,1.3625422E3,0E0,2.485E2,1.0759766E1,2.0693164E2,6.59032E1,1.4128705E2,1.13263306E2,0E0,0E0,0E0,0E0,0E0,0E0,0E0,0E0,0E0,0E0,0E0,0E0],"parents":[2147483647,0,0,1,1,2,2,3,3,4,4,5,5,7,7,8,8,9,9,10,10,11,11,12,12],"right_children":[2,4,6,8,10,12,-1,14,16,18,20,22,24,-1,-1,-1,-1,-1,-1,-1,-1,-1,-1,-1,-1],"split_conditions":[1.807417E2,6.843568E1,1E0,1E0,2E0,5.860055E2,-5.391682E-2,3.3060555E1,1.3E1,1E0,7.869122E1,1E0,1E0,3.6889013E-2,1.718629E-2,5.1806223E-2,-5.2503504E-2,4.8770558E-2,1.2623741E-2,-2.4082428E-2,-5.7944085E-2,1.8182814E-2,7.0209205E-2,-5.4415192E-2,2.9452471E-2],"split_indices":[18,18,13,7,13,18,0,18,13,13,18,7,9,0,0,0,0,0,0,0,0,0,0,0,0],"split_type":[0,0,0,0,0,0,0,0,0,0,0,0,0,0,0,0,0,0,0,0,0,0,0,0,0],"sum_hessian":[2.1248275E4,1.2890642E4,8.357633E3,1.0415505E4,2.4751372E3,2.2865232E3,6.0711094E3,7.1880376E3,3.227467E3,1.5904811E3,8.846561E2,7.7554297E2,1.5109803E3,4.7775015E3,2.4105361E3,3.2257466E3,1.7204216E0,8.426193E2,7.4786176E2,1.8323544E2,7.0142065E2,6.101007E2,1.6544221E2,1.4701826E3,4.0797756E1],"tree_param":{"num_deleted":"0","num_feature":"20","num_nodes":"25","size_leaf_vector":"1"}},{"base_weights":[-5.390584E-3,6.0107344E-1,-9.00105E-1,8.244931E-1,3.006247E-1,-1.663581E-1,-1.0664883E0,7.288302E-1,1.0277898E0,5.9597445E-1,-7.468629E-1,9.3156815E-1,-9.664925E-1,-2.7816847E-1,-1.081246E0,3.844558E-2,-3.0824888E-2,5.147813E-2,-5.0434243E-2,4.616237E-2,1.6071735E-2,-7.7326584E-4,-6.376018E-2,-9.993756E-2,5.288881E-2,-5.4038852E-2,4.003929E-2,6.546287E-2,-5.593446E-2,-5.3970378E-2,-7.083492E-2],"categories":[0,2,3,5,6,9],"categories_nodes":[7],"categories_segments":[0],"categories_sizes":[6],"default_left":[0,0,0,0,0,0,0,1,0,0,0,0,0,0,0,0,0,0,0,0,0,0,0,0,0,0,0,0,0,0,0],"id":41,"left_children":[1,3,5,7,9,11,13,15,17,19,21,23,25,27,29,-1,-1,-1,-1,-1,-1,-1,-1,-1,-1,-1,-1,-1,-1,-1,-1],"loss_changes":[1.1051855E4,8.14625E2,1.0043794E3,1.3464014E2,1.6026372E3,1.3381022E3,7.773096E1,2.5592896E2,9.0720215E0,3.6272253E2,4.403109E2,2.3961224E2,1.787992E2,1.6771771E2,2.53125E0,0E0,0E0,0E0,0E0,0E0,0E0,0E0,0E0,0E0,0E0,0E0,0E0,0E0,0E0,0E0,0E0],"parents":[2147483647,0,0,1,1,2,2,3,3,4,4,5,5,6,6,7,7,8,8,9,9,10,10,11,11,12,12,13,13,14,14],"right_children":[2,4,6,8,10,12,14,16,18,20,22,24,26,28,30,-1,-1,-1,-1,-1,-1,-1,-1,-1,-1,-1,-1,-1,-1,-1,-1],"split_conditions":[1.5848961E2,3.3060555E1,6.5978146E0,1E0,4.0605663E1,5.860055E2,1.7024268E2,1E-45,1.3E1,1.621082E1,4.3129635E1,1E0,1E0,9.736109E0,1E0,3.844558E-2,-3.0824888E-2,5.147813E-2,-5.0434243E-2,4.616237E-2,1.6071735E-2,-7.7326584E-4,-6.376018E-2,-9.993756E-2,5.288881E-2,-5.4038852E-2,4.003929E-2,6.546287E-2,-5.593446E-2,-5.3970378E-2,-7.083492E-2],"split_indices":[18,18,12,7,12,18,18,4,13,12,18,10,14,12,17,0,0,0,0,0,0,0,0,0,0,0,0,0,0,0,0],"split_type":[0,0,0,0,0,0,0,1,0,0,0,0,0,0,0,0,0,0,0,0,0,0,0,0,0,0,0,0,0,0,0],"sum_hessian":[2.0365877E4,1.2138422E4,8.227455E3,6.9606216E3,5.1778E3,1.521162E3,6.706293E3,4.7364385E3,2.224183E3,4.0393074E3,1.1384926E3,6.411821E2,8.7997986E2,1.2360279E2,6.58269E3,4.599824E3,1.3661421E2,2.2227427E3,1.4405035E0,1.8416056E3,2.197702E3,4.7792126E2,6.6057135E2,2.5862606E1,6.153195E2,8.268955E2,5.3084385E1,4.2596474E1,8.100632E1,6.551005E3,3.1685244E1],"tree_param":{"num_deleted":"0","num_feature":"20","num_nodes":"31","size_leaf_vector":"1"}},{"base_weights":[-1.2360686E-2,-3.850128E-1,6.69629E-1,-5.202459E-1,4.8878598E-1,9.747238E-1,4.3049353E-1,7.429287E-1,-5.6963086E-1,9.952834E-1,3.6545554E-1,9.187122E-1,5.257969E-2,2.6630694E-1,1.0116495E0,3.9924257E-2,-8.971646E-2,-4.486894E-3,-3.1908605E-2,5.1362645E-2,-4.7579184E-2,6.1909284E-2,1.4883757E-2,5.045689E-2,3.8089782E-2,1.6636638E-2,-7.6568544E-2,5.2531566E-2,4.7793347E-2],"categories":[0,0,0,0,2,3,5,8,9,0,0,1,2,3,4,6,8,9,0,1,2,3,4,5,8,9],"categories_nodes":[2,3,4,7,8,9,13],"categories_segments":[0,1,2,3,9,10,18],"categories_sizes":[1,1,1,6,1,8,8],"default_left":[0,0,1,1,1,0,0,1,1,1,0,0,0,1,0,0,0,0,0,0,0,0,0,0,0,0,0,0,0],"id":42,"left_children":[1,3,5,7,9,11,13,15,17,19,21,23,-1,25,27,-1,-1,-1,-1,-1,-1,-1,-1,-1,-1,-1,-1,-1,-1],"loss_changes":[4.9710884E3,1.4948943E3,5.03833E2,6.837466E2,1.05561646E2,1.2106445E1,3.6960352E2,5.9589417E1,3.4670483E2,2.1608215E1,8.039116E1,2.426477E1,0E0,3.6158878E2,8.517456E-1,0E0,0E0,0E0,0E0,0E0,0E0,0E0,0E0,0E0,0E0,0E0,0E0,0E0,0E0],"parents":[2147483647,0,0,1,1,2,2,3,3,4,4,5,5,6,6,7,7,8,8,9,9,10,10,11,11,13,13,14,14],"right_children":[2,4,6,8,10,12,14,16,18,20,22,24,-1,26,28,-1,-1,-1,-1,-1,-1,-1,-1,-1,-1,-1,-1,-1,-1],"split_conditions":[1E0,1E0,1E-45,1E-45,1E-45,1E0,1E0,1E-45,1E-45,1E-45,2.649579E0,4.4041077E1,5.257969E-2,1E-45,1E0,3.9924257E-2,-8.971646E-2,-4.486894E-3,-3.1908605E-2,5.1362645E-2,-4.7579184E-2,6.1909284E-2,1.4883757E-2,5.045689E-2,3.8089782E-2,1.6636638E-2,-7.6568544E-2,5.2531566E-2,4.7793347E-2],"split_indices":[8,7,0,0,0,7,7,4,3,4,12,12,0,4,6,0,0,0,0,0,0,0,0,0,0,0,0,0,0],"split_type":[0,0,1,1,1,0,0,1,1,1,0,0,0,1,0,0,0,0,0,0,0,0,0,0,0,0,0,0,0],"sum_hessian":[1.9558043E4,1.2647593E4,6.91045E3,1.095288E4,1.694713E3,3.035108E3,3.875342E3,4.1157306E2,1.0541307E4,3.3046768E2,1.3642454E3,1.763255E3,1.271853E3,3.0228054E3,8.525365E2,4.0342487E2,8.148193E0,1.3177012E3,9.223605E3,3.2559344E2,4.874215E0,9.707358E1,1.2671719E3,1.1151827E3,6.480722E2,2.9158762E3,1.0692931E2,4.9134308E2,3.611934E2],"tree_param":{"num_deleted":"0","num_feature":"20","num_nodes":"29","size_leaf_vector":"1"}},{"base_weights":[2.1643767E-3,5.815853E-1,-8.951813E-1,4.2661238E-1,9.901274E-1,-1.3482279E-1,-1.0751828E0,6.4742666E-1,4.6922818E-2,9.983454E-1,-5.6834467E-2,9.351158E-1,-9.602425E-1,-5.3668227E-2,-1.402263E0,3.4493838E-2,-2.8107388E-2,2.1671372E-2,-5.50174E-2,5.366498E-2,4.7922466E-2,-1.7621389E-2,5.31433E-2,-5.3748995E-2,3.931441E-2,-8.705204E-2,-5.5904627E-2],"categories":[0,2,3,4,5,9],"categories_nodes":[7],"categories_segments":[0],"categories_sizes":[6],"default_left":[0,0,0,0,0,0,0,1,0,0,0,0,0,0,0,0,0,0,0,0,0,0,0,0,0,0,0],"id":43,"left_children":[1,3,5,7,9,11,13,15,17,19,-1,21,23,-1,25,-1,-1,-1,-1,-1,-1,-1,-1,-1,-1,-1,-1],"loss_changes":[1.0080677E4,7.4547E2,1.0410044E3,7.162123E2,5.7749268E1,1.2878866E3,2.152832E0,2.7773364E2,1.3939073E3,8.621826E0,0E0,1.04845276E2,1.6579425E2,0E0,1.0129433E0,0E0,0E0,0E0,0E0,0E0,0E0,0E0,0E0,0E0,0E0,0E0,0E0],"parents":[2147483647,0,0,1,1,2,2,3,3,4,4,5,5,6,6,7,7,8,8,9,9,11,11,12,12,14,14],"right_children":[2,4,6,8,10,12,14,16,18,20,-1,22,24,-1,26,-1,-1,-1,-1,-1,-1,-1,-1,-1,-1,-1,-1],"split_conditions":[1.7024268E2,1E0,6.5978146E0,4.3129635E1,1.4250446E2,5.860055E2,1E0,1E-45,3.5508957E1,2.4457342E1,-5.6834467E-2,1E0,1E0,-5.3668227E-2,1.0306223E1,3.4493838E-2,-2.8107388E-2,2.1671372E-2,-5.50174E-2,5.366498E-2,4.7922466E-2,-1.7621389E-2,5.31433E-2,-5.3748995E-2,3.931441E-2,-8.705204E-2,-5.5904627E-2],"split_indices":[18,7,12,18,18,18,17,4,12,12,0,10,14,0,12,0,0,0,0,0,0,0,0,0,0,0,0],"split_type":[0,0,0,0,0,0,0,1,0,0,0,0,0,0,0,0,0,0,0,0,0,0,0,0,0,0,0],"sum_hessian":[1.9386121E4,1.1780039E4,7.6060825E3,8.541879E3,3.23816E3,1.4562732E3,6.149809E3,5.4004556E3,3.1414233E3,3.2262246E3,1.1935506E1,6.3414233E2,8.2213086E2,6.120067E3,2.9742332E1,5.2177676E3,1.826881E2,2.350264E3,7.9115936E2,1.1117108E3,2.1145137E3,5.708151E1,5.770608E2,7.7181165E2,5.031921E1,1.12289E1,1.8513433E1],"tree_param":{"num_deleted":"0","num_feature":"20","num_nodes":"27","size_leaf_vector":"1"}},{"base_weights":[5.985093E-3,5.576556E-1,-8.7254804E-1,4.0167493E-1,9.8510563E-1,-7.969829E-2,-1.0710146E0,6.574405E-1,4.075516E-2,9.873779E-1,-7.051718E-2,9.545832E-1,-9.8632276E-1,-5.3474523E-2,-6.8276584E-2,3.383821E-2,-8.004605E-2,3.768439E-2,-2.2664463E-2,5.2347362E-2,4.5130458E-2,-1.7427467E-2,5.368947E-2,3.4612607E-2,-5.3542078E-2],"categories":[0],"categories_nodes":[12],"categories_segments":[0],"categories_sizes":[1],"default_left":[0,0,0,0,0,0,0,0,0,0,0,0,1,0,0,0,0,0,0,0,0,0,0,0,0],"id":44,"left_children":[1,3,5,7,9,11,13,15,17,19,-1,21,23,-1,-1,-1,-1,-1,-1,-1,-1,-1,-1,-1,-1],"loss_changes":[9.109406E3,7.6938745E2,1.1407227E3,7.809673E2,1.8189453E1,1.3630092E3,1.1425781E0,2.171665E2,1.2366301E3,1.4626465E1,0E0,1.0585376E2,1.1062573E2,0E0,0E0,0E0,0E0,0E0,0E0,0E0,0E0,0E0,0E0,0E0,0E0],"parents":[2147483647,0,0,1,1,2,2,3,3,4,4,5,5,6,6,7,7,8,8,9,9,11,11,12,12],"right_children":[2,4,6,8,10,12,14,16,18,20,-1,22,24,-1,-1,-1,-1,-1,-1,-1,-1,-1,-1,-1,-1],"split_conditions":[1.807417E2,1E0,6.5978146E0,3.7715046E1,1.5261296E2,5.860055E2,1E0,1E1,1.9100817E1,4.1175034E1,-7.051718E-2,1E0,1E-45,-5.3474523E-2,-6.8276584E-2,3.383821E-2,-8.004605E-2,3.768439E-2,-2.2664463E-2,5.2347362E-2,4.5130458E-2,-1.7427467E-2,5.368947E-2,3.4612607E-2,-5.3542078E-2],"split_indices":[18,7,12,18,12,18,17,13,12,12,0,10,0,0,0,0,0,0,0,0,0,0,0,0,0],"split_type":[0,0,0,0,0,0,0,0,0,0,0,0,1,0,0,0,0,0,0,0,0,0,0,0,0],"sum_hessian":[1.8793422E4,1.1544486E4,7.2489365E3,8.45948E3,3.0850056E3,1.4515546E3,5.7973823E3,4.9504946E3,3.5089858E3,3.0826694E3,2.336273E0,6.7801685E2,7.735377E2,5.7721426E3,2.5239676E1,4.9091895E3,4.1305313E1,1.4360963E3,2.0728896E3,1.8037635E3,1.2789058E3,5.66633E1,6.213535E2,3.673698E1,7.368007E2],"tree_param":{"num_deleted":"0","num_feature":"20","num_nodes":"25","size_leaf_vector":"1"}},{"base_weights":[-1.415688E-3,5.5685717E-1,-8.58949E-1,4.0100548E-1,9.735467E-1,-5.524892E-2,-1.0616599E0,6.4169395E-1,4.706936E-2,9.865836E-1,3.5022935E-1,9.2808706E-1,-9.507805E-1,-3.4543452E-1,-1.0690117E0,3.4518175E-2,-5.1999267E-2,1.7521417E-2,-5.3370964E-2,4.940647E-2,-4.9204852E-2,5.4584373E-2,-6.2605076E-2,-1.53081585E-2,5.213771E-2,3.8478017E-2,-5.3344417E-2,5.2569922E-2,-5.9584197E-2,-5.642549E-2,-5.3128608E-2],"categories":[0,2,3,4,5,9,0],"categories_nodes":[7,12],"categories_segments":[0,6],"categories_sizes":[6,1],"default_left":[0,0,0,0,0,0,0,1,0,0,0,0,1,0,0,0,0,0,0,0,0,0,0,0,0,0,0,0,0,0,0],"id":45,"left_children":[1,3,5,7,9,11,13,15,17,19,21,23,25,27,29,-1,-1,-1,-1,-1,-1,-1,-1,-1,-1,-1,-1,-1,-1,-1,-1],"loss_changes":[8.656632E3,7.1086035E2,1.161564E3,6.791378E2,2.3875244E1,1.2664854E3,2.9611816E1,3.8911157E2,1.0917823E3,9.864502E0,7.575528E1,9.733942E1,1.5116351E2,7.138376E1,9.604492E-1,0E0,0E0,0E0,0E0,0E0,0E0,0E0,0E0,0E0,0E0,0E0,0E0,0E0,0E0,0E0,0E0],"parents":[2147483647,0,0,1,1,2,2,3,3,4,4,5,5,6,6,7,7,8,8,9,9,10,10,11,11,12,12,13,13,14,14],"right_children":[2,4,6,8,10,12,14,16,18,20,22,24,26,28,30,-1,-1,-1,-1,-1,-1,-1,-1,-1,-1,-1,-1,-1,-1,-1,-1],"split_conditions":[1.5848961E2,1E0,6.5978146E0,3.7715046E1,1.2146887E2,5.860055E2,1.6422163E2,1E-45,4.146437E1,1.3E1,1.1418442E1,1E0,1E-45,8.017501E0,1.1135829E1,3.4518175E-2,-5.1999267E-2,1.7521417E-2,-5.3370964E-2,4.940647E-2,-4.9204852E-2,5.4584373E-2,-6.2605076E-2,-1.53081585E-2,5.213771E-2,3.8478017E-2,-5.3344417E-2,5.2569922E-2,-5.9584197E-2,-5.642549E-2,-5.3128608E-2],"split_indices":[18,7,12,18,18,18,18,4,12,13,12,10,0,12,12,0,0,0,0,0,0,0,0,0,0,0,0,0,0,0,0],"split_type":[0,0,0,0,0,0,0,1,0,0,0,0,1,0,0,0,0,0,0,0,0,0,0,0,0,0,0,0,0,0,0],"sum_hessian":[1.8080207E4,1.0951132E4,7.129075E3,7.9715474E3,2.9795847E3,1.4361917E3,5.6928833E3,4.7443896E3,3.2271577E3,2.9179714E3,6.1613247E1,6.8451996E2,7.5167163E2,5.8328876E1,5.6345547E3,4.611517E3,1.3287247E2,2.5372224E3,6.8993536E2,2.9161826E3,1.788912E0,4.2339752E1,1.927349E1,5.8046852E1,6.2647314E2,4.7167953E1,7.0450366E2,2.1914322E1,3.6414555E1,5.3325507E2,5.1012993E3],"tree_param":{"num_deleted":"0","num_feature":"20","num_nodes":"31","size_leaf_vector":"1"}},{"base_weights":[2.559732E-2,-3.0543408E-1,6.5286356E-1,8.766534E-1,-4.03942E-1,9.4851434E-1,4.4054717E-1,9.724628E-1,5.120008E-1,-4.3602622E-1,2.9456922E-1,1.0117431E0,8.4507114E-1,3.7777618E-1,5.0545078E-2,4.9179636E-2,-5.1136054E-2,3.061669E-2,-6.700602E-2,-4.2961113E-2,-2.036447E-2,2.0778226E-2,-6.631129E-2,5.1769633E-2,4.84012E-2,3.9011747E-2,5.055942E-2,1.9150278E-2,-1.8308228E-1],"categories":[0,0,0,2,3,8,9,0,1,2,3,4,6,8,9,4],"categories_nodes":[1,2,7,8,13],"categories_segments":[0,1,2,7,15],"categories_sizes":[1,1,5,8,1],"default_left":[0,1,1,0,0,0,0,1,1,0,0,0,0,1,0,0,0,0,0,0,0,0,0,0,0,0,0,0,0],"id":46,"left_children":[1,3,5,7,9,11,13,15,17,19,21,23,25,27,-1,-1,-1,-1,-1,-1,-1,-1,-1,-1,-1,-1,-1,-1,-1],"loss_changes":[3.7298809E3,1.3694949E3,3.890791E2,3.1112122E1,2.4338098E2,1.610254E1,1.28982E2,1.6892273E1,3.61967E1,1.25857666E2,9.414491E1,6.5600586E-1,9.86969E0,7.019534E1,0E0,0E0,0E0,0E0,0E0,0E0,0E0,0E0,0E0,0E0,0E0,0E0,0E0,0E0,0E0],"parents":[2147483647,0,0,1,1,2,2,3,3,4,4,5,5,6,6,7,7,8,8,9,9,10,10,11,11,12,12,13,13],"right_children":[2,4,6,8,10,12,14,16,18,20,22,24,26,28,-1,-1,-1,-1,-1,-1,-1,-1,-1,-1,-1,-1,-1,-1,-1],"split_conditions":[1E0,1E-45,1E-45,4.3163925E1,1E0,5.236926E1,1E0,1E-45,1E-45,1E0,5.7808712E1,2.84307E1,1E0,1E-45,5.0545078E-2,4.9179636E-2,-5.1136054E-2,3.061669E-2,-6.700602E-2,-4.2961113E-2,-2.036447E-2,2.0778226E-2,-6.631129E-2,5.1769633E-2,4.84012E-2,3.9011747E-2,5.055942E-2,1.9150278E-2,-1.8308228E-1],"split_indices":[17,0,0,12,9,12,16,4,4,10,12,12,16,4,0,0,0,0,0,0,0,0,0,0,0,0,0,0,0],"split_type":[0,1,1,0,0,0,0,1,1,0,0,0,0,1,0,0,0,0,0,0,0,0,0,0,0,0,0,0,0],"sum_hessian":[1.7960832E4,1.1756833E4,6.2039985E3,9.037695E2,1.0853063E4,2.5916528E3,3.612346E3,7.144001E2,1.8936935E2,1.0376809E4,4.7625494E2,1.6030326E3,9.8862024E2,3.2556987E3,3.5664713E2,7.109412E2,3.4589021E0,1.8027301E2,9.096345E0,6.579873E2,9.718821E3,4.4386334E2,3.2391598E1,1.0255725E3,5.774601E2,7.151797E2,2.7344058E2,3.2523936E3,3.3052893E0],"tree_param":{"num_deleted":"0","num_feature":"20","num_nodes":"29","size_leaf_vector":"1"}},{"base_weights":[-6.007018E-3,5.4988223E-1,-9.1480243E-1,6.493687E-1,-9.208473E-2,6.8123096E-1,-9.501014E-1,5.358061E-1,9.8527473E-1,3.7728506E-1,-1.1762143E0,4.687957E-2,-5.6539506E-2,-6.1604047E-1,-1.0557231E0,4.497632E-2,2.2180585E-2,4.6265345E-2,5.07102E-2,2.3054646E-2,-6.0904812E-2,-6.1790664E-2,-5.544548E-2,-8.578032E-4,-5.294047E-2,-5.3363364E-2,1.1552348E-2],"categories":[0,0,1,2,3,4,5,6,8,9,0,0,1,3,4,5,6,8,9],"categories_nodes":[2,5,7,9],"categories_segments":[0,1,10,11],"categories_sizes":[1,9,1,8],"default_left":[0,0,1,0,0,1,0,1,0,1,0,0,0,0,0,0,0,0,0,0,0,0,0,0,0,0,0],"id":47,"left_children":[1,3,5,7,9,11,13,15,17,19,21,-1,-1,23,25,-1,-1,-1,-1,-1,-1,-1,-1,-1,-1,-1,-1],"loss_changes":[8.683438E3,6.812002E2,3.681704E2,3.5171875E2,7.2906506E2,6.6902115E1,2.2456006E2,2.3108618E2,3.1071777E0,1.3426855E2,3.659668E-1,0E0,0E0,4.0719604E2,7.226367E1,0E0,0E0,0E0,0E0,0E0,0E0,0E0,0E0,0E0,0E0,0E0,0E0],"parents":[2147483647,0,0,1,1,2,2,3,3,4,4,5,5,6,6,7,7,8,8,9,9,10,10,13,13,14,14],"right_children":[2,4,6,8,10,12,14,16,18,20,22,-1,-1,24,26,-1,-1,-1,-1,-1,-1,